tree
version=v3
num_class=4
num_tree_per_iteration=4
label_index=0
max_feature_idx=1688
objective=multiclass num_class:4
feature_names=Column_0 Column_1 Column_2 Column_3 Column_4 Column_5 Column_6 Column_7 Column_8 Column_9 Column_10 Column_11 Column_12 Column_13 Column_14 Column_15 Column_16 Column_17 Column_18 Column_19 Column_20 Column_21 Column_22 Column_23 Column_24 Column_25 Column_26 Column_27 Column_28 Column_29 Column_30 Column_31 Column_32 Column_33 Column_34 Column_35 Column_36 Column_37 Column_38 Column_39 Column_40 Column_41 Column_42 Column_43 Column_44 Column_45 Column_46 Column_47 Column_48 Column_49 Column_50 Column_51 Column_52 Column_53 Column_54 Column_55 Column_56 Column_57 Column_58 Column_59 Column_60 Column_61 Column_62 Column_63 Column_64 Column_65 Column_66 Column_67 Column_68 Column_69 Column_70 Column_71 Column_72 Column_73 Column_74 Column_75 Column_76 Column_77 Column_78 Column_79 Column_80 Column_81 Column_82 Column_83 Column_84 Column_85 Column_86 Column_87 Column_88 Column_89 Column_90 Column_91 Column_92 Column_93 Column_94 Column_95 Column_96 Column_97 Column_98 Column_99 Column_100 Column_101 Column_102 Column_103 Column_104 Column_105 Column_106 Column_107 Column_108 Column_109 Column_110 Column_111 Column_112 Column_113 Column_114 Column_115 Column_116 Column_117 Column_118 Column_119 Column_120 Column_121 Column_122 Column_123 Column_124 Column_125 Column_126 Column_127 Column_128 Column_129 Column_130 Column_131 Column_132 Column_133 Column_134 Column_135 Column_136 Column_137 Column_138 Column_139 Column_140 Column_141 Column_142 Column_143 Column_144 Column_145 Column_146 Column_147 Column_148 Column_149 Column_150 Column_151 Column_152 Column_153 Column_154 Column_155 Column_156 Column_157 Column_158 Column_159 Column_160 Column_161 Column_162 Column_163 Column_164 Column_165 Column_166 Column_167 Column_168 Column_169 Column_170 Column_171 Column_172 Column_173 Column_174 Column_175 Column_176 Column_177 Column_178 Column_179 Column_180 Column_181 Column_182 Column_183 Column_184 Column_185 Column_186 Column_187 Column_188 Column_189 Column_190 Column_191 Column_192 Column_193 Column_194 Column_195 Column_196 Column_197 Column_198 Column_199 Column_200 Column_201 Column_202 Column_203 Column_204 Column_205 Column_206 Column_207 Column_208 Column_209 Column_210 Column_211 Column_212 Column_213 Column_214 Column_215 Column_216 Column_217 Column_218 Column_219 Column_220 Column_221 Column_222 Column_223 Column_224 Column_225 Column_226 Column_227 Column_228 Column_229 Column_230 Column_231 Column_232 Column_233 Column_234 Column_235 Column_236 Column_237 Column_238 Column_239 Column_240 Column_241 Column_242 Column_243 Column_244 Column_245 Column_246 Column_247 Column_248 Column_249 Column_250 Column_251 Column_252 Column_253 Column_254 Column_255 Column_256 Column_257 Column_258 Column_259 Column_260 Column_261 Column_262 Column_263 Column_264 Column_265 Column_266 Column_267 Column_268 Column_269 Column_270 Column_271 Column_272 Column_273 Column_274 Column_275 Column_276 Column_277 Column_278 Column_279 Column_280 Column_281 Column_282 Column_283 Column_284 Column_285 Column_286 Column_287 Column_288 Column_289 Column_290 Column_291 Column_292 Column_293 Column_294 Column_295 Column_296 Column_297 Column_298 Column_299 Column_300 Column_301 Column_302 Column_303 Column_304 Column_305 Column_306 Column_307 Column_308 Column_309 Column_310 Column_311 Column_312 Column_313 Column_314 Column_315 Column_316 Column_317 Column_318 Column_319 Column_320 Column_321 Column_322 Column_323 Column_324 Column_325 Column_326 Column_327 Column_328 Column_329 Column_330 Column_331 Column_332 Column_333 Column_334 Column_335 Column_336 Column_337 Column_338 Column_339 Column_340 Column_341 Column_342 Column_343 Column_344 Column_345 Column_346 Column_347 Column_348 Column_349 Column_350 Column_351 Column_352 Column_353 Column_354 Column_355 Column_356 Column_357 Column_358 Column_359 Column_360 Column_361 Column_362 Column_363 Column_364 Column_365 Column_366 Column_367 Column_368 Column_369 Column_370 Column_371 Column_372 Column_373 Column_374 Column_375 Column_376 Column_377 Column_378 Column_379 Column_380 Column_381 Column_382 Column_383 Column_384 Column_385 Column_386 Column_387 Column_388 Column_389 Column_390 Column_391 Column_392 Column_393 Column_394 Column_395 Column_396 Column_397 Column_398 Column_399 Column_400 Column_401 Column_402 Column_403 Column_404 Column_405 Column_406 Column_407 Column_408 Column_409 Column_410 Column_411 Column_412 Column_413 Column_414 Column_415 Column_416 Column_417 Column_418 Column_419 Column_420 Column_421 Column_422 Column_423 Column_424 Column_425 Column_426 Column_427 Column_428 Column_429 Column_430 Column_431 Column_432 Column_433 Column_434 Column_435 Column_436 Column_437 Column_438 Column_439 Column_440 Column_441 Column_442 Column_443 Column_444 Column_445 Column_446 Column_447 Column_448 Column_449 Column_450 Column_451 Column_452 Column_453 Column_454 Column_455 Column_456 Column_457 Column_458 Column_459 Column_460 Column_461 Column_462 Column_463 Column_464 Column_465 Column_466 Column_467 Column_468 Column_469 Column_470 Column_471 Column_472 Column_473 Column_474 Column_475 Column_476 Column_477 Column_478 Column_479 Column_480 Column_481 Column_482 Column_483 Column_484 Column_485 Column_486 Column_487 Column_488 Column_489 Column_490 Column_491 Column_492 Column_493 Column_494 Column_495 Column_496 Column_497 Column_498 Column_499 Column_500 Column_501 Column_502 Column_503 Column_504 Column_505 Column_506 Column_507 Column_508 Column_509 Column_510 Column_511 Column_512 Column_513 Column_514 Column_515 Column_516 Column_517 Column_518 Column_519 Column_520 Column_521 Column_522 Column_523 Column_524 Column_525 Column_526 Column_527 Column_528 Column_529 Column_530 Column_531 Column_532 Column_533 Column_534 Column_535 Column_536 Column_537 Column_538 Column_539 Column_540 Column_541 Column_542 Column_543 Column_544 Column_545 Column_546 Column_547 Column_548 Column_549 Column_550 Column_551 Column_552 Column_553 Column_554 Column_555 Column_556 Column_557 Column_558 Column_559 Column_560 Column_561 Column_562 Column_563 Column_564 Column_565 Column_566 Column_567 Column_568 Column_569 Column_570 Column_571 Column_572 Column_573 Column_574 Column_575 Column_576 Column_577 Column_578 Column_579 Column_580 Column_581 Column_582 Column_583 Column_584 Column_585 Column_586 Column_587 Column_588 Column_589 Column_590 Column_591 Column_592 Column_593 Column_594 Column_595 Column_596 Column_597 Column_598 Column_599 Column_600 Column_601 Column_602 Column_603 Column_604 Column_605 Column_606 Column_607 Column_608 Column_609 Column_610 Column_611 Column_612 Column_613 Column_614 Column_615 Column_616 Column_617 Column_618 Column_619 Column_620 Column_621 Column_622 Column_623 Column_624 Column_625 Column_626 Column_627 Column_628 Column_629 Column_630 Column_631 Column_632 Column_633 Column_634 Column_635 Column_636 Column_637 Column_638 Column_639 Column_640 Column_641 Column_642 Column_643 Column_644 Column_645 Column_646 Column_647 Column_648 Column_649 Column_650 Column_651 Column_652 Column_653 Column_654 Column_655 Column_656 Column_657 Column_658 Column_659 Column_660 Column_661 Column_662 Column_663 Column_664 Column_665 Column_666 Column_667 Column_668 Column_669 Column_670 Column_671 Column_672 Column_673 Column_674 Column_675 Column_676 Column_677 Column_678 Column_679 Column_680 Column_681 Column_682 Column_683 Column_684 Column_685 Column_686 Column_687 Column_688 Column_689 Column_690 Column_691 Column_692 Column_693 Column_694 Column_695 Column_696 Column_697 Column_698 Column_699 Column_700 Column_701 Column_702 Column_703 Column_704 Column_705 Column_706 Column_707 Column_708 Column_709 Column_710 Column_711 Column_712 Column_713 Column_714 Column_715 Column_716 Column_717 Column_718 Column_719 Column_720 Column_721 Column_722 Column_723 Column_724 Column_725 Column_726 Column_727 Column_728 Column_729 Column_730 Column_731 Column_732 Column_733 Column_734 Column_735 Column_736 Column_737 Column_738 Column_739 Column_740 Column_741 Column_742 Column_743 Column_744 Column_745 Column_746 Column_747 Column_748 Column_749 Column_750 Column_751 Column_752 Column_753 Column_754 Column_755 Column_756 Column_757 Column_758 Column_759 Column_760 Column_761 Column_762 Column_763 Column_764 Column_765 Column_766 Column_767 Column_768 Column_769 Column_770 Column_771 Column_772 Column_773 Column_774 Column_775 Column_776 Column_777 Column_778 Column_779 Column_780 Column_781 Column_782 Column_783 Column_784 Column_785 Column_786 Column_787 Column_788 Column_789 Column_790 Column_791 Column_792 Column_793 Column_794 Column_795 Column_796 Column_797 Column_798 Column_799 Column_800 Column_801 Column_802 Column_803 Column_804 Column_805 Column_806 Column_807 Column_808 Column_809 Column_810 Column_811 Column_812 Column_813 Column_814 Column_815 Column_816 Column_817 Column_818 Column_819 Column_820 Column_821 Column_822 Column_823 Column_824 Column_825 Column_826 Column_827 Column_828 Column_829 Column_830 Column_831 Column_832 Column_833 Column_834 Column_835 Column_836 Column_837 Column_838 Column_839 Column_840 Column_841 Column_842 Column_843 Column_844 Column_845 Column_846 Column_847 Column_848 Column_849 Column_850 Column_851 Column_852 Column_853 Column_854 Column_855 Column_856 Column_857 Column_858 Column_859 Column_860 Column_861 Column_862 Column_863 Column_864 Column_865 Column_866 Column_867 Column_868 Column_869 Column_870 Column_871 Column_872 Column_873 Column_874 Column_875 Column_876 Column_877 Column_878 Column_879 Column_880 Column_881 Column_882 Column_883 Column_884 Column_885 Column_886 Column_887 Column_888 Column_889 Column_890 Column_891 Column_892 Column_893 Column_894 Column_895 Column_896 Column_897 Column_898 Column_899 Column_900 Column_901 Column_902 Column_903 Column_904 Column_905 Column_906 Column_907 Column_908 Column_909 Column_910 Column_911 Column_912 Column_913 Column_914 Column_915 Column_916 Column_917 Column_918 Column_919 Column_920 Column_921 Column_922 Column_923 Column_924 Column_925 Column_926 Column_927 Column_928 Column_929 Column_930 Column_931 Column_932 Column_933 Column_934 Column_935 Column_936 Column_937 Column_938 Column_939 Column_940 Column_941 Column_942 Column_943 Column_944 Column_945 Column_946 Column_947 Column_948 Column_949 Column_950 Column_951 Column_952 Column_953 Column_954 Column_955 Column_956 Column_957 Column_958 Column_959 Column_960 Column_961 Column_962 Column_963 Column_964 Column_965 Column_966 Column_967 Column_968 Column_969 Column_970 Column_971 Column_972 Column_973 Column_974 Column_975 Column_976 Column_977 Column_978 Column_979 Column_980 Column_981 Column_982 Column_983 Column_984 Column_985 Column_986 Column_987 Column_988 Column_989 Column_990 Column_991 Column_992 Column_993 Column_994 Column_995 Column_996 Column_997 Column_998 Column_999 Column_1000 Column_1001 Column_1002 Column_1003 Column_1004 Column_1005 Column_1006 Column_1007 Column_1008 Column_1009 Column_1010 Column_1011 Column_1012 Column_1013 Column_1014 Column_1015 Column_1016 Column_1017 Column_1018 Column_1019 Column_1020 Column_1021 Column_1022 Column_1023 Column_1024 Column_1025 Column_1026 Column_1027 Column_1028 Column_1029 Column_1030 Column_1031 Column_1032 Column_1033 Column_1034 Column_1035 Column_1036 Column_1037 Column_1038 Column_1039 Column_1040 Column_1041 Column_1042 Column_1043 Column_1044 Column_1045 Column_1046 Column_1047 Column_1048 Column_1049 Column_1050 Column_1051 Column_1052 Column_1053 Column_1054 Column_1055 Column_1056 Column_1057 Column_1058 Column_1059 Column_1060 Column_1061 Column_1062 Column_1063 Column_1064 Column_1065 Column_1066 Column_1067 Column_1068 Column_1069 Column_1070 Column_1071 Column_1072 Column_1073 Column_1074 Column_1075 Column_1076 Column_1077 Column_1078 Column_1079 Column_1080 Column_1081 Column_1082 Column_1083 Column_1084 Column_1085 Column_1086 Column_1087 Column_1088 Column_1089 Column_1090 Column_1091 Column_1092 Column_1093 Column_1094 Column_1095 Column_1096 Column_1097 Column_1098 Column_1099 Column_1100 Column_1101 Column_1102 Column_1103 Column_1104 Column_1105 Column_1106 Column_1107 Column_1108 Column_1109 Column_1110 Column_1111 Column_1112 Column_1113 Column_1114 Column_1115 Column_1116 Column_1117 Column_1118 Column_1119 Column_1120 Column_1121 Column_1122 Column_1123 Column_1124 Column_1125 Column_1126 Column_1127 Column_1128 Column_1129 Column_1130 Column_1131 Column_1132 Column_1133 Column_1134 Column_1135 Column_1136 Column_1137 Column_1138 Column_1139 Column_1140 Column_1141 Column_1142 Column_1143 Column_1144 Column_1145 Column_1146 Column_1147 Column_1148 Column_1149 Column_1150 Column_1151 Column_1152 Column_1153 Column_1154 Column_1155 Column_1156 Column_1157 Column_1158 Column_1159 Column_1160 Column_1161 Column_1162 Column_1163 Column_1164 Column_1165 Column_1166 Column_1167 Column_1168 Column_1169 Column_1170 Column_1171 Column_1172 Column_1173 Column_1174 Column_1175 Column_1176 Column_1177 Column_1178 Column_1179 Column_1180 Column_1181 Column_1182 Column_1183 Column_1184 Column_1185 Column_1186 Column_1187 Column_1188 Column_1189 Column_1190 Column_1191 Column_1192 Column_1193 Column_1194 Column_1195 Column_1196 Column_1197 Column_1198 Column_1199 Column_1200 Column_1201 Column_1202 Column_1203 Column_1204 Column_1205 Column_1206 Column_1207 Column_1208 Column_1209 Column_1210 Column_1211 Column_1212 Column_1213 Column_1214 Column_1215 Column_1216 Column_1217 Column_1218 Column_1219 Column_1220 Column_1221 Column_1222 Column_1223 Column_1224 Column_1225 Column_1226 Column_1227 Column_1228 Column_1229 Column_1230 Column_1231 Column_1232 Column_1233 Column_1234 Column_1235 Column_1236 Column_1237 Column_1238 Column_1239 Column_1240 Column_1241 Column_1242 Column_1243 Column_1244 Column_1245 Column_1246 Column_1247 Column_1248 Column_1249 Column_1250 Column_1251 Column_1252 Column_1253 Column_1254 Column_1255 Column_1256 Column_1257 Column_1258 Column_1259 Column_1260 Column_1261 Column_1262 Column_1263 Column_1264 Column_1265 Column_1266 Column_1267 Column_1268 Column_1269 Column_1270 Column_1271 Column_1272 Column_1273 Column_1274 Column_1275 Column_1276 Column_1277 Column_1278 Column_1279 Column_1280 Column_1281 Column_1282 Column_1283 Column_1284 Column_1285 Column_1286 Column_1287 Column_1288 Column_1289 Column_1290 Column_1291 Column_1292 Column_1293 Column_1294 Column_1295 Column_1296 Column_1297 Column_1298 Column_1299 Column_1300 Column_1301 Column_1302 Column_1303 Column_1304 Column_1305 Column_1306 Column_1307 Column_1308 Column_1309 Column_1310 Column_1311 Column_1312 Column_1313 Column_1314 Column_1315 Column_1316 Column_1317 Column_1318 Column_1319 Column_1320 Column_1321 Column_1322 Column_1323 Column_1324 Column_1325 Column_1326 Column_1327 Column_1328 Column_1329 Column_1330 Column_1331 Column_1332 Column_1333 Column_1334 Column_1335 Column_1336 Column_1337 Column_1338 Column_1339 Column_1340 Column_1341 Column_1342 Column_1343 Column_1344 Column_1345 Column_1346 Column_1347 Column_1348 Column_1349 Column_1350 Column_1351 Column_1352 Column_1353 Column_1354 Column_1355 Column_1356 Column_1357 Column_1358 Column_1359 Column_1360 Column_1361 Column_1362 Column_1363 Column_1364 Column_1365 Column_1366 Column_1367 Column_1368 Column_1369 Column_1370 Column_1371 Column_1372 Column_1373 Column_1374 Column_1375 Column_1376 Column_1377 Column_1378 Column_1379 Column_1380 Column_1381 Column_1382 Column_1383 Column_1384 Column_1385 Column_1386 Column_1387 Column_1388 Column_1389 Column_1390 Column_1391 Column_1392 Column_1393 Column_1394 Column_1395 Column_1396 Column_1397 Column_1398 Column_1399 Column_1400 Column_1401 Column_1402 Column_1403 Column_1404 Column_1405 Column_1406 Column_1407 Column_1408 Column_1409 Column_1410 Column_1411 Column_1412 Column_1413 Column_1414 Column_1415 Column_1416 Column_1417 Column_1418 Column_1419 Column_1420 Column_1421 Column_1422 Column_1423 Column_1424 Column_1425 Column_1426 Column_1427 Column_1428 Column_1429 Column_1430 Column_1431 Column_1432 Column_1433 Column_1434 Column_1435 Column_1436 Column_1437 Column_1438 Column_1439 Column_1440 Column_1441 Column_1442 Column_1443 Column_1444 Column_1445 Column_1446 Column_1447 Column_1448 Column_1449 Column_1450 Column_1451 Column_1452 Column_1453 Column_1454 Column_1455 Column_1456 Column_1457 Column_1458 Column_1459 Column_1460 Column_1461 Column_1462 Column_1463 Column_1464 Column_1465 Column_1466 Column_1467 Column_1468 Column_1469 Column_1470 Column_1471 Column_1472 Column_1473 Column_1474 Column_1475 Column_1476 Column_1477 Column_1478 Column_1479 Column_1480 Column_1481 Column_1482 Column_1483 Column_1484 Column_1485 Column_1486 Column_1487 Column_1488 Column_1489 Column_1490 Column_1491 Column_1492 Column_1493 Column_1494 Column_1495 Column_1496 Column_1497 Column_1498 Column_1499 Column_1500 Column_1501 Column_1502 Column_1503 Column_1504 Column_1505 Column_1506 Column_1507 Column_1508 Column_1509 Column_1510 Column_1511 Column_1512 Column_1513 Column_1514 Column_1515 Column_1516 Column_1517 Column_1518 Column_1519 Column_1520 Column_1521 Column_1522 Column_1523 Column_1524 Column_1525 Column_1526 Column_1527 Column_1528 Column_1529 Column_1530 Column_1531 Column_1532 Column_1533 Column_1534 Column_1535 Column_1536 Column_1537 Column_1538 Column_1539 Column_1540 Column_1541 Column_1542 Column_1543 Column_1544 Column_1545 Column_1546 Column_1547 Column_1548 Column_1549 Column_1550 Column_1551 Column_1552 Column_1553 Column_1554 Column_1555 Column_1556 Column_1557 Column_1558 Column_1559 Column_1560 Column_1561 Column_1562 Column_1563 Column_1564 Column_1565 Column_1566 Column_1567 Column_1568 Column_1569 Column_1570 Column_1571 Column_1572 Column_1573 Column_1574 Column_1575 Column_1576 Column_1577 Column_1578 Column_1579 Column_1580 Column_1581 Column_1582 Column_1583 Column_1584 Column_1585 Column_1586 Column_1587 Column_1588 Column_1589 Column_1590 Column_1591 Column_1592 Column_1593 Column_1594 Column_1595 Column_1596 Column_1597 Column_1598 Column_1599 Column_1600 Column_1601 Column_1602 Column_1603 Column_1604 Column_1605 Column_1606 Column_1607 Column_1608 Column_1609 Column_1610 Column_1611 Column_1612 Column_1613 Column_1614 Column_1615 Column_1616 Column_1617 Column_1618 Column_1619 Column_1620 Column_1621 Column_1622 Column_1623 Column_1624 Column_1625 Column_1626 Column_1627 Column_1628 Column_1629 Column_1630 Column_1631 Column_1632 Column_1633 Column_1634 Column_1635 Column_1636 Column_1637 Column_1638 Column_1639 Column_1640 Column_1641 Column_1642 Column_1643 Column_1644 Column_1645 Column_1646 Column_1647 Column_1648 Column_1649 Column_1650 Column_1651 Column_1652 Column_1653 Column_1654 Column_1655 Column_1656 Column_1657 Column_1658 Column_1659 Column_1660 Column_1661 Column_1662 Column_1663 Column_1664 Column_1665 Column_1666 Column_1667 Column_1668 Column_1669 Column_1670 Column_1671 Column_1672 Column_1673 Column_1674 Column_1675 Column_1676 Column_1677 Column_1678 Column_1679 Column_1680 Column_1681 Column_1682 Column_1683 Column_1684 Column_1685 Column_1686 Column_1687 Column_1688
feature_infos=[0:1] [0:1] [0:1] [0:1] [0:1] none none none [0:1] none none [0:1] none none none none none none none none none none none none none none none none none none none none none none none none none none none none none [0:1] none none none none none none none none none none none none none none none none none none none none none none none none none none none none none none none none none none none none none none none none [0:1] none none none none none none none none none none none none none none none none none none none none none none none none none none none none none none none none none none none none none none none none none none none none none none none none none none none none none none none none none none none none none none none none none none none none none none none none none none none none none none none none none none none none [0:1] none none none none none none none none none none none none none none none none none none none none none none none none none none none none none none none none none none none none none none none none none none none none none none none none none none none none none none none none none none none none none none none none none none none none none none none none none none none none none none none none none none none none none none none none none none none none none none none none none none none none none none none none none none none none none none none none none none none none none none none none none none none none none none none none none none none none none none none none none none none none none none none none none none none none none none none none none none none none none none none none none none none none none none none none none none none none none none none none none none none none none none none none none none none none none none none none none none none none none none none none none none none none none none none none none none none none none none none none none none none [0:1] none none none none none none [0:1] none none none none none none none none none none none none none none none none none none none none none none none none none none none none none none none none none none none none none none none none none none none none none none none none none none none none none none none none none none none none none none none none none none none none none none none none none none none none none none none none none none none none none none none none none none none none none none none none none none none none none none none none none [0:1] none none [0:1] none [0:1] none none none none none [0:1] none none none none none none none none none none none none none none none none none none none none none none none none none none none none none none none none none none none none none none none none none none none none none none none none none none none none none none none none none none none none none none none none none none none none none none none none none none none none none none none none none none none none none none none none none none none none none none none none none none none none none none none none none none none none none none none none none none none none none none none none none none none none none none none none none none none none none none none none none none none none none none none none none none none none none none none none none none none none none none none none none none none none none none none none none none none none none none none none none none none none none none none none none none none none none none none none none none none none none none none none none none none none none none none none none none none none none none none none none none none none none none none none none none none none none none none none none none none none none none none none none none none none none none none none none none none none none none none none none none none none none none none none none none none none none none none none none none none none none none none none none none none none none none none none none none none none none none none none none none none none none none none none none none none none none none none none none none none none none none none none none none none none none none none none none none none none none none none none none none none none none none none none none none none none none none none none none none none none none none none none none none none none none none none none none none none none none none none none none none none none none none none none none none none none none none none none none none none none none none none none none none none none none none none none none none none none none none none none none none none none none none none none none none none none none none none none none none none none none none none none none none none none none none none none none none none none none none none none none none none none none none none none none none none none none none none none none none none none none none none none none none none none none none none none none none none none none none none none none none none none none none none none none none none none none none none none none none none none none none none none none none none none none none none none none none none none none none none none none none [0:1] [0:1] none [0:1] none none [0:1] none none none none none [0:1] none none none none none [0:1] none none none [0:1] none none none none none none none none none none none none none none none none none none none none none none none none none none none none none none none none none none none none none none none [0:1] none none none none none none none none none none none [0:1] none none none none none none none none none none none none none none none none none [0:1] [0:1] none none none none none none none none none none none none none none none none none none none none none none none none [0:1] none none none none none none none none none none none none none none none none none none none none none none none none none none none none none none none none none none none none none none none none none none none none none none none none none none none none none none none none none none none none none none none none none none none none none none none none none none none none none none none none none none none none none none none none none none none none none none none none none [0:1] none none none none none none none none none none none none none none none none none none none none none none none none none none none none none none [0:1] none none none none none none none none none none none none none none none none none none none none none none none none none none none none none none none none none none none none none none none none none none none none none none none none none none none none none none none none none none none none none none none none none none none none none none none none none none none none none none none none none none none none none none none none none none none none none none none none none none none none none none none none none none none none none none none none none none none none none none none none none none none none none none none none none none none none none none none none none none none none none none none none none none none none none none none none none none none none none none none none none none none none none none none none none none none none none none none none none none none none none none none none none none none none none none none none none none none none none none none none none none none none none none none none none none none none none none none none none none none none [0:1] none none none none none none none none none none none none none none none none none none none none none none none none none none none none none none none [0:1] [0:1] [0:1] [0:1] [0:1] [1:128] none [0:1] none none [0:1] [0:1] [-1:1] [-1:0.69962416974542008] [-1:1036] [-1:205.46337873207477] [0:878] [-1:732.56262530926324] [8:680] [-1:371.93816690412399] [0:5.8781221759355171] [-1:3.3380824090712267] [-1:1] [-1:1] [-1:1] [-1:1] [-1:1] none [0:251789028888] [-1:1] none [-1:1] [-1:1] [-1:1] [-1:1] [-1:1] [-1:1] [0:878] [8:680] [-8:209] [0:5.8781221759355171] [-1:1] none none none [-1:11] none none [-1:48] [-1:6] [-1:6] [-1:1] [-1:1] [0:1] none [0:1] none none none [0:1] none none [0:1] none none none none none none none none none none none none none none none none none none none none none none none none none none none none none none none none none none none none none none none none [-1:1] [-1:1] [-1:1] [-1:1] [-1:1] [-1:8] none none none none none none none none none none [-1:1] [-1:1] [-1:1] [-1:1] [-1:1] [-1:1] [-1:1] [-1:1] [-1:1] [-1:1] none none none [-1:1] none none none [-1226911371:63242940] [0:1] [0:1036]
tree_sizes=4191 3680 4109 3801 4155 3738 4069 3927 3837 3318 4766 4251 3635 3319 4571 4704 4706 2786 4472 4480 4379 4065 4374 4573

Tree=0
num_leaves=39
num_cat=0
split_feature=1551 1266 8 1568 1687 1578 1587 1564 1575 1587 1589 1585 1578 1674 1578 1566 1568 1578 1601 1056 1568 1590 1568 1578 1578 1590 1570 1575 1590 1570 1590 1565 1578 1555 1555 1555 1578 1555
split_gain=535.846 540.817 350.232 192.674 153.273 123.901 309.207 67.8866 62.663 28.0181 34.3262 26.5933 19.0111 14.6233 37.7002 11.9016 11.8946 10.7992 10.5594 24.5336 9.06547 7.88008 7.60255 7.79951 14.7979 15.8183 5.97489 12.7487 4.94581 6.7718 2.84048 2.05822 0.926306 0.530177 2.2659 0.522876 0.35574 0.269315
threshold=1.0000000180025095e-35 1.0000000180025095e-35 1.0000000180025095e-35 31.637500000000003 0.10307459677419356 58.500000000000007 14.500000000000002 0.33333333333333343 1.0000000180025095e-35 28.500000000000004 -3.4999999999999996 1.0000000180025095e-35 86398.500000000015 1.0000000180025095e-35 1252796.5000000002 1.2500000000000002 39.650000000000006 2954327.0000000005 1.0000000180025095e-35 1.0000000180025095e-35 42.333333333333336 5.4950523271530356 33.488416988416994 1829.0000000000002 7775998.5000000009 2.949979687672204 3.7530714611784353 1.0000000180025095e-35 3.009372561572826 2.5217843656153409 3.8601227614520535 0.5052088927670203 89.000000000000014 12.500000000000002 15.500000000000002 10.500000000000002 34032598.500000007 7.5000000000000009
decision_type=2 2 2 2 2 2 2 2 2 2 2 2 2 2 2 2 2 2 2 2 2 2 2 2 2 2 2 2 2 2 2 2 2 2 2 2 2 2
left_child=3 2 5 7 9 6 8 11 15 -5 12 18 -11 21 16 -2 -15 -6 19 32 36 22 23 37 25 -25 27 -22 29 -26 -28 33 -1 -24 -35 -30 -16 -7
right_child=1 -3 -4 4 17 13 -8 -9 -10 10 -12 -13 -14 14 20 -17 -18 -19 -20 -21 26 -23 31 24 28 -27 30 -29 35 -31 -32 -33 -34 34 -36 -37 -38 -39
leaf_value=-1.2788954503802581 -1.4325878097362614 -0.51935230765536378 -0.60869350704803671 -0.49968029865377162 -1.0874148392606862 -1.6485966112330221 -0.66108465901427471 -1.6556021622822348 -1.6616883279437666 -0.79938129742883712 -0.51734128288849601 -1.4312587929830274 -1.1762375136321874 -1.100156127969961 -1.6604931308930801 -1.1287562719840283 -1.4136737677120677 -1.3252908233327469 -1.0442170694218231 -1.037977087947985 -1.2945757245244034 -1.3992554814112828 -1.6633493190060546 -1.5683671174166927 -1.6070923549143254 -1.2733898121712053 -1.6535099611313007 -1.5938857582375445 -1.6599749294666553 -1.3799424099204698 -1.5178858908102446 -1.5523303901418068 -1.3446285794504398 -1.5160332821360545 -1.65639776014435 -1.5635431555163928 -1.5746157820076119 -1.56691034374058
leaf_weight=43.60509192943573 18.51810896396637 50.912866711616516 36.632493734359741 53.663063049316406 28.805899679660797 106.29044926166534 47.017857015132904 32.835609078407288 105.00788801908493 28.649346768856049 25.042762756347656 36.517238259315491 22.691546320915222 19.497832775115967 73.712319850921631 28.477303028106689 22.660168886184692 41.402939558029175 56.243211686611176 48.930279016494751 26.463081002235413 16.065723657608032 252.68577253818512 31.430881857872009 28.778414785861969 32.176262378692627 26.418543696403503 23.21240097284317 65.234341740608215 19.855911016464233 39.472852468490601 26.796005308628082 35.161949336528778 20.002347886562347 36.141063511371613 15.938356101512907 18.023987650871277 16.522539615631104
leaf_count=25 22 43 29 45 21 143 43 25 54 24 21 22 19 19 89 29 26 30 44 29 24 18 325 34 31 32 26 19 78 26 37 34 28 24 41 20 14 20
internal_value=-1.36207 -1.46677 -1.5093 -1.08452 -0.865329 -1.5395 -1.32508 -1.25908 -1.53371 -0.673568 -0.805298 -1.19896 -0.959211 -1.58601 -1.52277 -1.24745 -1.26596 -1.22521 -1.15272 -1.2026 -1.5752 -1.60935 -1.61446 -1.57924 -1.53984 -1.42009 -1.51697 -1.43625 -1.59763 -1.51658 -1.57581 -1.64691 -1.30765 -1.65447 -1.60996 -1.64372 -1.64609 -1.63935
internal_weight=0 1203.95 1153.03 453.549 200.256 1116.4 199.021 253.293 152.003 130.047 76.3837 220.458 51.3409 917.379 249.461 46.9954 42.158 70.2088 183.941 127.697 207.303 667.918 651.852 316.227 193.414 63.6071 115.567 49.6755 129.807 48.6343 65.8914 335.625 78.767 308.829 56.1434 81.1727 91.7363 122.813
internal_count=1633 1300 1257 333 160 1228 148 173 105 109 64 148 43 1080 254 51 45 51 126 82 209 826 808 384 221 66 106 43 155 57 63 424 53 390 65 98 103 163
shrinkage=1


Tree=1
num_leaves=34
num_cat=0
split_feature=1112 1554 1551 1578 1568 1658 1585 1562 1590 1673 1578 1654 1575 1566 1568 1588 1588 1570 1553 1563 1578 1590 1578 1570 1584 1566 1589 1578 1570 1566 1568 1570 1570
split_gain=891.166 218.617 176.749 97.6795 85.7644 83.4488 76.7778 72.9272 67.3152 89.7532 64.9971 48.278 77.666 45.0442 35.8564 31.8803 40.1137 27.7761 27.5019 33.3157 27.0611 56.4763 24.7329 47.2478 60.5221 31.7137 9.60493 8.62663 5.60798 4.30283 29.6916 3.89612 3.33747
threshold=1.0000000180025095e-35 1.0000000180025095e-35 1.0000000180025095e-35 31535998.500000004 30.500000000000004 1.0000000180025095e-35 1.0000000180025095e-35 0.99806100123371133 4.7652142637900443 1.0000000180025095e-35 33782399.000000007 1.0000000180025095e-35 1.0000000180025095e-35 1.0000000180025095e-35 45.500000000000007 39.500000000000007 57.500000000000007 3.4633728537062294 1.0000000180025095e-35 0.055116553464111574 389436.50000000006 3.0389790866726494 1798.5000000000002 4.0095067028866174 1.0000000180025095e-35 21.500000000000004 2.5000000000000004 449.00000000000006 3.2026285729188739 7.5000000000000009 10.500000000000002 3.7310419895504014 5.5361499179203948
decision_type=2 2 2 2 2 2 2 2 2 2 2 2 2 2 2 2 2 2 2 2 2 2 2 2 2 2 2 2 2 2 2 2 2
left_child=1 2 4 -3 7 15 13 20 9 10 11 12 -8 -4 31 -6 -17 -14 19 29 21 27 28 24 25 -24 -10 -1 -20 30 -15 -13 -18
right_child=-2 3 6 -5 5 -7 8 -9 26 -11 -12 14 17 18 -16 16 32 -19 22 -21 -22 -23 23 -25 -26 -27 -28 -29 -30 -31 -32 -33 -34
leaf_value=-1.1999618484158785 -0.58074087233516547 -1.3062328059169805 -1.204377773820134 -0.67194222348196009 -1.7019091410665996 -0.96766111538666189 -0.76111032548160951 -1.5232697716895303 -1.7023357028891293 -1.7005327516970852 -1.6946688582141722 -1.4839736224428894 -1.5384032916459423 -1.7028078932861492 -1.0749419274863226 -1.2445377708090357 -1.6955295773876002 -1.1158313057710076 -1.5199822217812686 -1.269473410879483 -0.85079227370792099 -0.80336673849457463 -1.4278557932128688 -1.7004508065534558 -1.6963950357779576 -1.0076666430478345 -1.428958193554019 -1.3951607605257148 -1.7023721345854448 -1.7054568397707346 -1.2815858006765204 -1.6894872050099212 -1.5303176639922058
leaf_weight=44.955093145370483 108.11399269104004 47.591789960861206 22.476349353790283 40.003924131393433 66.326200008392334 25.319638252258301 43.872053384780884 42.456751108169556 73.511590719223022 50.348891735076904 24.533615112304688 17.558132648468018 23.573240041732788 83.493185997009277 17.66366982460022 49.391025066375732 26.567928791046143 31.923833131790161 21.144131422042847 17.210254907608032 35.150038003921509 29.011174201965332 27.567250728607178 49.633616209030151 28.968838691711426 37.786869525909424 13.87724733352661 36.869962692260742 74.196981430053711 339.0473165512085 17.729551792144775 16.679464340209961 22.444413900375366
leaf_count=34 41 41 21 16 60 15 24 39 103 56 40 20 31 104 14 38 25 29 25 15 21 14 29 80 46 27 17 32 100 421 15 22 18
internal_value=-1.40851 -1.46873 -1.49737 -1.01152 -1.32216 -1.46429 -1.5616 -1.17929 -1.43759 -1.35106 -1.24989 -1.17634 -1.05487 -1.61555 -1.4112 -1.54282 -1.43372 -1.29445 -1.62909 -1.67228 -1.07915 -1.1559 -1.54576 -1.46656 -1.34171 -1.18253 -1.65965 -1.28669 -1.6635 -1.6883 -1.62851 -1.58923 -1.62382
internal_weight=0 1498.88 1411.29 87.5957 378.492 190.049 1032.8 188.443 313.542 226.153 175.804 151.27 99.3691 719.254 51.9013 164.73 98.4034 55.4971 696.778 457.48 145.986 110.836 239.298 143.957 94.323 65.3541 87.3888 81.8251 95.3411 440.27 101.223 34.2376 49.0123
internal_count=1633 1592 1535 57 296 156 1239 140 356 236 180 140 84 883 56 141 81 60 862 555 101 80 307 182 102 56 120 66 125 540 119 42 43
shrinkage=1


Tree=2
num_leaves=38
num_cat=0
split_feature=1599 1584 1050 1669 1551 1553 1654 1573 1574 1687 1570 1555 1687 1578 1565 1587 1591 387 1566 1587 1555 1562 1676 1578 1578 1570 1570 1555 1570 1574 1554 1578 1570 1587 1570 1571 1589
split_gain=1458.1 470.643 325.525 125.341 93.6501 177.218 42.8988 71.0758 41.1402 36.4134 19.2849 28.8979 21.1883 18.2877 11.4021 11.0016 13.6283 12.93 8.24837 25.1696 20.9347 6.93954 6.50125 4.88378 4.79956 3.635 3.33101 2.93666 1.72346 1.29977 0.999864 0.974434 0.684933 0.68249 0.45911 0.330052 0.168587
threshold=3.5000000000000004 1.0000000180025095e-35 1.0000000180025095e-35 1.0000000180025095e-35 1.0000000180025095e-35 1.0000000180025095e-35 1.0000000180025095e-35 1.0000000180025095e-35 1.0000000180025095e-35 0.96249413970932973 3.4825661185009218 6.5000000000000009 0.95916666666666683 25056999.000000004 32.306260344361689 15.500000000000002 1.0000000180025095e-35 1.0000000180025095e-35 28.500000000000004 41.500000000000007 1.5000000000000002 0.99806100123371133 1.0000000180025095e-35 31535998.500000004 33695998.500000007 3.77715111817886 3.8494362398971478 1.5000000000000002 3.2026285729188739 1.0000000180025095e-35 1.0000000180025095e-35 11231999.000000002 1.5127976565354577 1.0000000180025095e-35 5.5869411381588696 0.092935427014009822 -5.4999999999999991
decision_type=2 2 2 2 2 2 2 2 2 2 2 2 2 2 2 2 2 2 2 2 2 2 2 2 2 2 2 2 2 2 2 2 2 2 2 2 2
left_child=2 9 3 6 8 29 10 13 -5 -2 11 15 -13 -8 18 16 22 24 -12 20 23 34 32 -20 28 -22 -9 -4 -17 -6 -10 -7 33 -1 35 36 -21
right_child=1 -3 27 4 5 31 7 26 30 -11 14 12 -14 -15 -16 17 -18 -19 19 21 25 -23 -24 -25 -26 -27 -28 -29 -30 -31 -32 -33 -34 -35 -36 -37 -38
leaf_value=-1.661933177772519 -0.94654078515498707 -1.6443536304958075 -0.84297080060912977 -1.2331697273607771 -0.65315528396834543 -1.6531222804517498 -1.3423299063349974 -1.666433042127401 -1.57430845694457 -0.52386888817907795 -1.6677654790179344 -1.5288431147284409 -1.1361740838849645 -1.0054653438947345 -1.3938015721788579 -1.3830262791619783 -1.4331862957067418 -1.6600507495303805 -1.3857620861454909 -1.6315450681424701 -1.6370432263133115 -1.4772643633803832 -1.4802760990676609 -1.1806700008574269 -1.2722604827399535 -1.4680980138607336 -1.4993958624277983 -0.5821972930487147 -1.5019227772803809 -0.85531813219370301 -1.6642799562639645 -1.5317941437682521 -1.6704571523650049 -1.5766477947119553 -1.5779414120487609 -1.590343621441346 -1.6715296868107372
leaf_weight=24.940010666847229 23.604843735694885 42.783155620098114 18.184083580970764 37.400595247745514 30.892975866794586 13.753529548645018 26.45798534154892 41.332823395729065 41.415855526924133 204.07057148218155 219.87700539827347 21.337941706180573 26.833097159862518 31.624687433242798 21.032494783401489 20.215336918830872 40.901574611663818 21.323750495910645 23.81194943189621 99.207406163215637 34.016544878482819 25.423258721828461 25.834997951984406 17.452095806598663 19.228858947753906 19.488943696022034 17.560958087444305 23.447870910167694 23.526876211166382 20.861722588539124 31.504359722137451 21.802954018115997 96.347845911979675 42.43978488445282 22.590098977088928 26.106133699417114 147.9353221654892
leaf_count=22 22 66 19 31 39 21 24 31 29 247 158 18 31 35 21 20 34 18 26 141 27 23 21 25 19 23 17 29 25 25 18 32 97 33 20 20 126
internal_value=-1.37212 -0.736651 -1.49738 -1.52335 -1.30313 -1.07271 -1.56166 -1.38942 -1.48653 -0.565638 -1.58138 -1.52507 -1.30976 -1.15581 -1.61221 -1.55811 -1.59205 -1.46383 -1.61939 -1.59317 -1.45617 -1.6332 -1.62583 -1.29654 -1.39393 -1.5784 -1.61958 -0.681015 -1.44845 -0.723304 -1.61661 -1.58513 -1.648 -1.61199 -1.64621 -1.65108 -1.65659
internal_weight=0 270.459 1376.11 1334.48 197.632 87.3112 1136.85 116.976 110.321 227.675 1019.87 362.93 48.171 58.0827 656.941 314.759 230.464 84.2948 635.909 416.032 94.7695 321.262 189.563 41.264 62.9711 53.5055 58.8938 41.632 43.7422 51.7547 72.9202 35.5565 163.728 67.3798 295.839 273.249 247.143
internal_count=1633 335 1298 1250 195 117 1055 107 78 269 948 338 49 59 610 289 207 82 589 431 101 330 173 51 64 50 48 48 45 64 47 53 152 55 307 287 267
shrinkage=1


Tree=3
num_leaves=35
num_cat=0
split_feature=1575 1674 1584 1551 1574 1578 1656 1589 1657 1587 1589 1570 1599 1687 1554 1670 1578 1601 1676 1573 1590 1578 1555 1566 1568 1568 1656 1566 1578 1566 1578 1551 1563 1578
split_gain=922.025 512.6 411.344 281.711 140.444 120.886 95.9663 53.1807 44.1937 30.5527 55.8767 25.6129 19.6205 26.7714 17.2086 16.6403 25.221 11.5145 7.97792 8.93431 8.86071 8.17927 5.03763 4.9771 4.42516 3.28186 2.31295 1.76298 2.27284 1.74262 1.5568 0.858096 2.18024 0.589565
threshold=1.0000000180025095e-35 1.0000000180025095e-35 1.0000000180025095e-35 1.0000000180025095e-35 1.0000000180025095e-35 63179325.000000007 1.0000000180025095e-35 1.0000000180025095e-35 1.0000000180025095e-35 31.500000000000004 -6.4999999999999991 2.649326358521066 3.5000000000000004 0.22656250000000003 1.0000000180025095e-35 1.0000000180025095e-35 32659198.500000004 1.0000000180025095e-35 1.0000000180025095e-35 1.0000000180025095e-35 3.3058326342811282 86398.500000000015 13.500000000000002 1.9130434782608698 51.375000000000007 39.650000000000006 1.0000000180025095e-35 4.5000000000000009 1209598.5000000002 1.2500000000000002 32659198.500000004 1.0000000180025095e-35 0.0055742741690556303 1498.5000000000002
decision_type=2 2 2 2 2 2 2 2 2 2 2 2 2 2 2 2 2 2 2 2 2 2 2 2 2 2 2 2 2 2 2 2 2 2
left_child=2 3 12 -2 5 9 7 11 -4 -3 -11 23 13 14 26 16 18 -13 19 20 21 -15 -22 -5 25 -19 27 28 29 -1 -29 -20 33 -33
right_child=1 4 8 6 -6 -7 -8 -9 -10 10 -12 17 -14 15 -16 -17 -18 24 31 -21 22 -23 -24 -25 -26 -27 -28 30 -30 -31 -32 32 -34 -35
leaf_value=-1.677241428740845 -1.538862595090513 -1.2429176279765839 -1.2266492932491981 -0.77150779360420219 -1.6567027737964515 -1.6720995255881455 -1.2693417474713202 -1.1362308683246611 -0.585033581208664 -0.62118923580691832 -1.2551959742573608 -0.53849332627288848 -1.6967166654342081 -1.2425103299459086 -1.4298903565496186 -1.3439202602716085 -1.272604743068952 -0.74242968101704865 -1.6933094428556097 -1.6707760247494783 -1.615179991973051 -1.5099354596122889 -1.4564740082484704 -1.0240390908873225 -0.63227101854331003 -1.0115710808445959 -1.5606385388351134 -1.6874585826226869 -1.5458892942831366 -1.5798282059275326 -1.6006580094421894 -1.5982742822227833 -1.6898828886897459 -1.5099120448056846
leaf_weight=72.626771688461304 46.743711948394775 33.854888677597046 13.785072326660154 22.61460554599762 122.15818107128143 34.452547907829285 29.072224617004395 23.3132563829422 37.405243039131165 31.084201216697693 21.424918293952942 132.85815477371216 213.65386736392975 19.177912473678589 33.093947887420654 39.520190715789795 25.817961096763611 14.109846949577333 35.04121196269989 32.929667234420776 45.682566046714783 20.047034502029419 30.695848941802979 20.389958024024963 28.622119784355164 15.672699093818663 27.618247151374817 231.6275897026062 29.705470323562622 32.128602147102356 31.56374180316925 23.581202387809753 24.48946750164032 16.146855592727661
leaf_count=67 37 34 15 32 64 15 28 24 59 49 18 214 263 24 29 35 28 22 27 24 36 16 32 26 45 23 27 177 17 25 30 30 20 21
internal_value=-1.40326 -1.0994 -1.57239 -0.858441 -1.4309 -1.20238 -0.747401 -0.689237 -0.75112 -1.01407 -0.872277 -0.646079 -1.61568 -1.59289 -1.63914 -1.52465 -1.55087 -0.5965 -1.58028 -1.53472 -1.49401 -1.37844 -1.55291 -0.879903 -0.740789 -0.866737 -1.65532 -1.66148 -1.62769 -1.64932 -1.67784 -1.64645 -1.61683 -1.56586
internal_weight=0 576.371 1036.34 333.397 242.975 120.817 286.653 257.581 51.1903 86.364 52.5091 234.267 985.148 771.494 458.364 313.13 273.61 191.263 247.792 148.533 115.603 39.2249 76.3784 43.0046 58.4047 29.7825 425.27 397.652 134.461 104.755 263.191 99.2587 64.2175 39.7281
internal_count=1633 631 1002 451 180 116 414 386 74 101 67 362 928 665 372 293 258 304 230 132 108 40 68 58 90 45 343 316 109 92 207 98 71 51
shrinkage=1


Tree=4
num_leaves=38
num_cat=0
split_feature=1551 1266 8 1578 1587 1568 1570 1687 1570 1672 1578 1553 1567 1600 1578 1570 1570 1578 1566 1573 1574 1674 1566 1570 1578 1688 1562 1555 1674 1566 1563 1555 1555 1555 1578 1555 1590
split_gain=246.452 201.162 138.556 76.3237 110.954 59.3761 42.693 41.7662 15.4071 14.3522 24.1799 11.6225 11.3666 10.1563 15.2025 10.7113 15.6483 10.0862 11.9241 7.94025 12.8629 7.08824 7.01306 7.98923 6.28421 5.49912 7.38548 5.49399 5.36262 5.31882 4.07478 2.253 3.20073 6.16386 2.16262 2.00921 0.690802
threshold=1.0000000180025095e-35 1.0000000180025095e-35 1.0000000180025095e-35 58.500000000000007 14.500000000000002 31.637500000000003 2.7299996050155806 0.10307459677419356 1.0684028754600869 1.0000000180025095e-35 129599.00000000001 1.0000000180025095e-35 1.0000000180025095e-35 2.0000000000000004 31535998.500000004 3.0364744698854786 1.9119674481420279 31492798.000000004 14.500000000000002 1.0000000180025095e-35 1.0000000180025095e-35 1.0000000180025095e-35 62.833333333333336 3.964281606357781 63179325.000000007 1.0000000180025095e-35 0.84559893986337686 1.5000000000000002 1.0000000180025095e-35 1.0000000180025095e-35 -1.0000000180025095e-35 6.5000000000000009 14.500000000000002 12.500000000000002 1252796.5000000002 5.5000000000000009 2.949979687672204
decision_type=2 2 2 2 2 2 2 2 2 2 2 2 2 2 2 2 2 2 2 2 2 2 2 2 2 2 2 2 2 2 2 2 2 2 2 2 2
left_child=5 2 3 4 6 8 21 11 19 13 -11 22 -9 15 35 16 29 18 -10 20 -1 -2 23 -7 -16 31 -27 -18 30 -5 -12 -17 33 34 -33 -15 -29
right_child=1 -3 -4 9 -6 7 -8 12 17 10 28 -13 -14 14 24 25 27 -19 -20 -21 -22 -23 -24 -25 -26 26 -28 36 -30 -31 -32 32 -34 -35 -36 -37 -38
leaf_value=-0.064571769405204607 -0.0034498942264586663 0.41891115288702818 0.37671168307961472 -0.071055175516429717 0.35746890881253429 0.42815874514769425 -0.25641037114782328 0.18237140487164194 0.16662045339200712 0.24909695623592648 -0.2632335766976644 0.2073368413377733 -0.057282543489763534 0.10372942464686183 -0.25074495400264246 -0.27460055255105481 0.06315583874500931 -0.17677472401371644 -0.096517637313315127 0.22256899609224509 0.14641530127113458 0.23656198677540394 0.48202032803085682 0.20164733518376834 -0.03919471022129286 -0.26846310226838893 -0.043141855439628264 -0.16773964578254255 0.0043007458557928775 -0.24659977983853401 -0.053990398857193013 -0.12709298066048205 -0.27235200768956697 0.00086653883249635628 -0.26418783901962056 -0.034694266817127013 -0.06386246125068766
leaf_weight=36.614358484745026 23.817569375038147 66.690620064735413 47.89824903011322 20.028985142707825 61.213935494422913 32.747560143470764 82.974365800619125 47.338329076766968 31.281390368938446 16.760372877120972 29.844148546457287 36.348787248134613 27.59133106470108 20.690625220537186 47.986147552728653 226.4418506026268 31.143516182899475 26.984135568141937 28.899740785360336 52.849875032901764 84.890291154384613 19.652267873287201 65.939233660697937 29.595634043216705 17.594695806503296 23.315861254930496 29.372854441404343 13.117537677288057 14.79399737715721 88.326451897621155 12.338173836469652 19.635626971721649 55.004794627428055 15.124466210603712 32.667637199163437 16.016850471496582 13.08810582756996
leaf_count=27 29 43 29 21 43 23 60 36 27 14 54 26 15 23 68 373 37 21 18 37 43 16 43 17 10 36 39 21 13 130 13 30 86 22 50 20 20
internal_value=0 -0.0814352 -0.115917 -0.141641 0.0291934 0.174244 -0.131289 0.281868 0.0749587 -0.184752 -0.0581691 0.366046 0.0945315 -0.198585 -0.109909 -0.214353 -0.148525 -0.0278341 0.040746 0.126214 0.0828281 0.107937 0.409065 0.32551 -0.195429 -0.241081 -0.145994 -0.0212123 -0.151293 -0.215098 -0.204698 -0.254983 -0.216768 -0.168108 -0.21607 0.0440117 -0.120114
internal_weight=0 1045.54 978.849 930.951 187.658 501.081 126.444 239.561 261.52 743.293 73.7367 164.631 74.9297 669.556 102.288 567.268 165.705 87.1653 60.1811 174.355 121.505 43.4698 128.282 62.3432 65.5808 401.563 52.6887 57.3492 56.9763 108.355 42.1823 348.874 122.433 67.4277 52.3033 36.7075 26.2056
internal_count=1633 1300 1257 1228 148 333 105 160 173 1080 94 109 51 986 121 865 229 66 45 107 70 45 83 40 78 636 75 78 80 151 67 561 188 102 80 43 41
shrinkage=0.3


Tree=5
num_leaves=34
num_cat=0
split_feature=1112 1551 1578 1585 1590 1566 1568 1687 1673 1566 1570 1566 1068 1553 1563 1566 1555 1653 1674 1578 1587 1569 1570 1590 1566 1578 1053 1578 1590 1562 1590 1578 1587
split_gain=284.598 101.767 137.874 57.3948 45.6661 54.9811 44.5625 50.9508 32.6031 39.5123 34.2284 25.302 22.9225 20.8029 29.7729 30.8392 22.0589 20.2971 20.7275 27.7634 19.8378 18.2488 10.408 9.38897 24.9725 9.49033 19.9087 8.65495 7.24562 6.28247 4.83881 1.81793 2.44708
threshold=1.0000000180025095e-35 1.0000000180025095e-35 90503999.000000015 1.0000000180025095e-35 4.1945050509334676 41.500000000000007 30.500000000000004 0.10307459677419356 1.0000000180025095e-35 34.250000000000007 3.4633728537062294 4.5000000000000009 1.0000000180025095e-35 1.0000000180025095e-35 0.063144035199489565 1.0000000180025095e-35 14.500000000000002 1.0000000180025095e-35 1.0000000180025095e-35 1798.5000000000002 44.500000000000007 0.58047117215569533 3.5145521276701093 3.0389790866726494 5.0909090909090917 389436.50000000006 1.0000000180025095e-35 209.00000000000003 5.3591266254469856 0.97242351046698883 3.6940713708893784 1.0000000180025095e-35 5.5000000000000009
decision_type=2 2 2 2 2 2 2 2 2 2 2 2 2 2 2 2 2 2 2 2 2 2 2 2 2 2 2 2 2 2 2 2 2
left_child=1 6 3 13 5 8 12 20 9 10 11 -5 23 14 15 -3 17 18 27 -20 -8 -9 -21 24 25 26 -1 -15 29 -6 -11 32 -17
right_child=-2 2 -4 4 28 -7 7 21 -10 30 -12 -13 -14 16 -16 31 -18 -19 19 22 -22 -23 -24 -25 -26 -27 -28 -29 -30 -31 -32 -33 -34
leaf_value=0.047690327351306412 0.39816614993539495 0.17045644553494602 0.32695667774757492 0.18936887618373011 -0.27234696544537063 0.35345725518655352 -0.27398854541587303 0.0070053424504163174 -0.26314821281501211 -0.058648415385206702 0.36159790392042374 -0.27680296010651323 -0.067184774304667988 -0.0349749436059347 0.17266586916725241 -0.26844640214251791 0.25602339008423208 0.19753475580626292 -0.26465351381610958 0.27294497662039308 -0.0071607560859714842 0.30651309942453936 -0.014324746382859884 0.32288947968237069 -0.042100745964498802 0.35432953520318455 0.32342967596919586 -0.27448268824932276 0.012523569308742835 -0.036284767034571244 -0.27103487476306232 -0.27071219606520008 -0.11659840489247943
leaf_weight=52.467713057994843 145.96002519130707 14.899650454521177 63.496442437171936 21.890399634838104 62.306349605321884 43.649965941905975 62.654129326343536 36.616218447685242 37.67078498005867 16.975735992193222 41.161064296960831 18.334640234708786 33.614391505718231 16.196666300296783 15.543371617794035 20.093007564544678 13.235928207635878 14.74393457174301 27.730828642845154 19.154599130153656 41.468557357788086 35.714975476264954 25.771117508411407 43.096489667892456 40.157271981239319 37.630641520023346 42.401532292366028 94.605134636163712 12.391523241996763 12.483483403921126 23.692653596401215 296.83269333839417 22.543077230453491
leaf_count=40 41 10 26 22 113 25 72 32 56 22 22 30 29 28 12 28 14 12 35 13 38 19 30 16 36 17 24 188 15 12 39 492 25
internal_value=0 -0.0412582 -0.0965724 -0.127755 -0.0187811 0.0591416 0.080192 -0.0350935 -0.0229881 0.0526708 0.172701 -0.0246733 0.161583 -0.182094 -0.225034 -0.242915 -0.106265 -0.131623 -0.159003 -0.0337527 -0.168799 0.157056 0.111432 0.19737 0.164361 0.226781 0.173019 -0.240098 -0.199167 -0.233943 -0.185916 -0.261505 -0.192671
internal_weight=0 1361.22 935.403 871.907 290.557 203.375 425.822 176.454 159.725 122.054 81.3861 40.225 249.368 581.35 369.912 354.368 211.438 198.202 183.458 72.6565 104.123 72.3312 44.9257 215.754 172.657 132.5 94.8692 110.802 87.1814 74.7898 40.6684 339.469 42.6361
internal_count=1633 1592 1269 1243 356 216 323 161 191 135 74 52 162 887 567 555 320 306 294 78 110 51 43 133 117 81 64 216 140 125 61 545 53
shrinkage=0.3


Tree=6
num_leaves=37
num_cat=0
split_feature=1599 1669 1584 1551 1553 1555 1553 1682 1551 1672 1266 1591 1673 1589 1687 1570 1570 1570 1658 1570 1670 1578 1687 1578 1578 1056 1578 1566 1570 1570 1555 1591 1554 1567 1570 1555
split_gain=536.55 153.634 135.491 77.523 96.2768 32.982 26.6131 41.1238 17.0098 22.5464 27.9966 13.1481 11.9417 9.78524 8.36262 8.06399 7.72777 17.906 7.52769 7.07171 6.24169 10.9663 5.55072 7.087 5.52368 3.24929 2.19935 2.01096 2.51844 4.65905 1.89601 1.09798 1.53847 1.09128 0.281567 0.0189045
threshold=3.5000000000000004 1.0000000180025095e-35 1.0000000180025095e-35 1.0000000180025095e-35 1.0000000180025095e-35 2.5000000000000004 1.0000000180025095e-35 1.0000000180025095e-35 1.0000000180025095e-35 1.0000000180025095e-35 1.0000000180025095e-35 1.0000000180025095e-35 1.0000000180025095e-35 -7.4999999999999991 0.96249413970932973 3.7394566895021599 3.4825661185009218 1.9957648121420117 -1.0000000180025095e-35 5.3580502575703068 1.0000000180025095e-35 2591997.5000000005 0.98112535612535623 11231999.000000002 32659198.500000004 1.0000000180025095e-35 1.0000000180025095e-35 2.5000000000000004 3.9706073798227624 5.263540277385462 1.5000000000000002 1.0000000180025095e-35 1.0000000180025095e-35 8.9456692948110526 3.1768328641095764 1.5000000000000002
decision_type=2 2 2 2 2 2 2 2 2 2 2 2 2 2 2 2 2 2 2 2 2 2 2 2 2 2 2 2 2 2 2 2 2 2 2 2
left_child=1 6 14 5 26 25 7 8 18 10 11 13 19 16 -2 -9 17 -10 27 20 22 -22 31 -24 -14 -3 -5 -1 33 -30 -6 32 -8 -29 -4 -11
right_child=2 3 34 4 30 -7 12 15 9 35 -12 -13 24 -15 -16 -17 -18 -19 -20 -21 21 -23 23 -25 -26 -27 -28 28 29 -31 -32 -33 -34 -35 -36 -37
leaf_value=-0.13553038974222531 0.2327518666543866 -0.13436973044299827 -0.16125800345228189 0.28146635529057346 -0.23394353280121993 0.1881078170163519 -0.26669700631193666 0.0038276794952828534 -0.15405543589051826 -0.2074722163601917 -0.26153725970762154 0.24390753625072295 -0.13403293233641167 0.18456418676869921 0.41621740716990574 0.21289801267219291 -0.1915387310820858 0.22395341912397074 -0.084968033901576215 -0.062633171320096673 -0.015423429329846947 -0.27004505103586074 -0.27223965060262517 -0.038704869754269934 0.12332782074803898 -0.26790655331678465 0.409514559348439 -0.27863179423756912 -0.068095141657889963 -0.26785777753845041 -0.083826186860433957 -0.16587569713021733 -0.15871139734816794 -0.18540067094127566 -0.26342603266971393 -0.27471904641287198
leaf_weight=26.75527948141098 29.095325529575348 42.891673862934113 10.346575319766997 26.369144439697266 21.523563534021378 27.211719870567322 263.72305864095688 30.566964626312256 23.225660920143127 32.044179707765579 29.605757534503937 26.154635787010193 14.792825222015383 19.639853894710541 269.05861806869507 35.444891512393951 22.228271037340164 20.114158034324646 48.895573049783707 26.948799431324005 33.535096764564514 27.077746391296387 19.767082989215851 27.679974734783173 13.311092555522917 30.867443978786469 87.891746044158936 84.063912153244019 22.873240232467651 20.01766562461853 13.869371861219404 18.58709180355072 17.932591497898102 23.490058720111847 22.507952988147736 19.439138621091843
leaf_count=20 22 29 20 25 32 25 358 26 20 40 34 29 22 22 247 34 26 20 35 33 36 26 21 36 19 24 83 77 23 21 25 20 13 26 46 18
internal_value=0 -0.0954431 0.33549 0.113113 0.249514 -0.0895194 -0.150645 -0.101149 -0.135846 -0.0697608 -0.00721688 0.0621201 -0.202077 0.00413834 0.399152 0.117589 -0.051866 0.022474 -0.191543 -0.214289 -0.224121 -0.131708 -0.239807 -0.13961 -0.0120878 -0.19309 0.382662 -0.220309 -0.234391 -0.165305 -0.179037 -0.255125 -0.260408 -0.260165 -0.236965 -0.237614
internal_weight=0 1198.54 331.008 250.625 149.654 100.971 947.915 484.559 418.547 192.452 140.968 111.363 463.355 85.2079 298.154 66.0119 65.5681 43.3398 226.096 435.251 408.303 60.6128 347.69 47.4471 28.1039 73.7591 114.261 177.2 150.445 42.8909 35.3929 300.243 281.656 107.554 32.8545 51.4833
internal_count=1633 1298 335 243 165 78 1055 471 411 209 151 117 584 88 269 60 66 40 202 543 510 62 448 57 41 53 108 167 147 44 57 391 371 103 66 58
shrinkage=0.3


Tree=7
num_leaves=36
num_cat=0
split_feature=1575 1584 1578 1566 1654 1587 1687 1588 1568 1587 1589 1599 1551 1553 1578 1266 1587 1589 1670 1566 1590 1565 1578 1578 1570 1555 1590 1590 1570 4 1555 1566 1570 1578 1570
split_gain=427.238 172.315 157.738 119.432 68.0777 54.9799 24.4528 21.8088 49.5172 27.0208 22.1834 15.807 26.1482 16.4013 14.7537 12.9954 20.4303 14.9232 24.6 13.0176 12.6991 12.6451 12.4538 22.0399 9.96784 9.03815 5.96357 13.3198 3.52801 3.1233 3.02495 1.31068 0.270459 0.222933 0.0858288
threshold=1.0000000180025095e-35 1.0000000180025095e-35 209.00000000000003 114.00000000000001 1.0000000180025095e-35 13.500000000000002 0.9742913645352671 48.500000000000007 28.500000000000004 25.500000000000004 -1.4999999999999998 3.5000000000000004 1.0000000180025095e-35 1.0000000180025095e-35 33955198.500000007 1.0000000180025095e-35 68.500000000000014 -5.4999999999999991 1.0000000180025095e-35 1.9130434782608698 5.4950523271530356 0.28506444165039596 31535998.500000004 31589999.000000004 3.4308823128329955 14.500000000000002 1.2500000000000002 3.1163849559112093 3.6161152378183234 1.0000000180025095e-35 1.5000000000000002 5.4954545454545469 3.8292399318175789 1829.0000000000002 3.4871756113733796
decision_type=2 2 2 2 2 2 2 2 2 2 2 2 2 2 2 2 2 2 2 2 2 2 2 2 2 2 2 2 2 2 2 2 2 2 2
left_child=1 11 5 4 7 -2 -3 8 22 -10 30 12 25 15 -6 16 17 18 19 29 -5 24 -4 -24 -21 26 -1 31 -7 33 -11 -28 -29 -14 -13
right_child=2 6 3 20 14 28 -8 -9 9 10 -12 34 13 -15 -16 -17 -18 -19 -20 21 -22 -23 23 -25 -26 -27 27 32 -30 -31 -32 -33 -34 -35 -36
leaf_value=-0.27693077504033037 0.25471611161430374 0.10683917522342266 0.4727015123639009 -0.28280754806606784 0.16130284935373981 -0.23101385870262736 0.47891843267718315 0.46392127088745017 -0.11481085566372991 0.26479983401786961 -0.052126999575896442 -0.26633307150301938 -0.13592122848362967 -0.24801235929699891 -0.13581915799890121 -0.25852214730162382 0.28203634335060551 -0.24642441671242343 0.28357318480794108 0.13603266353964388 -0.00142816308035813 -0.23421645592040258 0.028928477957398814 0.47049150511187104 -0.05227915094943808 -0.040306730130306868 -0.0022065469269693634 -0.2078822361590672 -0.097001490904712939 -0.26241956923117304 0.44125799398081045 -0.10322834475077157 -0.27027651590812091 -0.080639572292819831 -0.18565079167270326
leaf_weight=143.32705938816071 29.92003333568573 27.953385293483734 106.86020988225937 27.665483236312866 29.933298408985138 80.288850486278534 38.187649250030518 135.72719210386276 26.640360116958618 32.642185032367706 17.505533695220947 143.00891065597534 42.841433078050613 53.737422049045563 28.288250029087067 28.241949439048767 14.965706884860991 35.204533219337463 18.524122536182404 46.422466069459915 29.099700570106506 17.472191035747528 19.286404848098755 20.86487489938736 53.38987734913826 24.283054172992706 24.050590336322784 33.958453804254532 25.330605417490005 20.927924573421478 18.369701325893402 21.333995580673218 59.389473557472229 14.542645931243895 11.644136160612105
leaf_count=119 33 27 131 16 28 46 47 166 19 39 11 242 65 39 17 34 18 37 20 56 30 17 19 26 62 27 20 30 27 32 23 21 58 10 21
internal_value=0 -0.136643 0.187493 0.266196 0.319409 -0.0985585 0.325599 0.36582 0.309156 0.138496 0.237219 -0.174871 -0.153976 -0.0970515 0.0170837 -0.06857 -0.0473738 -0.0681943 -0.0378814 -0.0696126 -0.141085 -0.00607808 0.417939 0.264247 0.0357848 -0.217795 -0.232878 -0.185711 -0.200085 -0.163489 0.335606 -0.0508957 -0.250022 -0.123533 -0.26149
internal_weight=0 873.407 628.423 492.883 436.118 135.539 66.141 377.896 242.169 95.1578 68.5174 807.266 652.613 346.27 58.2215 292.533 264.291 249.325 214.121 195.597 56.7652 117.285 147.011 40.1513 99.8123 306.343 282.06 138.733 105.619 78.312 51.0119 45.3846 93.3479 57.3841 154.653
internal_count=1633 1002 631 525 479 106 74 434 268 92 73 928 665 390 45 351 317 299 262 242 46 135 176 45 118 275 248 129 73 107 62 41 88 75 263
shrinkage=0.3


Tree=8
num_leaves=35
num_cat=0
split_feature=1551 1678 1572 1674 1568 1578 1555 1601 1572 1674 1566 1578 1575 1566 1578 1589 1056 1562 1601 1555 1560 1575 1568 1570 1590 1578 1570 1570 1555 1555 1591 1687 1564 1578
split_gain=124.374 104.473 69.7268 71.3072 32.7262 29.5412 48.9709 31.9492 28.3083 22.5899 21.1906 18.6419 15.4186 15.1941 10.0877 8.09547 7.34463 23.0395 15.4618 7.23671 5.71173 5.13709 3.8278 3.55266 10.6874 8.09599 4.73137 4.33092 3.09983 2.69687 1.77137 1.44921 1.43698 0.80098
threshold=1.0000000180025095e-35 1.0000000180025095e-35 1.0000000180025095e-35 1.0000000180025095e-35 58.500000000000007 58.500000000000007 2.5000000000000004 1.0000000180025095e-35 1.0000000180025095e-35 1.0000000180025095e-35 34.250000000000007 2591998.5000000005 1.0000000180025095e-35 127.47916666666667 90503999.000000015 7.5000000000000009 1.0000000180025095e-35 0.99806100123371133 1.0000000180025095e-35 29.500000000000004 1.0000000180025095e-35 1.0000000180025095e-35 102.31250000000001 3.7513576394898522 3.6235898001903548 31492798.000000004 3.3726053923572601 3.275638227168685 12.500000000000002 1.5000000000000002 1.0000000180025095e-35 0.81980519480519487 0.92261904761904778 1498.5000000000002
decision_type=2 2 2 2 2 2 2 2 2 2 2 2 2 2 2 2 2 2 2 2 2 2 2 2 2 2 2 2 2 2 2 2 2 2
left_child=4 2 5 12 8 6 7 21 10 -10 16 -5 -4 20 19 -14 17 18 33 22 -6 -2 23 24 26 -26 27 29 -29 -7 -20 -3 -25 -1
right_child=1 31 3 11 13 14 -8 -9 9 -11 -12 -13 15 -15 -16 -17 -18 -19 30 -21 -22 -23 -24 32 25 -27 -28 28 -30 -31 -32 -33 -34 -35
leaf_value=-0.12025481192784959 -0.097652588891420145 0.33303243217324063 0.11365073122966692 0.36795564395782071 0.21925927282608071 -0.1459758029893842 0.36231965338805971 0.15350594897114481 0.029952357575417685 0.34653587667516589 -0.20296712609379841 0.11187093014679896 -0.25565463665138349 0.085170243932334952 0.10106111920377134 0.057256974028390535 0.15336872981133745 0.22795475877664617 0.14019917835791346 -0.010361204952274435 0.39239513048352798 -0.25887107542098842 -0.011421445188470025 -0.26726173808862724 0.1021528795988173 -0.17664208606214371 -0.25899539496621077 -0.1436987931528666 0.029544502584912626 -0.22354889362264838 0.043765638717220515 0.2235185899372604 -0.12887133401078002 -0.060441490564357984
leaf_weight=55.601336359977722 29.715333700180054 37.354176580905914 15.493342995643614 46.482738137245178 33.301162362098694 77.154705613851547 23.821463108062744 30.77616274356842 32.44888973236084 54.0359827876091 29.295448064804077 58.297621071338654 54.450836628675461 33.236848533153534 10.817374527454374 8.21691185235977 60.02355945110321 42.758950054645538 31.353798389434814 20.697844386100769 51.105987548828125 51.164879441261292 10.424284756183622 78.224522203207016 19.580089837312698 16.244487255811691 90.24651500582695 23.917062699794769 14.357356041669844 113.81456899642944 39.38074266910553 31.638950735330582 10.503531098365782 37.078416913747787
leaf_count=32 33 28 15 31 23 121 21 25 22 37 17 37 151 20 10 8 29 39 24 24 36 35 13 142 20 29 197 49 28 234 22 30 19 32
internal_value=0 -0.0649913 -0.0954762 0.0670386 0.122522 -0.143347 -0.0192872 -0.103195 0.0795195 0.229455 0.0350105 0.22788 -0.148735 0.260299 -0.177821 -0.214371 0.061862 0.0346098 -0.0170596 -0.184369 0.327455 -0.201556 -0.192253 -0.196463 -0.181801 -0.0256293 -0.199178 -0.174607 -0.0796148 -0.193132 0.0878693 0.286722 -0.252498 -0.0972259
internal_weight=0 873.395 804.402 182.941 499.621 621.46 135.478 111.656 381.977 86.4849 295.492 104.78 78.1611 117.644 485.982 62.6677 266.197 206.173 163.414 475.165 84.4071 80.8802 454.467 444.043 355.315 35.8246 319.49 229.244 38.2744 190.969 70.7345 68.9931 88.7281 92.6798
internal_count=1633 1300 1242 242 333 1000 114 93 254 59 195 68 174 79 886 159 178 149 110 876 59 68 852 839 678 49 629 432 77 355 46 58 161 64
shrinkage=0.3


Tree=9
num_leaves=30
num_cat=0
split_feature=1112 1599 1658 1590 1578 1550 1587 1566 1674 1573 1551 1590 1570 1674 1574 1572 1687 1566 1590 1566 1570 1588 1590 1570 1566 1575 1562 1567 1566
split_gain=135.463 64.4603 44.4482 46.0929 54.3559 43.3784 50.2358 42.5851 41.1187 41.0592 39.8171 25.7698 23.5425 18.9512 17.6467 17.4611 16.9477 16.1831 15.295 22.0192 20.8871 13.0528 10.5559 9.27626 8.97222 12.6793 6.41066 3.52373 1.63455
threshold=1.0000000180025095e-35 1.0000000180025095e-35 -1.0000000180025095e-35 4.7652142637900443 23329295.000000004 1.0000000180025095e-35 41.500000000000007 5.0909090909090917 1.0000000180025095e-35 1.0000000180025095e-35 1.0000000180025095e-35 3.728267948714016 5.5896674174776368 1.0000000180025095e-35 1.0000000180025095e-35 1.0000000180025095e-35 0.2842364532019705 23.500000000000004 3.7608157831075597 6.166666666666667 1.9957648121420117 46.500000000000007 3.413096578734955 3.4017040022459315 1.0000000180025095e-35 1.0000000180025095e-35 0.99806100123371133 1.0000000180025095e-35 1.2500000000000002
decision_type=2 2 2 2 2 2 2 2 2 2 2 2 2 2 2 2 2 2 2 2 2 2 2 2 2 2 2 2 2
left_child=1 2 3 4 10 6 7 -6 17 -3 13 22 -5 14 -1 -15 28 23 19 20 24 -20 -10 -9 -12 -26 -24 -4 -16
right_child=-2 9 27 12 5 -7 -8 8 11 -11 18 -13 -14 15 16 -17 -18 -19 21 -21 -22 -23 26 -25 25 -27 -28 -29 -30
leaf_value=-0.10035408774002541 0.28599636115116256 -0.25571982358084622 0.14584933272617076 -0.26169635223774307 0.29266469598970374 -0.27317402116307671 0.33485639786961557 -0.13967724429776787 0.029186039346078878 0.30687351873596463 0.026229355133528254 -0.12308023324854965 0.097267617273391602 0.025266192003574228 0.092946475602916426 -0.27171759799089379 0.29745548515310566 -0.26164476329792935 0.16678135870711111 -0.26613996997464934 0.16606627193317561 -0.13615270302175658 0.15720833328750008 0.14407162764233958 -0.25661033797425209 0.10092731051930144 0.35331110140732108 0.28081939416737534 0.0059377306551488722
leaf_weight=34.394273310899734 134.77273619174957 142.15536013245583 40.289036810398102 93.877372711896896 54.13592392206192 26.524166524410248 74.517914772033691 21.378119111061096 26.44095179438591 11.877209991216658 20.496181011199951 30.925407081842422 19.343064725399017 43.129284024238586 53.324535727500916 29.178161919116974 40.367429435253143 52.262480705976486 23.9239801466465 111.96509599685669 24.031756341457367 25.324388414621353 33.841691911220551 18.325706779956818 54.41006064414978 10.082034826278685 30.948851883411407 37.340223789215088 30.477636933326721
leaf_count=32 41 338 29 204 23 56 29 28 20 11 19 38 20 37 29 37 20 92 22 232 19 36 25 12 113 18 17 13 23
internal_value=0 -0.0299437 -0.00354358 -0.0208738 0.00263654 0.0898313 0.118634 0.05755 -0.00297728 -0.21064 -0.0616746 0.110727 -0.200055 0.0297761 0.0876714 -0.0966472 0.140139 -0.153575 -0.139626 -0.173183 -0.0761639 0.0113978 0.190458 -0.00838811 -0.145793 -0.200029 0.254828 0.213517 0.0617458
internal_weight=0 1215.29 1061.26 983.626 870.406 369.301 342.777 268.259 214.123 154.033 501.105 122.157 113.22 230.871 158.564 72.3074 124.17 91.9663 270.233 220.985 109.02 49.2484 91.2315 39.7038 84.9883 64.4921 64.7905 77.6293 83.8022
internal_count=1633 1592 1243 1201 977 340 284 255 232 349 637 100 224 178 104 74 72 132 459 401 169 58 62 40 150 131 42 42 52
shrinkage=0.3


Tree=10
num_leaves=44
num_cat=0
split_feature=1599 1669 1584 1056 1553 1555 1578 1574 1555 1585 1566 1578 1568 1566 1572 1562 1573 82 1570 1687 1568 1578 1570 1587 1570 1588 1555 1578 1570 1578 1590 1566 1568 1601 1676 1555 1578 1555 1555 1570 1590 1570 1555
split_gain=268.268 81.1307 66.8036 44.8934 38.5768 21.2633 21.0024 14.8753 11.9926 17.9504 12.4489 10.5749 20.3954 15.9303 21.2958 15.5461 16.7258 8.96039 8.17972 7.22801 5.41991 6.76221 5.41552 14.3953 5.77443 8.80116 4.84964 4.55476 4.34164 4.22963 3.83274 3.33506 2.2385 1.982 1.60191 2.31559 1.3928 1.26523 2.78923 1.15186 0.462299 0.26162 0.174389
threshold=3.5000000000000004 1.0000000180025095e-35 1.0000000180025095e-35 1.0000000180025095e-35 1.0000000180025095e-35 12.500000000000002 1829.0000000000002 1.0000000180025095e-35 27.500000000000004 1.0000000180025095e-35 34.250000000000007 1498.5000000000002 46.100000000000009 28.500000000000004 1.0000000180025095e-35 0.87273954116059393 1.0000000180025095e-35 1.0000000180025095e-35 3.63388099520161 0.96249413970932973 10.500000000000002 63071998.500000007 4.1821996367020082 60.500000000000007 5.2557472840891233 165.50000000000003 2.5000000000000004 209.00000000000003 2.5524936384516406 5200537.5000000009 3.6734165853054455 2.5000000000000004 62.916666666666679 1.0000000180025095e-35 1.0000000180025095e-35 3.5000000000000004 2591997.5000000005 12.500000000000002 14.500000000000002 3.7431527103914646 4.7652142637900443 3.1768328641095764 1.5000000000000002
decision_type=2 2 2 2 2 2 2 2 2 2 2 2 2 2 2 2 2 2 2 2 2 2 2 2 2 2 2 2 2 2 2 2 2 2 2 2 2 2 2 2 2 2 2
left_child=1 5 19 4 6 11 7 27 9 10 -7 17 13 20 15 16 -15 26 -18 -2 31 34 -14 -24 40 29 33 42 -6 -26 -17 -13 -11 -1 35 36 -22 -21 -39 -35 -25 -4 -3
right_child=2 3 41 -5 28 8 -8 -9 -10 32 -12 12 22 14 -16 30 18 -19 -20 37 21 -23 23 24 25 -27 -28 -29 -30 -31 -32 -33 -34 39 -36 -37 -38 38 -40 -41 -42 -43 -44
leaf_value=-0.25612432887652131 0.14693815172970018 0.29701781966571933 -0.13924370025098126 -0.23803942298782865 -0.2067485097789005 0.041294212802237856 -0.038477822052099507 0.095938649925310926 -0.13183813756208304 -0.15021060730635946 0.40039582603288065 -0.11698716089178138 -0.26486791219576861 0.37272585572954431 -0.18081063452805005 -0.16869448760304048 0.21658886881579748 0.0087793644771658394 -0.064115609332971488 0.32819454787523178 -0.13135534364139653 0.023378807853800851 0.17171392619320372 -0.15227729208473659 -0.09690451178589464 -0.26484134782150809 -0.064180411740674168 0.21911308582974054 0.022185344847816538 0.14839643525790339 0.03581345691992345 0.019752898925442432 0.01118594729557435 -0.12641337158059024 -0.10701386832678859 -0.1201120037768862 -0.26019402000499142 0.16124014185135357 0.30334032774112968 -0.22172081755866305 -0.25803535662576582 -0.24196785174565791 0.40206384631298819
leaf_weight=112.87149602174759 30.360782027244568 20.755902767181396 9.019431412220003 33.211906433105469 25.96507528424263 16.85798054933548 28.206790685653687 42.985691010951996 34.39018252491951 17.18959000706673 17.508441865444183 32.152706980705261 66.465740174055099 23.081278741359711 35.680988937616348 17.569877654314045 14.6631683409214 17.43541157245636 22.343917191028595 165.77065300941467 12.820490717887877 15.653730839490889 10.338831543922423 9.7722931802272779 12.003098815679552 14.915767610073088 18.247244030237198 36.677018880844116 10.054977685213087 11.353902012109755 14.308294385671614 30.642147123813629 13.228914111852644 27.728392839431763 22.664570868015289 25.120530098676682 49.759161502122879 21.573830485343933 52.226298749446869 29.830359727144241 52.380107551813126 16.205967903137207 34.795687735080719
leaf_count=155 22 20 20 29 43 22 22 37 34 21 23 31 83 23 33 23 23 20 35 173 19 13 17 9 19 15 20 34 23 23 19 27 19 40 24 25 77 20 54 39 124 46 35
internal_value=0 -0.0754821 0.24841 0.0801709 0.134084 -0.12085 0.195873 0.244684 0.00907663 0.0847463 0.230392 -0.13925 -0.114982 -0.0689904 0.0128628 0.0891405 0.177963 -0.196541 0.0498791 0.292055 -0.124104 -0.159844 -0.196256 -0.153084 -0.187885 -0.0927344 -0.21546 0.312239 -0.143969 0.0235339 -0.0786051 -0.0509981 -0.0818978 -0.231188 -0.185808 -0.204735 -0.23628 0.309758 0.264511 -0.17875 -0.244081 -0.211948 0.368761
internal_weight=0 1031.63 295.157 232.653 199.441 798.979 163.421 135.214 99.1751 64.7849 34.3664 699.804 493.691 316.461 127.648 91.9665 60.0884 206.113 37.0071 269.932 188.813 126.018 177.23 110.764 100.425 38.2728 188.677 92.2286 36.0201 23.357 31.8782 62.7949 30.4185 170.43 110.365 87.7002 62.5797 239.571 73.8001 57.5588 62.1524 25.2254 55.5516
internal_count=1633 1298 335 243 214 1055 148 126 119 85 45 936 662 372 156 123 81 274 58 269 216 158 290 207 190 57 254 89 66 42 42 58 40 234 145 121 96 247 74 79 133 66 55
shrinkage=0.3


Tree=11
num_leaves=39
num_cat=0
split_feature=1575 1584 1578 1578 1566 1587 1677 1687 1599 1551 1051 1553 1601 1578 1051 1555 1266 1590 1572 1654 1562 1587 1578 1578 1555 1555 1578 1590 1590 1570 1567 1555 1570 1566 1578 1578 1578 1570
split_gain=230.476 89.9479 69.9092 60.7697 33.7167 28.705 20.8396 14.0027 13.9538 20.7343 13.9463 13.8827 12.4405 13.201 12.968 9.99321 9.32118 11.8567 23.1027 19.8814 23.4274 10.8654 8.66161 12.5929 8.2662 8.17532 6.99961 6.11169 10.9608 4.29273 3.56423 2.94273 1.29324 0.71343 3.39006 0.718845 0.573132 0.360442
threshold=1.0000000180025095e-35 1.0000000180025095e-35 209.00000000000003 63179325.000000007 114.00000000000001 13.500000000000002 1.0000000180025095e-35 0.9742913645352671 3.5000000000000004 1.0000000180025095e-35 1.0000000180025095e-35 1.0000000180025095e-35 1.0000000180025095e-35 63071998.500000007 1.0000000180025095e-35 3.5000000000000004 1.0000000180025095e-35 2.5124494855594826 1.0000000180025095e-35 1.0000000180025095e-35 0.67299107142857151 31.500000000000004 31535999.500000004 31535998.500000004 12.500000000000002 14.500000000000002 1829.0000000000002 1.2500000000000002 3.3229314955857094 3.6252045570635185 -1.0000000180025095e-35 6.5000000000000009 4.4241781087895218 1.2500000000000002 1.0000000180025095e-35 1798.5000000000002 25056999.000000004 3.4871756113733796
decision_type=2 2 2 2 2 2 2 2 2 2 2 2 2 2 2 2 2 2 2 2 2 2 2 2 2 2 2 2 2 2 2 2 2 2 2 2 2 2
left_child=1 8 5 4 6 -2 12 -3 9 25 -8 16 13 31 15 22 17 26 19 20 -19 -22 23 -14 -21 27 33 -1 30 -7 -29 -4 -24 34 -11 -36 -30 -10
right_child=2 7 3 -5 -6 29 10 -9 37 11 -12 -13 14 -15 -16 -17 -18 18 -20 24 21 -23 32 -25 -26 -27 -28 28 36 -31 -32 -33 -34 -35 35 -37 -38 -39
leaf_value=-0.25958851242100622 0.17126913868273133 0.064093102580671871 0.35940459397704655 -0.22866516478117843 -0.058052223637745981 -0.20402018307352998 -0.10304714473768189 0.34994960217295296 -0.2501330280924281 0.0045645868040836788 0.21957536306243297 -0.2284206030437172 0.20907005722915548 0.1291208316180861 0.37234725184290635 0.34971771114178229 -0.2397660065781646 0.42620989531137371 -0.24914811464288031 -0.20886271546318824 -0.075937966087899406 0.16735697608515931 0.15944106857708465 -0.064087339211272437 0.060800318996586285 -0.017972410357141665 0.011304923628755148 -0.11424563041456588 -0.25439909426554785 -0.042298436166206925 0.046901710293690509 0.2013918572660589 0.29173257420493931 -0.22567140198200597 -0.21794570663082888 -0.11901841141401305 -0.16214494016916214 -0.14821052269489299
leaf_weight=109.7408133149147 30.615382492542267 27.865966200828552 162.36230736970901 28.460036098957062 36.196356028318405 61.571767151355743 24.254167675971985 35.101216018199921 102.12835717201233 11.069889277219771 22.174515902996063 43.987984895706177 23.668844521045685 31.126703679561615 29.877608597278595 18.193695962429047 19.996356934309006 20.380681276321411 22.938456118106842 23.942041873931885 28.17856827378273 37.438358128070831 19.990089118480682 38.68125182390213 16.728367447853088 22.599739491939545 28.386005967855453 29.23190575838089 51.489261209964752 20.141683787107468 20.1462641954422 15.987909555435179 16.246253192424774 16.511009931564331 23.631108075380325 15.63952776789665 15.410160243511198 8.6029996275901777
leaf_count=119 33 27 217 18 38 48 19 47 242 20 26 39 27 32 36 22 34 28 31 28 31 38 20 30 22 27 25 27 65 25 19 19 21 18 48 28 18 21
internal_value=0 -0.113874 0.13923 0.190242 0.217872 -0.0727566 0.242764 0.226424 -0.146233 -0.126488 0.0524194 -0.0742006 0.267363 0.314916 0.197768 0.150321 -0.0478229 -0.0312355 0.0214734 0.0720482 0.153221 0.0633047 0.110381 0.0412699 -0.0991488 -0.190881 -0.113397 -0.208015 -0.157542 -0.16515 -0.0488717 0.346442 0.224995 -0.165734 -0.142062 -0.182482 -0.23585 -0.243612
internal_weight=0 731.145 579.549 467.22 438.76 112.329 402.563 62.9672 668.178 557.447 46.4287 308.828 356.135 209.477 146.658 116.78 264.84 244.844 149.606 126.668 85.9976 65.6169 98.5864 62.3501 40.6704 248.618 95.2375 226.018 116.278 81.7135 49.3782 178.35 36.2363 66.8515 50.3405 39.2706 66.8994 110.731
internal_count=1633 1002 631 525 507 106 469 74 928 665 45 390 424 268 156 120 351 317 178 147 97 69 98 57 50 275 139 248 129 73 46 236 41 114 96 76 83 263
shrinkage=0.3


Tree=12
num_leaves=33
num_cat=0
split_feature=1551 1266 1572 1578 1051 1578 41 1686 1572 1570 1555 1555 1562 1566 1590 1578 1573 1674 1688 1564 1553 1570 1600 1578 1566 1672 1657 1053 1566 1573 1590 1589
split_gain=67.7156 59.4085 39.0274 38.7924 24.4406 18.2935 27.0833 17.3415 22.1156 14.3103 13.3401 12.3259 12.6798 10.4211 9.58697 9.05344 8.76187 7.96377 7.66841 18.9206 6.83555 6.10189 6.35316 8.66018 5.2802 7.90632 6.8893 4.91002 6.8695 4.71866 2.83568 1.75258
threshold=1.0000000180025095e-35 1.0000000180025095e-35 1.0000000180025095e-35 7775998.5000000009 1.0000000180025095e-35 58.500000000000007 1.0000000180025095e-35 -1.0000000180025095e-35 1.0000000180025095e-35 3.4911654298114492 2.5000000000000004 14.500000000000002 0.36658613154969033 9.5000000000000018 2.9849334208637672 233569514.50000003 1.0000000180025095e-35 1.0000000180025095e-35 5.5000000000000009 12.125000000000002 1.0000000180025095e-35 3.841834444940242 4.5000000000000009 31535998.500000004 27.500000000000004 1.0000000180025095e-35 1.0000000180025095e-35 1.0000000180025095e-35 4.5000000000000009 1.0000000180025095e-35 2.9849334208637672 7.5000000000000009
decision_type=2 2 2 2 2 2 2 2 2 2 2 2 2 2 2 2 2 2 2 2 2 2 2 2 2 2 2 2 2 2 2 2
left_child=4 2 5 9 7 6 10 -1 11 -4 14 12 27 -14 -2 18 -10 31 21 -20 -11 22 24 -24 25 26 30 28 -9 -30 -7 -5
right_child=1 -3 3 17 -6 15 -8 8 16 20 -12 -13 13 -15 -16 -17 -18 -19 19 -21 -22 -23 23 -25 -26 -27 -28 -29 29 -31 -32 -33
leaf_value=0.31503244760659554 -0.10427098792756301 0.27047354629337839 -0.037419784804858483 -0.23990522541989079 -0.11601766850595779 -0.12527097049006819 -0.23698942038593859 -0.027046196476374941 0.11366228547603982 0.3254921138163937 0.25490582133664003 0.23217377980333914 0.015762829532667246 -0.20592083267247846 0.12833039356486559 0.12436793335834687 0.29775165629085326 -0.0044781513044445526 0.258172753184988 -0.24379076137644248 0.13531679531879512 -0.25928690349466182 0.098093254184882392 -0.17845065634925544 -0.2549754522027311 0.12598274575561358 0.013050195547961501 0.18203476838143701 0.17623651184963998 0.043281377451543597 -0.20195861928482808 -0.060556421848586298
leaf_weight=34.58251965045929 34.670785188674927 46.776232481002808 21.402512669563293 30.606472223997116 45.27139213681221 80.909190088510513 33.911313951015472 58.596591889858246 43.176570653915405 38.688717484474182 25.14666873216629 30.620856165885925 52.455043524503708 28.884968549013138 27.84284383058548 10.138608217239378 54.847787737846375 30.583417475223541 12.488282084465029 12.545432925224302 33.924771130084991 53.102466717362404 20.629878312349319 18.322658568620682 47.871101200580597 8.7121878117322904 19.909286558628082 32.015776515007019 42.556278109550476 55.569287598133087 117.11087207496166 6.7716123759746543
leaf_count=31 39 43 36 125 32 170 31 36 30 31 21 29 36 20 24 9 39 18 18 24 25 122 21 36 125 11 39 16 28 36 325 7
internal_value=0 -0.0531482 -0.0755998 0.0528377 0.0918399 -0.115379 -0.0132713 0.113774 0.0955735 0.176875 0.0749707 0.0548658 0.0339807 -0.0645049 -0.000283632 -0.146169 0.218633 -0.118829 -0.153472 0.00691624 0.239688 -0.164414 -0.147569 -0.0331993 -0.163618 -0.143286 -0.154577 0.0765412 0.053973 0.102139 -0.171412 -0.209838
internal_weight=0 732.065 685.289 161.978 478.577 523.312 121.572 433.306 398.723 94.016 87.6603 300.699 270.078 81.34 62.5136 401.74 98.0244 67.9615 391.601 25.0337 72.6135 366.568 313.465 38.9525 274.513 226.642 217.929 188.738 156.722 98.1256 198.02 37.3781
internal_count=1633 1300 1257 242 333 1015 115 301 270 92 84 201 172 56 63 900 69 150 891 42 56 849 727 57 670 545 534 116 100 64 495 132
shrinkage=0.3


Tree=13
num_leaves=30
num_cat=0
split_feature=41 1599 1573 1550 1566 1555 1578 1551 1590 1587 1566 1590 1573 1601 1578 1562 1568 1590 1570 1566 1671 1553 1590 1670 1573 1674 1674 1578 1562
split_gain=68.2937 41.5554 32.9082 28.1254 24.7249 32.3496 24.8683 49.7443 27.5387 24.958 24.0873 30.4406 17.3697 24.1669 17.3044 36.5071 14.5364 25.1425 14.179 12.2942 11.8796 11.5474 10.8106 9.36208 7.64919 5.22616 2.94126 2.45844 2.43198
threshold=1.0000000180025095e-35 1.0000000180025095e-35 1.0000000180025095e-35 1.0000000180025095e-35 293.7380952380953 12.500000000000002 23329295.000000004 1.0000000180025095e-35 4.8784497567155443 41.500000000000007 6.166666666666667 3.1163849559112093 1.0000000180025095e-35 1.0000000180025095e-35 63071998.500000007 0.77480029167210851 31.637500000000003 5.5010469600263017 5.3417786781271781 1.9130434782608698 1.0000000180025095e-35 1.0000000180025095e-35 2.0587462305923778 1.0000000180025095e-35 1.0000000180025095e-35 1.0000000180025095e-35 1.0000000180025095e-35 209.00000000000003 0.71534702250073112
decision_type=2 2 2 2 2 2 2 2 2 2 2 2 2 2 2 2 2 2 2 2 2 2 2 2 2 2 2 2 2
left_child=1 3 -3 4 5 6 7 16 9 10 -8 -12 13 23 15 -13 20 24 -10 -14 22 25 27 26 -18 -7 -9 28 -1
right_child=-2 2 -4 -5 -6 21 8 12 18 -11 11 14 19 -15 -16 -17 17 -19 -20 -21 -22 -23 -24 -25 -26 -27 -28 -29 -30
leaf_value=0.022507386407705377 0.2580158032965762 -0.24529844152010016 0.25316251743673079 -0.25546863385316276 0.3135756860513208 -0.28982812529615376 0.21398861315942022 -0.24527788913201626 -0.25330275836378802 0.26812518873569413 -0.27602493300417241 -0.21462602432065805 0.064665973620900166 0.13309132275612015 0.19612178350998008 0.16140486195739412 -0.045847026668013872 0.24870863743798863 0.20170347284828954 -0.26260755975785643 -0.056990058477688101 0.042932467400630718 0.25468114058119445 0.10842367507397931 -0.26631140492457606 -0.11995737993205341 -0.098892511103284536 0.14675002770653175 0.12326530414667783
leaf_weight=61.80117529630661 86.033896446228027 101.71102072298527 12.666794270277022 35.834349781274796 22.806590557098389 41.029262483119965 69.219442188739777 40.558665916323662 28.933940544724464 70.589913576841354 27.853147119283676 43.425149321556091 11.325793504714964 40.250087320804596 52.910306543111801 47.729359075427055 30.179271131753922 17.689164161682129 6.959009811282157 85.933961138129234 36.331585586071014 18.559010669589043 45.628260612487793 9.7938364744186384 26.564647376537323 30.355783134698868 20.486204445362091 41.02454474568367 32.603221893310547
leaf_count=35 31 338 11 107 11 60 29 113 101 35 52 87 21 38 29 32 36 11 8 218 25 24 18 13 39 35 27 28 21
internal_value=0 -0.0179368 -0.188381 0.0017984 0.0116518 0.00398252 0.022198 -0.0206356 0.0837111 0.112431 0.065935 0.00543124 -0.132269 -0.050477 0.061375 -0.0181178 0.0592456 -0.0546458 -0.162009 -0.224227 0.0983133 -0.166068 0.129619 -0.15518 -0.151882 -0.220247 -0.198538 0.0859254 0.0582321
internal_weight=0 1110.75 114.378 996.376 960.541 937.735 847.791 500.17 347.62 311.727 241.137 171.918 208.349 111.089 144.065 91.1545 291.822 74.4331 35.893 97.2598 217.389 89.9441 181.057 70.8387 56.7439 71.385 61.0449 135.429 94.4044
internal_count=1633 1602 349 1253 1146 1135 1016 643 373 264 229 200 430 191 148 119 213 86 109 239 127 119 102 153 75 95 140 84 56
shrinkage=0.3


Tree=14
num_leaves=42
num_cat=0
split_feature=1599 1553 1551 1584 1669 1555 1672 1578 1587 82 1570 1562 1673 1562 1590 1555 1673 1570 1677 1570 1590 1062 1602 1578 1588 1587 1600 1570 1555 1568 1570 1566 1555 1590 1562 1578 1566 1570 1566 1578 1587
split_gain=139.587 42.0805 50.5839 37.3581 31.3065 22.9342 18.4157 17.5125 13.6598 11.2355 10.9424 9.89855 9.51943 9.46321 9.06958 10.4511 8.07414 16.3165 7.6955 7.00584 6.99654 6.41183 6.01609 4.87522 4.62121 12.1847 17.8023 4.21861 2.8504 1.9927 2.87514 1.87547 1.71373 1.62839 0.988583 3.59439 0.783044 0.580745 0.481246 0.429736 0.387915
threshold=3.5000000000000004 1.0000000180025095e-35 1.0000000180025095e-35 1.0000000180025095e-35 1.0000000180025095e-35 2.5000000000000004 1.0000000180025095e-35 1798.5000000000002 85.000000000000014 1.0000000180025095e-35 3.7634505437030445 0.79893617021276608 1.0000000180025095e-35 0.94760818165368199 3.6540432751263467 12.500000000000002 1.0000000180025095e-35 1.9957648121420117 1.0000000180025095e-35 3.4735166520650878 3.7431527103914646 1.0000000180025095e-35 1.0000000180025095e-35 31535998.500000004 36.500000000000007 38.500000000000007 4.5000000000000009 5.3580502575703068 12.500000000000002 33.488416988416994 3.2847719534445416 40.500000000000007 3.5000000000000004 3.7608157831075597 1.0000000180025095e-35 31535998.500000004 1.9130434782608698 3.4594613894182262 28.500000000000004 2591998.5000000005 3.5000000000000004
decision_type=2 2 2 2 2 2 2 2 2 2 2 2 2 2 2 2 2 2 2 2 2 2 2 2 2 2 2 2 2 2 2 2 2 2 2 2 2 2 2 2 2
left_child=1 2 5 13 6 22 8 -7 10 12 14 -9 18 -2 15 16 17 -4 21 -14 -20 24 34 -13 36 26 33 -27 37 -30 -31 -12 -6 -26 35 40 -3 -15 -5 -8 -1
right_child=3 9 4 38 32 7 39 11 -10 -11 31 23 19 28 -16 -17 -18 -19 20 -21 -22 -23 -24 -25 25 27 -28 -29 29 30 -32 -33 -34 -35 -36 -37 -38 -39 -40 -41 -42
leaf_value=-0.17429720896006767 0.0044025347359609307 -0.15955853122920668 -0.11718119939073177 -0.23387174576348799 0.23558279051815406 0.2225101643551092 -0.2397195796793537 -0.24257824057942518 -0.20418188132425294 0.13856844468964605 0.13916332745700308 -0.084226390976453278 0.18196165194197006 0.28943801344620024 -0.12018719150929499 0.26926035097465201 -0.15537989082124884 0.20352082708724079 0.1691729806641212 -0.13124850519026676 -0.13134444175616836 -0.01540997775959551 -0.046212120278820039 0.12485673848733496 0.23529449365985505 -0.24941380456159118 -0.2456631866425773 -0.092727748701761842 0.11097260169068489 0.14760115682745384 0.29881193182528137 0.28188904560758909 0.13151263121266241 0.068361108672244611 -0.25521980333074573 -0.051470002785537802 -0.24964062469057791 0.19457580703087315 -0.11177392265802912 -0.14698959924203514 -0.23085543063127498
leaf_weight=48.058653235435486 14.998320937156675 17.325700029730797 23.060165822505951 11.416343003511429 74.670828521251678 25.621994078159332 14.574250549077986 18.956191390752792 16.68736144900322 11.601054668426512 22.182479590177536 19.694467008113861 12.053046956658365 115.71498149633408 27.60574796795845 18.363051891326904 16.865995109081268 34.445995688438416 10.388792484998705 11.693517565727232 16.997438579797745 19.316030457615852 29.408125191926956 18.515577226877213 11.193033665418627 68.908105060458183 15.925389617681502 21.975372672080994 20.820529401302338 25.402932584285736 26.962832570075989 17.720589458942413 23.252910852432251 11.280163109302519 27.907474339008331 17.306861907243729 105.03798568248749 15.482247352600096 8.0767873376607895 18.808406472206116 45.100726723670959
leaf_count=41 9 38 24 34 84 24 31 28 28 15 23 21 23 155 24 19 30 36 18 18 32 37 25 21 22 179 21 31 23 29 33 20 24 20 38 13 196 20 32 27 67
internal_value=0 -0.0584121 -0.00801161 0.199333 0.0732682 -0.107891 0.00776569 0.0212006 0.046569 -0.142537 0.0737858 -0.0713009 -0.153059 0.234745 0.0279728 0.0728892 0.0214745 0.0751134 -0.16757 0.0286565 -0.0154014 -0.182836 -0.171337 0.0176901 -0.195576 -0.153636 -0.0114092 -0.212949 0.251544 0.197802 0.229599 0.207889 0.21245 0.157986 -0.197407 -0.180643 -0.238283 0.2798 -0.191205 -0.193268 -0.203839
internal_weight=0 892.503 558.808 238.875 308.238 250.57 210.314 82.7882 176.931 333.696 160.244 57.1662 322.095 219.382 120.341 92.7352 74.3722 57.5062 298.348 23.7466 27.3862 270.962 167.782 38.21 251.646 129.282 38.3986 90.8835 204.384 73.1863 52.3658 39.9031 97.9237 22.4732 138.374 110.466 122.364 131.197 19.4931 33.3827 93.1594
internal_count=1633 1298 648 335 370 278 262 94 204 650 176 70 635 269 133 109 90 60 594 41 50 544 184 42 507 273 63 210 260 85 62 43 108 42 159 121 234 175 66 58 108
shrinkage=0.3


Tree=15
num_leaves=43
num_cat=0
split_feature=1575 1584 1674 1585 1551 1051 1599 1687 1554 1677 1051 1572 1687 1578 1578 1590 1572 1670 1570 1570 1571 1578 1142 1600 1590 1570 1563 1578 1566 1566 1589 1587 1578 1551 1566 1578 1570 1587 1570 1587 1578 1587
split_gain=131.294 46.9508 34.9597 26.6958 23.5858 12.3075 12.0053 15.8351 16.1061 11.8761 13.1077 11.4259 11.0443 10.2567 12.1372 10.5661 9.42965 15.5524 9.33358 9.06167 8.27825 7.38428 6.97137 5.41671 3.87076 9.14848 3.54177 3.06186 2.72791 7.33196 1.8194 5.02275 1.38657 1.1711 1.03611 0.780058 0.612135 0.485613 1.36874 0.204032 0.190539 0.0603865
threshold=1.0000000180025095e-35 1.0000000180025095e-35 1.0000000180025095e-35 1.0000000180025095e-35 1.0000000180025095e-35 1.0000000180025095e-35 3.5000000000000004 0.52566899360093089 1.0000000180025095e-35 1.0000000180025095e-35 1.0000000180025095e-35 1.0000000180025095e-35 0.9742913645352671 31535998.500000004 33955198.500000007 3.6139889733089992 1.0000000180025095e-35 1.0000000180025095e-35 3.8648341329721769 3.4116770358748041 -1.0000000180025095e-35 32659198.500000004 1.0000000180025095e-35 2.0000000000000004 3.173596949768688 0.964181036197434 0.12994106875626199 4535998.5000000009 4.5000000000000009 2.5000000000000004 -5.4999999999999991 31.500000000000004 907198.50000000012 1.0000000180025095e-35 21.500000000000004 1798.5000000000002 3.4871756113733796 18.500000000000004 3.5218479226087607 85.000000000000014 31548462.000000004 29.500000000000004
decision_type=2 2 2 2 2 2 2 2 2 2 2 2 2 2 2 2 2 2 2 2 2 2 2 2 2 2 2 2 2 2 2 2 2 2 2 2 2 2 2 2 2 2
left_child=1 6 4 18 -2 -5 7 8 23 11 -11 13 -3 15 20 -6 17 21 19 -4 -15 22 24 26 25 33 28 -21 29 32 31 -26 -1 -9 -17 -35 -8 -30 -39 41 -13 -40
right_child=2 12 3 5 9 -7 36 16 -10 10 -12 40 -14 14 -16 34 -18 -19 -20 27 -22 -23 -24 -25 30 -27 -28 -29 37 -31 -32 -33 -34 35 -36 -37 -38 38 39 -41 -42 -43
leaf_value=-0.22384041624262213 -0.066622070346180368 0.027097462760645442 0.042116972871966703 0.049642044813461073 0.10222774680601804 0.34786072496483417 -0.23997282534527026 -0.19799860690527751 0.081867193742669542 -0.11066844151899323 0.21809310156502384 0.33282225500620821 0.29388844139843406 -0.057133697313204085 0.2616979215370222 0.27159896783906906 -0.25122118067562721 0.1885777167818104 0.10611565939758506 -0.20595471622571215 0.18376031480062163 0.093427196330972156 0.082086379364545256 -0.011892126922371798 -0.22598297599656686 0.093719451401732157 -0.043128284912699662 -0.07556169314497406 -0.25562344030929224 0.020802977811294674 -0.24151197776067476 -0.029925130939213236 -0.10634081891591007 -0.022333912729492932 0.3978033688338069 -0.13610558427077665 -0.11527695988522442 -0.11069586941427263 -0.1718455554790585 -0.15770419017689663 0.26581329859961356 -0.25122574971582906
leaf_weight=47.017522394657135 34.67427384853363 27.303185522556305 25.254398822784424 28.663692057132721 31.421615421772003 21.578734457492828 71.773359522223473 17.375765293836594 23.39446884393692 22.442571043968201 19.483892381191254 45.056817293167114 28.073035359382629 41.265982270240784 25.355205833911896 30.560034990310669 16.970694303512573 25.834395378828049 20.358296275138855 50.741389721632004 17.449850499629974 24.297208517789841 19.362991273403168 17.014786839485168 21.63166618347168 23.159299045801163 14.844369888305662 26.032280504703522 54.085314720869064 17.438722401857376 17.792853385210037 25.222041815519333 14.703699141740797 10.035710930824282 19.614033341407776 12.121102660894392 6.6609510332345954 15.539947807788847 11.701861947774885 12.983297318220137 48.365092992782593 37.187166929244995
leaf_count=74 37 27 32 24 36 27 242 27 29 21 26 68 47 35 34 58 21 25 26 50 21 26 25 25 19 30 23 21 68 20 28 29 12 30 31 19 21 33 26 17 84 59
internal_value=0 -0.096217 0.109766 2.22553e-07 0.166046 0.182014 -0.122398 -0.104204 -0.152967 0.192979 0.0436338 0.216886 0.165161 0.167754 0.092542 0.243189 -0.0431257 -0.0240048 -0.0755901 -0.112525 0.0163363 -0.0570313 -0.0824146 -0.175864 -0.107873 -0.0534841 -0.188129 -0.163281 -0.198095 -0.150133 -0.158999 -0.123273 -0.197991 -0.139905 0.327744 -0.0877636 -0.230968 -0.225616 -0.201658 -0.222381 0.301314 -0.236051
internal_weight=0 613.525 508.318 172.629 335.689 50.2424 558.149 479.715 265.911 301.015 41.9265 259.089 55.3762 165.667 84.071 81.5957 213.804 196.833 122.386 102.028 58.7158 170.999 146.701 242.517 127.338 62.6919 225.502 76.7737 210.658 79.1599 64.6466 46.8537 61.7212 39.5326 50.1741 22.1568 78.4343 131.498 77.4123 61.8723 93.4219 48.889
internal_count=1633 1002 631 180 451 51 928 665 386 414 47 367 74 215 90 125 279 258 129 103 56 233 207 357 182 106 332 71 309 106 76 48 86 76 89 49 263 203 135 102 152 85
shrinkage=0.3


Tree=16
num_leaves=43
num_cat=0
split_feature=1575 1599 1569 1670 1124 1573 1570 1562 1570 1567 1572 1068 1566 1051 1565 1671 1578 1574 1570 1601 1570 1565 1674 1653 1578 1578 1574 1669 1570 1587 1578 1555 1555 1601 1600 1578 1555 1578 1566 1570 1570 1056
split_gain=40.0927 35.6343 32.1559 27.7625 24.9942 33.8849 16.6823 15.579 22.7684 14.1234 13.8006 18.6817 12.9404 11.9392 11.8398 11.018 10.9681 10.269 8.74518 8.30754 8.30658 11.3363 8.03634 6.36844 5.67574 10.3157 4.94869 4.18888 3.95083 3.53396 3.33226 3.27798 13.1361 2.74324 3.97239 2.39522 2.04507 1.42235 0.903062 1.06173 0.439458 0.436371
threshold=1.0000000180025095e-35 1.0000000180025095e-35 1.0000000180025095e-35 1.0000000180025095e-35 1.0000000180025095e-35 1.0000000180025095e-35 5.4944638761617046 0.13673020527859239 2.5145018655535272 0.75043485422202327 1.0000000180025095e-35 1.0000000180025095e-35 2.5000000000000004 1.0000000180025095e-35 0.80472902101324262 1.0000000180025095e-35 86398.500000000015 1.0000000180025095e-35 2.5524936384516406 1.0000000180025095e-35 3.0364744698854786 0.49779731389167609 1.0000000180025095e-35 1.0000000180025095e-35 389436.50000000006 31535998.500000004 1.0000000180025095e-35 1.0000000180025095e-35 3.7116817387347907 3.5000000000000004 86398.500000000015 12.500000000000002 14.500000000000002 1.0000000180025095e-35 2.0000000000000004 129599.00000000001 11.500000000000002 2591997.5000000005 31.500000000000004 5.4944638761617046 3.7513576394898522 1.0000000180025095e-35
decision_type=2 2 2 2 2 2 2 2 2 2 2 2 2 2 2 2 2 2 2 2 2 2 2 2 2 2 2 2 2 2 2 2 2 2 2 2 2 2 2 2 2 2
left_child=1 4 3 18 5 7 -4 8 12 14 11 -7 17 19 15 23 -5 35 27 22 -3 31 -10 24 26 -26 36 -2 -18 -6 -12 -22 -33 -20 38 -1 -9 -29 -35 -40 -27 -19
right_child=2 20 6 16 29 10 -8 9 13 -11 30 -13 -14 -15 -16 -17 28 41 33 -21 21 -23 -24 -25 25 40 -28 37 -30 -31 -32 32 -34 34 -36 -37 -38 -39 39 -41 -42 -43
leaf_value=-0.018219396322879968 -0.16030698521467038 0.1067461835662754 -0.042146358815924864 0.1639521865258092 0.34875992577364168 -0.036642505521772527 0.36240446177810282 -0.26410338046593568 0.21610514561219901 -0.25421827060475455 0.32011575292195693 0.24984673522529191 -0.15127043170838203 -0.00095540014490909278 0.20081706415360073 0.1448121176922989 -0.23384919021550263 0.074085375567677844 -0.2430042476954988 0.31028280992634644 -0.24181868977765611 0.23913520341183747 -0.031964537877348875 0.08295014493588411 0.15753783704432389 -0.16707543656481422 -0.051550981276891443 0.12461374173207697 0.024771741792358113 0.16346578238587425 0.18376287711090314 0.1682472441969293 -0.23778873283299151 -0.1084340713861115 -0.066311639364428424 -0.17839026670641397 -0.13120105802382917 -0.026770075105101741 -0.27586018490482905 -0.1323502512793362 -0.079958520547349546 0.12511102320239598
leaf_weight=16.810295537114143 14.745765969157217 10.966513752937315 16.902306631207466 34.036796808242798 26.530650734901428 49.198391497135162 18.588064938783646 27.247138261795044 29.889170944690704 26.178579896688461 40.621086478233337 33.838541209697723 46.501185059547424 33.274222105741501 18.213547766208649 22.106176257133484 10.09534874558449 40.050003379583359 94.659383811056614 39.821086525917053 47.404715687036514 5.0627974122762671 18.599577188491821 18.356874316930771 17.517017304897308 14.4863847643137 29.788789689540863 9.2764405906200427 9.8737240284681302 18.629845261573792 36.367773830890656 9.6603190153837222 21.598831951618195 8.4154902100563032 27.439703911542892 16.32345324754715 22.467262327671051 11.615573227405546 23.484669759869576 9.4995615631341916 13.042244970798491 33.612619280815125
leaf_count=35 35 23 31 28 29 33 16 63 35 25 35 20 34 34 13 18 27 32 295 35 203 9 19 20 20 22 15 11 14 20 30 24 79 22 36 11 30 32 75 9 19 17
internal_value=0 0.0404277 -0.0901637 -0.127718 0.0641599 0.0487984 0.173862 0.00913875 0.0560147 -0.0523684 0.168018 0.0816891 -0.0209253 0.152403 -0.0223054 -0.0479944 0.0621585 0.0367062 -0.179266 0.20955 -0.131233 -0.163296 0.122226 -0.0786188 -0.102903 -0.0172234 -0.150631 -0.0431601 -0.110891 0.277519 0.258888 -0.191873 -0.110982 -0.208491 -0.158232 -0.100043 -0.207813 0.0430689 -0.216155 -0.23964 -0.130052 0.0987325
internal_weight=0 784.165 288.633 253.142 689.472 644.311 35.4904 484.286 274.882 209.404 160.026 83.0369 153.298 121.584 183.225 165.012 54.0059 106.796 199.137 88.3098 94.6932 83.7267 48.4887 142.906 124.549 45.0456 79.5032 35.6378 19.9691 45.1605 76.9889 78.6639 31.2592 163.499 68.8394 33.1337 49.7144 20.892 41.3997 32.9842 27.5286 73.6626
internal_count=1633 1002 631 584 664 615 47 497 252 245 118 53 129 123 220 207 69 95 515 89 338 315 54 189 169 61 108 78 41 49 65 306 103 437 142 46 93 43 106 84 41 49
shrinkage=0.3


Tree=17
num_leaves=25
num_cat=0
split_feature=41 1599 1573 1550 1142 1590 1590 1566 1570 1570 1578 1568 1588 1551 1555 1590 1590 1555 1551 1566 1570 1601 1590 1658
split_gain=36.0266 25.3443 26.0758 18.8777 16.7405 17.8601 27.0885 24.9295 16.5631 23.0654 15.4724 18.2947 16.3761 13.3431 12.2823 10.9135 22.4471 10.6617 17.545 14.979 10.6327 4.92538 4.86688 0.330766
threshold=1.0000000180025095e-35 1.0000000180025095e-35 1.0000000180025095e-35 1.0000000180025095e-35 1.0000000180025095e-35 4.8784497567155443 5.506993402761668 141.50000000000003 4.1821996367020082 4.1338792600966219 23329295.000000004 25.500000000000004 46.500000000000007 1.0000000180025095e-35 10.500000000000002 3.7608157831075597 3.8120649249104086 2.5000000000000004 1.0000000180025095e-35 6.166666666666667 4.6653327723720972 1.0000000180025095e-35 3.0581449941251404 1.0000000180025095e-35
decision_type=2 2 2 2 2 2 2 2 2 2 2 2 2 2 2 2 2 2 2 2 2 2 2 2
left_child=1 3 -3 4 5 7 23 8 9 10 11 13 17 21 -15 22 -17 19 -19 -12 -10 -1 -13 -7
right_child=-2 2 -4 -5 -6 6 -8 -9 20 -11 12 15 -14 14 -16 16 -18 18 -20 -21 -22 -23 -24 -25
leaf_value=0.091113883969255988 0.2184173668265206 -0.23796322401461334 0.20966763022227383 -0.24278707470042166 -0.28525666257146176 -0.24165154695659902 0.075338323533548079 0.29327271961281182 -0.31110488073711134 0.36865489769824533 0.22337924669748857 -0.039458590863921596 0.2749969550593645 -0.099611034449673841 0.1927127880637754 0.18975914154469253 -0.24049384542011054 -0.24212092655621306 0.066805170905205491 0.030848769598826167 -0.00059583815856944361 -0.0083665209721252697 -0.25819298076716973 -0.35412021260642929
leaf_weight=155.34152099490166 64.113394498825073 72.114084556698799 13.142641156911848 26.327304884791374 15.913384675979612 34.395724579691887 35.527545541524887 30.053329885005951 20.686491787433624 16.598340958356857 51.159126758575439 11.987526968121527 31.9916672706604 101.45734165608883 13.865630030632017 22.407446712255478 19.447942301630974 25.59040355682373 42.983862116932869 121.47450107336044 18.307974696159363 62.557480245828629 44.166366375982761 9.5650103092193586
leaf_count=88 31 338 11 107 28 135 36 12 34 8 20 23 10 236 14 23 46 30 36 152 23 44 140 8
internal_value=0 -0.0118975 -0.167329 0.00280322 0.0103708 0.0161024 -0.118561 0.0297834 0.0189927 0.0293785 0.020873 -0.0145244 0.076595 0.0190653 -0.0631095 -0.127765 -0.0111031 0.049254 -0.0503023 0.0888621 -0.16898 0.0626459 -0.213006 -0.273455
internal_weight=0 997.063 85.2567 911.806 885.479 869.565 79.4883 790.077 760.024 721.029 704.431 431.231 273.2 333.222 115.323 98.0093 41.8554 241.208 68.5743 172.634 38.9945 217.899 56.1539 43.9607
internal_count=1633 1602 349 1253 1146 1118 179 939 927 870 862 614 248 382 250 232 69 238 66 172 57 132 163 143
shrinkage=0.3


Tree=18
num_leaves=41
num_cat=0
