tree
version=v3
num_class=4
num_tree_per_iteration=4
label_index=0
max_feature_idx=1688
objective=multiclass num_class:4
feature_names=Column_0 Column_1 Column_2 Column_3 Column_4 Column_5 Column_6 Column_7 Column_8 Column_9 Column_10 Column_11 Column_12 Column_13 Column_14 Column_15 Column_16 Column_17 Column_18 Column_19 Column_20 Column_21 Column_22 Column_23 Column_24 Column_25 Column_26 Column_27 Column_28 Column_29 Column_30 Column_31 Column_32 Column_33 Column_34 Column_35 Column_36 Column_37 Column_38 Column_39 Column_40 Column_41 Column_42 Column_43 Column_44 Column_45 Column_46 Column_47 Column_48 Column_49 Column_50 Column_51 Column_52 Column_53 Column_54 Column_55 Column_56 Column_57 Column_58 Column_59 Column_60 Column_61 Column_62 Column_63 Column_64 Column_65 Column_66 Column_67 Column_68 Column_69 Column_70 Column_71 Column_72 Column_73 Column_74 Column_75 Column_76 Column_77 Column_78 Column_79 Column_80 Column_81 Column_82 Column_83 Column_84 Column_85 Column_86 Column_87 Column_88 Column_89 Column_90 Column_91 Column_92 Column_93 Column_94 Column_95 Column_96 Column_97 Column_98 Column_99 Column_100 Column_101 Column_102 Column_103 Column_104 Column_105 Column_106 Column_107 Column_108 Column_109 Column_110 Column_111 Column_112 Column_113 Column_114 Column_115 Column_116 Column_117 Column_118 Column_119 Column_120 Column_121 Column_122 Column_123 Column_124 Column_125 Column_126 Column_127 Column_128 Column_129 Column_130 Column_131 Column_132 Column_133 Column_134 Column_135 Column_136 Column_137 Column_138 Column_139 Column_140 Column_141 Column_142 Column_143 Column_144 Column_145 Column_146 Column_147 Column_148 Column_149 Column_150 Column_151 Column_152 Column_153 Column_154 Column_155 Column_156 Column_157 Column_158 Column_159 Column_160 Column_161 Column_162 Column_163 Column_164 Column_165 Column_166 Column_167 Column_168 Column_169 Column_170 Column_171 Column_172 Column_173 Column_174 Column_175 Column_176 Column_177 Column_178 Column_179 Column_180 Column_181 Column_182 Column_183 Column_184 Column_185 Column_186 Column_187 Column_188 Column_189 Column_190 Column_191 Column_192 Column_193 Column_194 Column_195 Column_196 Column_197 Column_198 Column_199 Column_200 Column_201 Column_202 Column_203 Column_204 Column_205 Column_206 Column_207 Column_208 Column_209 Column_210 Column_211 Column_212 Column_213 Column_214 Column_215 Column_216 Column_217 Column_218 Column_219 Column_220 Column_221 Column_222 Column_223 Column_224 Column_225 Column_226 Column_227 Column_228 Column_229 Column_230 Column_231 Column_232 Column_233 Column_234 Column_235 Column_236 Column_237 Column_238 Column_239 Column_240 Column_241 Column_242 Column_243 Column_244 Column_245 Column_246 Column_247 Column_248 Column_249 Column_250 Column_251 Column_252 Column_253 Column_254 Column_255 Column_256 Column_257 Column_258 Column_259 Column_260 Column_261 Column_262 Column_263 Column_264 Column_265 Column_266 Column_267 Column_268 Column_269 Column_270 Column_271 Column_272 Column_273 Column_274 Column_275 Column_276 Column_277 Column_278 Column_279 Column_280 Column_281 Column_282 Column_283 Column_284 Column_285 Column_286 Column_287 Column_288 Column_289 Column_290 Column_291 Column_292 Column_293 Column_294 Column_295 Column_296 Column_297 Column_298 Column_299 Column_300 Column_301 Column_302 Column_303 Column_304 Column_305 Column_306 Column_307 Column_308 Column_309 Column_310 Column_311 Column_312 Column_313 Column_314 Column_315 Column_316 Column_317 Column_318 Column_319 Column_320 Column_321 Column_322 Column_323 Column_324 Column_325 Column_326 Column_327 Column_328 Column_329 Column_330 Column_331 Column_332 Column_333 Column_334 Column_335 Column_336 Column_337 Column_338 Column_339 Column_340 Column_341 Column_342 Column_343 Column_344 Column_345 Column_346 Column_347 Column_348 Column_349 Column_350 Column_351 Column_352 Column_353 Column_354 Column_355 Column_356 Column_357 Column_358 Column_359 Column_360 Column_361 Column_362 Column_363 Column_364 Column_365 Column_366 Column_367 Column_368 Column_369 Column_370 Column_371 Column_372 Column_373 Column_374 Column_375 Column_376 Column_377 Column_378 Column_379 Column_380 Column_381 Column_382 Column_383 Column_384 Column_385 Column_386 Column_387 Column_388 Column_389 Column_390 Column_391 Column_392 Column_393 Column_394 Column_395 Column_396 Column_397 Column_398 Column_399 Column_400 Column_401 Column_402 Column_403 Column_404 Column_405 Column_406 Column_407 Column_408 Column_409 Column_410 Column_411 Column_412 Column_413 Column_414 Column_415 Column_416 Column_417 Column_418 Column_419 Column_420 Column_421 Column_422 Column_423 Column_424 Column_425 Column_426 Column_427 Column_428 Column_429 Column_430 Column_431 Column_432 Column_433 Column_434 Column_435 Column_436 Column_437 Column_438 Column_439 Column_440 Column_441 Column_442 Column_443 Column_444 Column_445 Column_446 Column_447 Column_448 Column_449 Column_450 Column_451 Column_452 Column_453 Column_454 Column_455 Column_456 Column_457 Column_458 Column_459 Column_460 Column_461 Column_462 Column_463 Column_464 Column_465 Column_466 Column_467 Column_468 Column_469 Column_470 Column_471 Column_472 Column_473 Column_474 Column_475 Column_476 Column_477 Column_478 Column_479 Column_480 Column_481 Column_482 Column_483 Column_484 Column_485 Column_486 Column_487 Column_488 Column_489 Column_490 Column_491 Column_492 Column_493 Column_494 Column_495 Column_496 Column_497 Column_498 Column_499 Column_500 Column_501 Column_502 Column_503 Column_504 Column_505 Column_506 Column_507 Column_508 Column_509 Column_510 Column_511 Column_512 Column_513 Column_514 Column_515 Column_516 Column_517 Column_518 Column_519 Column_520 Column_521 Column_522 Column_523 Column_524 Column_525 Column_526 Column_527 Column_528 Column_529 Column_530 Column_531 Column_532 Column_533 Column_534 Column_535 Column_536 Column_537 Column_538 Column_539 Column_540 Column_541 Column_542 Column_543 Column_544 Column_545 Column_546 Column_547 Column_548 Column_549 Column_550 Column_551 Column_552 Column_553 Column_554 Column_555 Column_556 Column_557 Column_558 Column_559 Column_560 Column_561 Column_562 Column_563 Column_564 Column_565 Column_566 Column_567 Column_568 Column_569 Column_570 Column_571 Column_572 Column_573 Column_574 Column_575 Column_576 Column_577 Column_578 Column_579 Column_580 Column_581 Column_582 Column_583 Column_584 Column_585 Column_586 Column_587 Column_588 Column_589 Column_590 Column_591 Column_592 Column_593 Column_594 Column_595 Column_596 Column_597 Column_598 Column_599 Column_600 Column_601 Column_602 Column_603 Column_604 Column_605 Column_606 Column_607 Column_608 Column_609 Column_610 Column_611 Column_612 Column_613 Column_614 Column_615 Column_616 Column_617 Column_618 Column_619 Column_620 Column_621 Column_622 Column_623 Column_624 Column_625 Column_626 Column_627 Column_628 Column_629 Column_630 Column_631 Column_632 Column_633 Column_634 Column_635 Column_636 Column_637 Column_638 Column_639 Column_640 Column_641 Column_642 Column_643 Column_644 Column_645 Column_646 Column_647 Column_648 Column_649 Column_650 Column_651 Column_652 Column_653 Column_654 Column_655 Column_656 Column_657 Column_658 Column_659 Column_660 Column_661 Column_662 Column_663 Column_664 Column_665 Column_666 Column_667 Column_668 Column_669 Column_670 Column_671 Column_672 Column_673 Column_674 Column_675 Column_676 Column_677 Column_678 Column_679 Column_680 Column_681 Column_682 Column_683 Column_684 Column_685 Column_686 Column_687 Column_688 Column_689 Column_690 Column_691 Column_692 Column_693 Column_694 Column_695 Column_696 Column_697 Column_698 Column_699 Column_700 Column_701 Column_702 Column_703 Column_704 Column_705 Column_706 Column_707 Column_708 Column_709 Column_710 Column_711 Column_712 Column_713 Column_714 Column_715 Column_716 Column_717 Column_718 Column_719 Column_720 Column_721 Column_722 Column_723 Column_724 Column_725 Column_726 Column_727 Column_728 Column_729 Column_730 Column_731 Column_732 Column_733 Column_734 Column_735 Column_736 Column_737 Column_738 Column_739 Column_740 Column_741 Column_742 Column_743 Column_744 Column_745 Column_746 Column_747 Column_748 Column_749 Column_750 Column_751 Column_752 Column_753 Column_754 Column_755 Column_756 Column_757 Column_758 Column_759 Column_760 Column_761 Column_762 Column_763 Column_764 Column_765 Column_766 Column_767 Column_768 Column_769 Column_770 Column_771 Column_772 Column_773 Column_774 Column_775 Column_776 Column_777 Column_778 Column_779 Column_780 Column_781 Column_782 Column_783 Column_784 Column_785 Column_786 Column_787 Column_788 Column_789 Column_790 Column_791 Column_792 Column_793 Column_794 Column_795 Column_796 Column_797 Column_798 Column_799 Column_800 Column_801 Column_802 Column_803 Column_804 Column_805 Column_806 Column_807 Column_808 Column_809 Column_810 Column_811 Column_812 Column_813 Column_814 Column_815 Column_816 Column_817 Column_818 Column_819 Column_820 Column_821 Column_822 Column_823 Column_824 Column_825 Column_826 Column_827 Column_828 Column_829 Column_830 Column_831 Column_832 Column_833 Column_834 Column_835 Column_836 Column_837 Column_838 Column_839 Column_840 Column_841 Column_842 Column_843 Column_844 Column_845 Column_846 Column_847 Column_848 Column_849 Column_850 Column_851 Column_852 Column_853 Column_854 Column_855 Column_856 Column_857 Column_858 Column_859 Column_860 Column_861 Column_862 Column_863 Column_864 Column_865 Column_866 Column_867 Column_868 Column_869 Column_870 Column_871 Column_872 Column_873 Column_874 Column_875 Column_876 Column_877 Column_878 Column_879 Column_880 Column_881 Column_882 Column_883 Column_884 Column_885 Column_886 Column_887 Column_888 Column_889 Column_890 Column_891 Column_892 Column_893 Column_894 Column_895 Column_896 Column_897 Column_898 Column_899 Column_900 Column_901 Column_902 Column_903 Column_904 Column_905 Column_906 Column_907 Column_908 Column_909 Column_910 Column_911 Column_912 Column_913 Column_914 Column_915 Column_916 Column_917 Column_918 Column_919 Column_920 Column_921 Column_922 Column_923 Column_924 Column_925 Column_926 Column_927 Column_928 Column_929 Column_930 Column_931 Column_932 Column_933 Column_934 Column_935 Column_936 Column_937 Column_938 Column_939 Column_940 Column_941 Column_942 Column_943 Column_944 Column_945 Column_946 Column_947 Column_948 Column_949 Column_950 Column_951 Column_952 Column_953 Column_954 Column_955 Column_956 Column_957 Column_958 Column_959 Column_960 Column_961 Column_962 Column_963 Column_964 Column_965 Column_966 Column_967 Column_968 Column_969 Column_970 Column_971 Column_972 Column_973 Column_974 Column_975 Column_976 Column_977 Column_978 Column_979 Column_980 Column_981 Column_982 Column_983 Column_984 Column_985 Column_986 Column_987 Column_988 Column_989 Column_990 Column_991 Column_992 Column_993 Column_994 Column_995 Column_996 Column_997 Column_998 Column_999 Column_1000 Column_1001 Column_1002 Column_1003 Column_1004 Column_1005 Column_1006 Column_1007 Column_1008 Column_1009 Column_1010 Column_1011 Column_1012 Column_1013 Column_1014 Column_1015 Column_1016 Column_1017 Column_1018 Column_1019 Column_1020 Column_1021 Column_1022 Column_1023 Column_1024 Column_1025 Column_1026 Column_1027 Column_1028 Column_1029 Column_1030 Column_1031 Column_1032 Column_1033 Column_1034 Column_1035 Column_1036 Column_1037 Column_1038 Column_1039 Column_1040 Column_1041 Column_1042 Column_1043 Column_1044 Column_1045 Column_1046 Column_1047 Column_1048 Column_1049 Column_1050 Column_1051 Column_1052 Column_1053 Column_1054 Column_1055 Column_1056 Column_1057 Column_1058 Column_1059 Column_1060 Column_1061 Column_1062 Column_1063 Column_1064 Column_1065 Column_1066 Column_1067 Column_1068 Column_1069 Column_1070 Column_1071 Column_1072 Column_1073 Column_1074 Column_1075 Column_1076 Column_1077 Column_1078 Column_1079 Column_1080 Column_1081 Column_1082 Column_1083 Column_1084 Column_1085 Column_1086 Column_1087 Column_1088 Column_1089 Column_1090 Column_1091 Column_1092 Column_1093 Column_1094 Column_1095 Column_1096 Column_1097 Column_1098 Column_1099 Column_1100 Column_1101 Column_1102 Column_1103 Column_1104 Column_1105 Column_1106 Column_1107 Column_1108 Column_1109 Column_1110 Column_1111 Column_1112 Column_1113 Column_1114 Column_1115 Column_1116 Column_1117 Column_1118 Column_1119 Column_1120 Column_1121 Column_1122 Column_1123 Column_1124 Column_1125 Column_1126 Column_1127 Column_1128 Column_1129 Column_1130 Column_1131 Column_1132 Column_1133 Column_1134 Column_1135 Column_1136 Column_1137 Column_1138 Column_1139 Column_1140 Column_1141 Column_1142 Column_1143 Column_1144 Column_1145 Column_1146 Column_1147 Column_1148 Column_1149 Column_1150 Column_1151 Column_1152 Column_1153 Column_1154 Column_1155 Column_1156 Column_1157 Column_1158 Column_1159 Column_1160 Column_1161 Column_1162 Column_1163 Column_1164 Column_1165 Column_1166 Column_1167 Column_1168 Column_1169 Column_1170 Column_1171 Column_1172 Column_1173 Column_1174 Column_1175 Column_1176 Column_1177 Column_1178 Column_1179 Column_1180 Column_1181 Column_1182 Column_1183 Column_1184 Column_1185 Column_1186 Column_1187 Column_1188 Column_1189 Column_1190 Column_1191 Column_1192 Column_1193 Column_1194 Column_1195 Column_1196 Column_1197 Column_1198 Column_1199 Column_1200 Column_1201 Column_1202 Column_1203 Column_1204 Column_1205 Column_1206 Column_1207 Column_1208 Column_1209 Column_1210 Column_1211 Column_1212 Column_1213 Column_1214 Column_1215 Column_1216 Column_1217 Column_1218 Column_1219 Column_1220 Column_1221 Column_1222 Column_1223 Column_1224 Column_1225 Column_1226 Column_1227 Column_1228 Column_1229 Column_1230 Column_1231 Column_1232 Column_1233 Column_1234 Column_1235 Column_1236 Column_1237 Column_1238 Column_1239 Column_1240 Column_1241 Column_1242 Column_1243 Column_1244 Column_1245 Column_1246 Column_1247 Column_1248 Column_1249 Column_1250 Column_1251 Column_1252 Column_1253 Column_1254 Column_1255 Column_1256 Column_1257 Column_1258 Column_1259 Column_1260 Column_1261 Column_1262 Column_1263 Column_1264 Column_1265 Column_1266 Column_1267 Column_1268 Column_1269 Column_1270 Column_1271 Column_1272 Column_1273 Column_1274 Column_1275 Column_1276 Column_1277 Column_1278 Column_1279 Column_1280 Column_1281 Column_1282 Column_1283 Column_1284 Column_1285 Column_1286 Column_1287 Column_1288 Column_1289 Column_1290 Column_1291 Column_1292 Column_1293 Column_1294 Column_1295 Column_1296 Column_1297 Column_1298 Column_1299 Column_1300 Column_1301 Column_1302 Column_1303 Column_1304 Column_1305 Column_1306 Column_1307 Column_1308 Column_1309 Column_1310 Column_1311 Column_1312 Column_1313 Column_1314 Column_1315 Column_1316 Column_1317 Column_1318 Column_1319 Column_1320 Column_1321 Column_1322 Column_1323 Column_1324 Column_1325 Column_1326 Column_1327 Column_1328 Column_1329 Column_1330 Column_1331 Column_1332 Column_1333 Column_1334 Column_1335 Column_1336 Column_1337 Column_1338 Column_1339 Column_1340 Column_1341 Column_1342 Column_1343 Column_1344 Column_1345 Column_1346 Column_1347 Column_1348 Column_1349 Column_1350 Column_1351 Column_1352 Column_1353 Column_1354 Column_1355 Column_1356 Column_1357 Column_1358 Column_1359 Column_1360 Column_1361 Column_1362 Column_1363 Column_1364 Column_1365 Column_1366 Column_1367 Column_1368 Column_1369 Column_1370 Column_1371 Column_1372 Column_1373 Column_1374 Column_1375 Column_1376 Column_1377 Column_1378 Column_1379 Column_1380 Column_1381 Column_1382 Column_1383 Column_1384 Column_1385 Column_1386 Column_1387 Column_1388 Column_1389 Column_1390 Column_1391 Column_1392 Column_1393 Column_1394 Column_1395 Column_1396 Column_1397 Column_1398 Column_1399 Column_1400 Column_1401 Column_1402 Column_1403 Column_1404 Column_1405 Column_1406 Column_1407 Column_1408 Column_1409 Column_1410 Column_1411 Column_1412 Column_1413 Column_1414 Column_1415 Column_1416 Column_1417 Column_1418 Column_1419 Column_1420 Column_1421 Column_1422 Column_1423 Column_1424 Column_1425 Column_1426 Column_1427 Column_1428 Column_1429 Column_1430 Column_1431 Column_1432 Column_1433 Column_1434 Column_1435 Column_1436 Column_1437 Column_1438 Column_1439 Column_1440 Column_1441 Column_1442 Column_1443 Column_1444 Column_1445 Column_1446 Column_1447 Column_1448 Column_1449 Column_1450 Column_1451 Column_1452 Column_1453 Column_1454 Column_1455 Column_1456 Column_1457 Column_1458 Column_1459 Column_1460 Column_1461 Column_1462 Column_1463 Column_1464 Column_1465 Column_1466 Column_1467 Column_1468 Column_1469 Column_1470 Column_1471 Column_1472 Column_1473 Column_1474 Column_1475 Column_1476 Column_1477 Column_1478 Column_1479 Column_1480 Column_1481 Column_1482 Column_1483 Column_1484 Column_1485 Column_1486 Column_1487 Column_1488 Column_1489 Column_1490 Column_1491 Column_1492 Column_1493 Column_1494 Column_1495 Column_1496 Column_1497 Column_1498 Column_1499 Column_1500 Column_1501 Column_1502 Column_1503 Column_1504 Column_1505 Column_1506 Column_1507 Column_1508 Column_1509 Column_1510 Column_1511 Column_1512 Column_1513 Column_1514 Column_1515 Column_1516 Column_1517 Column_1518 Column_1519 Column_1520 Column_1521 Column_1522 Column_1523 Column_1524 Column_1525 Column_1526 Column_1527 Column_1528 Column_1529 Column_1530 Column_1531 Column_1532 Column_1533 Column_1534 Column_1535 Column_1536 Column_1537 Column_1538 Column_1539 Column_1540 Column_1541 Column_1542 Column_1543 Column_1544 Column_1545 Column_1546 Column_1547 Column_1548 Column_1549 Column_1550 Column_1551 Column_1552 Column_1553 Column_1554 Column_1555 Column_1556 Column_1557 Column_1558 Column_1559 Column_1560 Column_1561 Column_1562 Column_1563 Column_1564 Column_1565 Column_1566 Column_1567 Column_1568 Column_1569 Column_1570 Column_1571 Column_1572 Column_1573 Column_1574 Column_1575 Column_1576 Column_1577 Column_1578 Column_1579 Column_1580 Column_1581 Column_1582 Column_1583 Column_1584 Column_1585 Column_1586 Column_1587 Column_1588 Column_1589 Column_1590 Column_1591 Column_1592 Column_1593 Column_1594 Column_1595 Column_1596 Column_1597 Column_1598 Column_1599 Column_1600 Column_1601 Column_1602 Column_1603 Column_1604 Column_1605 Column_1606 Column_1607 Column_1608 Column_1609 Column_1610 Column_1611 Column_1612 Column_1613 Column_1614 Column_1615 Column_1616 Column_1617 Column_1618 Column_1619 Column_1620 Column_1621 Column_1622 Column_1623 Column_1624 Column_1625 Column_1626 Column_1627 Column_1628 Column_1629 Column_1630 Column_1631 Column_1632 Column_1633 Column_1634 Column_1635 Column_1636 Column_1637 Column_1638 Column_1639 Column_1640 Column_1641 Column_1642 Column_1643 Column_1644 Column_1645 Column_1646 Column_1647 Column_1648 Column_1649 Column_1650 Column_1651 Column_1652 Column_1653 Column_1654 Column_1655 Column_1656 Column_1657 Column_1658 Column_1659 Column_1660 Column_1661 Column_1662 Column_1663 Column_1664 Column_1665 Column_1666 Column_1667 Column_1668 Column_1669 Column_1670 Column_1671 Column_1672 Column_1673 Column_1674 Column_1675 Column_1676 Column_1677 Column_1678 Column_1679 Column_1680 Column_1681 Column_1682 Column_1683 Column_1684 Column_1685 Column_1686 Column_1687 Column_1688
feature_infos=[0:1] [0:1] [0:1] [0:1] [0:1] none none none [0:1] none none [0:1] none none none none none none none none none none none none none none none none none none none none none none none none none none none none none [0:1] none none none none none none none none none none none none none none none none none none none none none none none none none none none none none none none none none none none none none none none none none none none none none none none none none none none none none none none none none [0:1] none none none none none none none none none none none none none none none none none none none none none none none none none none none none none none none none none none none none none none none none none none none none none none none none none none none none none none none none none none none none none none none none none none none [0:1] none none none none none none none none none none none none none none none none none none none none none none none none none none none none none none none none none none none none none none none none none none none none none none none none none none none none none none none none none none none none none none none none none none none none none none none none none none none none none none none none none none none none none none none none none none none none none none none none none none none none none none none none none none none none none none none none none none none none none none none none none none none none none none none none none none none none none none none none none none none none none none none none none none none none none none none none none none none none none none none none none none none none none none none none none none none none none none none none none none none none none none none none none none none none none none none none none none none none none none none none none none none none none none none none none none none none none none none none none none none [0:1] none none none none none none [0:1] none none none none none none none none none none none none none none none none none none none none none none none none none none none none none none none none none none none none none none none none none none none none none none none none none none none none none none none none none none none none none none none none none none none none none none none none none none none none none none none none none none none none none none none none none none none none none none none none none none none none none none none none none [0:1] none none [0:1] none [0:1] none none none none none [0:1] none none none none none none none none none none none none none none none none none none none none none none none none none none none none none none none none none none none none none none none none none none none none none none none none none none none none none none none none none none none none none none none none none none none none none none none none none none none none none none none none none none none none none none none none none none none none none none none none none none none none none none none none none none none none none none none none none none none none none none none none none none none none none none none none none none none none none none none none none none none none none none none none none none none none none none none none none none none none none none none none none none none none none none none none none none none none none none none none none none none none none none none none none none none none none none none none none none none none none none none none none none none none none none none none none none none none none none none none none none none none none none none none none none none none none none none none none none none none none none none none none none none none none none none none none none none none none none none none none none none none none none none none none none none none none none none none none none none none none none none none none none none none none none none none none none none none none none none none none none none none none none none none none none none none none none none none none none none none none none none none none none none none none none none none none none none none none none none none none none none none none none none none none none none none none none none none none none none none none none none none none none none none none none none none none none none none none none none none none none none none none none none none none none none none none none none none none none none none none none none none none none none none none none none none none none none none none none none none none none none none none none none none none none none none none none none none none none none none none none none none none none none none none none none none none none none none none none none none none none none none none none none none none none none none none none none none none none none none none none none none none none none none none none none none none none none none none none none none none none none none none none none none none none none none none none none none none none none none none none none none none none none none none none none none none none none none none none none none none none [0:1] [0:1] none [0:1] none none [0:1] none none none none none [0:1] none none none none none [0:1] none none none [0:1] none none none none none none none none none none none none none none none none none none none none none none none none none none none none none none none none none none none none none none none [0:1] none none none none none none none none none none none [0:1] none none none none none none none none none none none none none none none none none [0:1] [0:1] none none none none none none none none none none none none none none none none none none none none none none none none [0:1] none none none none none none none none none none none none none none none none none none none none none none none none none none none none none none none none none none none none none none none none none none none none none none none none none none none none none none none none none none none none none none none none none none none none none none none none none none none none none none none none none none none none none none none none none none none none none none none none none [0:1] none none none none none none none none none none none none none none none none none none none none none none none none none none none none none none [0:1] none none none none none none none none none none none none none none none none none none none none none none none none none none none none none none none none none none none none none none none none none none none none none none none none none none none none none none none none none none none none none none none none none none none none none none none none none none none none none none none none none none none none none none none none none none none none none none none none none none none none none none none none none none none none none none none none none none none none none none none none none none none none none none none none none none none none none none none none none none none none none none none none none none none none none none none none none none none none none none none none none none none none none none none none none none none none none none none none none none none none none none none none none none none none none none none none none none none none none none none none none none none none none none none none none none none none none none none none none none none none [0:1] none none none none none none none none none none none none none none none none none none none none none none none none none none none none none none none [0:1] [0:1] [0:1] [0:1] [0:1] [1:128] none [0:1] none none [0:1] [0:1] [-1:1] [-1:0.69962416974542008] [-1:1036] [-1:131.52186130069785] [0:520] [-1:732.56262530926324] [8:273] [-1:371.93816690412399] [0:5.8311512238777343] [-1:3.3380824090712267] [-1:1] [-1:1] [-1:1] [-1:1] [-1:1] none [0:251789028888] [-1:1] none [-1:1] [-1:1] [-1:1] [-1:1] [-1:1] [-1:1] [0:421] [8:240] [-8:209] [0:5.8311512238777343] [-1:1] none none none [-1:11] none none [-1:48] [-1:6] [-1:7] [-1:1] [-1:1] [0:1] none none none none none none none none none none none none none none none none none none none none none none none none none none none none none none none none none none none none none none none none none none none none none none none none none [-1:1] [-1:1] [-1:1] [-1:1] [-1:1] [-1:8] none none none none none none none none none none [-1:1] [-1:1] [-1:1] [-1:1] [-1:1] [-1:1] [-1:1] [-1:1] [-1:1] [-1:1] none none none [-1:1] none none none [-1226911371:63242940] [0:1] [0:1036]
tree_sizes=4118 3268 3590 3707 4674 2911 3947 3610 4049 3313 4250 4259 5021 3732 3639 4481 4482 3006 3938 5220 4999 3839 5004 4682 3854 4166 5538 5210 3944 3316 5645 4471 3748 4049 2983 3527 3409 4062 3952 4375

Tree=0
num_leaves=38
num_cat=0
split_feature=1551 1266 8 1568 1562 1578 1587 1564 1553 1575 1674 1555 1585 1142 1587 1601 1056 1672 1555 1600 1578 1570 1590 1578 1578 1566 1570 1585 1566 1555 1587 1571 1589 1555 1601 1578 1578
split_gain=523.986 469.16 353.581 247.738 115.579 104.477 296.4 48.9102 38.4757 37.7729 33.3022 28.8382 39.5064 21.4184 20.852 19.1579 38.8439 15.7155 42.0241 12.8632 19.4211 17.3925 15.1696 13.1845 10.6071 10.5214 7.10331 6.79284 5.75611 1.3229 1.6205 0.744813 0.619598 0.565016 0.326651 0.106561 0.118638
threshold=1.0000000180025095e-35 1.0000000180025095e-35 1.0000000180025095e-35 31.637500000000003 0.52388888888888896 11.500000000000002 15.500000000000002 1.0000000180025095e-35 1.0000000180025095e-35 1.0000000180025095e-35 1.0000000180025095e-35 8.5000000000000018 1.0000000180025095e-35 1.0000000180025095e-35 35.000000000000007 1.0000000180025095e-35 1.0000000180025095e-35 1.0000000180025095e-35 7.5000000000000009 2.0000000000000004 31492798.000000004 3.0335056560298956 1.8695132868719686 7775998.5000000009 34257599.000000007 1.9130434782608698 2.5519840916365109 1.0000000180025095e-35 1.0000000180025095e-35 5.5000000000000009 25.500000000000004 0.043401215174891698 9.5000000000000018 4.5000000000000009 1.0000000180025095e-35 907198.50000000012 449.00000000000006
decision_type=2 2 2 2 2 2 2 2 2 2 2 2 2 2 2 2 2 2 2 2 2 2 2 2 2 2 2 2 2 2 2 2 2 2 2 2 2
left_child=3 2 5 7 8 6 9 11 14 10 -2 12 15 17 -5 16 25 19 27 21 -21 22 28 -24 33 -1 -25 -19 -7 32 -31 -16 -23 -22 -32 36 -30
right_child=1 -3 -4 4 -6 13 -8 -9 -10 -11 -12 -13 -14 -15 31 -17 -18 18 -20 20 24 29 23 26 -26 -27 -28 -29 35 30 34 -33 -34 -35 -36 -37 -38
leaf_value=-1.5395314189552503 -1.5990621281266515 -0.52816000374944361 -0.51522248086860656 -0.52883343870182808 -1.2684509690116537 -1.4541604444331322 -0.6752723215782569 -1.67145653500901 -1.0459973995202811 -1.6785098675145416 -1.061605797155055 -0.99827018481022955 -1.5921445291209342 -1.3023725408237179 -0.89236797349723851 -1.0706290475156388 -1.0999312588939663 -1.4939023690455693 -1.1325728656290204 -1.2822070047147873 -1.675224517872774 -1.6760640707204553 -1.2503943722086253 -1.3832069450263784 -1.4268278958303582 -1.3170152203924834 -1.6212018911096704 -1.6745917566070867 -1.6401554553960467 -1.5380759972712139 -1.6633076534580538 -0.72478675624311817 -1.5838740076640903 -1.5717713037145382 -1.6174233309047823 -1.6735784496873523 -1.5787335197607362
leaf_weight=40.678072929382324 19.628162145614624 43.202748715877533 29.434654116630554 65.212546467781067 47.413260161876678 18.870698511600494 44.066689252853394 27.77665102481842 30.477137386798859 87.670821070671082 19.917494475841522 32.39957857131958 33.728662014007568 22.055447995662689 31.486963748931885 43.264804840087891 50.333256125450134 38.053262114524841 22.619812846183777 24.415643274784088 44.022812783718109 291.86614209413528 22.541876375675201 18.86527556180954 27.783654510974884 34.559223890304565 27.152491927146912 40.123988032341003 39.935147523880005 20.672810673713684 90.913361072540283 22.856043756008148 16.431999862194061 14.516270279884337 91.028833091259003 35.115571618080139 29.214089512825012
leaf_count=22 25 37 25 56 36 19 41 22 26 49 23 27 18 26 25 37 29 40 20 26 57 378 23 21 15 22 36 43 46 20 119 18 8 17 102 42 37
internal_value=-1.38141 -1.4873 -1.52446 -1.11022 -0.857188 -1.55204 -1.33684 -1.30165 -0.728829 -1.56972 -1.32716 -1.25688 -1.29993 -1.59142 -0.65143 -1.24065 -1.30123 -1.59847 -1.48527 -1.61236 -1.51537 -1.62743 -1.54879 -1.43463 -1.58169 -1.43782 -1.52575 -1.58917 -1.61141 -1.65655 -1.63201 -0.811294 -1.67182 -1.6532 -1.64177 -1.63891 -1.61739
internal_weight=0 1180.12 1136.92 460.186 197.446 1107.48 171.283 262.74 150.033 127.216 39.5457 234.964 202.564 936.199 119.556 168.835 125.571 914.144 100.797 813.347 110.738 702.608 191.695 68.5596 86.3227 75.2373 46.0178 78.1773 123.136 510.913 202.615 54.343 308.298 58.5391 181.942 104.265 69.1492
internal_count=1633 1295 1258 338 161 1233 138 177 125 97 48 155 128 1095 99 110 73 1069 103 966 115 851 224 80 89 44 57 83 144 627 241 43 386 74 221 125 83
shrinkage=1


Tree=1
num_leaves=30
num_cat=0
split_feature=1112 1554 1677 1658 1578 1590 1673 1578 1551 1588 1566 1578 1566 1587 1573 1587 1551 1570 1553 1654 1555 1590 1562 1562 1578 1562 1555 4 1570
split_gain=694.186 274.02 177.023 129.464 88.4577 66.293 67.6184 78.9277 123.147 89.6247 86.1996 116.812 62.7874 59.6034 40.6926 31.4002 27.5364 23.9363 23.3624 54.9107 22.7707 21.7738 18.6764 10.3028 8.67793 7.18215 5.38414 3.93763 0.179164
threshold=1.0000000180025095e-35 1.0000000180025095e-35 1.0000000180025095e-35 1.0000000180025095e-35 31535998.500000004 4.7719472258263531 1.0000000180025095e-35 1798.5000000000002 1.0000000180025095e-35 54.500000000000007 34.250000000000007 25056999.000000004 22.500000000000004 41.500000000000007 1.0000000180025095e-35 4.5000000000000009 1.0000000180025095e-35 5.5914179551025747 1.0000000180025095e-35 1.0000000180025095e-35 1.5000000000000002 3.6235587949837496 0.63983158594164291 0.91220996663848208 34257599.000000007 0.95546661766316665 1.5000000000000002 1.0000000180025095e-35 3.964281606357781
decision_type=2 2 2 2 2 2 2 2 2 2 2 2 2 2 2 2 2 2 2 2 2 2 2 2 2 2 2 2 2
left_child=1 2 3 5 -3 6 7 8 12 10 11 16 15 24 22 26 23 25 -4 -20 -16 -18 -13 -9 -12 -7 -1 -10 -14
right_child=-2 4 18 -5 -6 17 -8 9 27 -11 13 14 28 -15 20 -17 21 -19 19 -21 -22 -23 -24 -25 -26 -27 -28 -29 -30
leaf_value=-1.1641816333706021 -0.60278726841340957 -1.229082114248035 -1.6860650328299309 -0.86218451021918696 -0.68065445355077048 -1.6844662347205481 -1.682721218634031 -1.352182133697208 -1.6849354230445015 -0.80339305806696837 -1.6830402120528496 -0.70105692578048051 -1.5611538097742153 -1.1937618927306128 -1.0704322452591819 -0.87351379166981391 -1.5591905457203004 -1.3080509160165996 -1.6788465248688225 -1.0412115942976086 -1.4148103099246974 -1.2525988195966444 -1.0304100743311415 -1.102317180152244 -1.5108064434250408 -1.4782314033715793 -1.3416065077317545 -1.5555736457381319 -1.5070044393004887
leaf_weight=28.863699197769165 94.618651866912842 58.176429271697998 302.136798620224 36.496718883514404 48.755232810974121 114.87936615943909 68.213715076446533 34.196002721786499 140.53758406639099 29.669175148010254 73.713756561279297 30.36916184425354 31.793060541152954 38.416095495223999 42.951006412506104 27.606334447860718 91.177453517913818 19.995625495910645 35.539946794509888 17.24927830696106 28.228973150253296 26.128584861755371 40.272212982177734 25.704157829284668 44.148980379104614 18.771124839782715 33.118503570556641 30.401289701461792 21.930666208267212
leaf_count=21 38 46 374 20 20 153 77 28 179 17 98 14 26 39 38 14 114 20 50 12 30 24 29 18 37 16 28 34 19
internal_value=-1.38714 -1.43583 -1.4705 -1.40989 -0.974799 -1.42958 -1.39798 -1.37394 -1.49178 -1.30054 -1.33273 -1.24346 -1.28701 -1.51474 -1.04156 -1.1343 -1.40607 -1.61084 -1.65394 -1.46794 -1.2055 -1.49034 -0.881219 -1.24204 -1.62011 -1.65639 -1.25676 -1.66304 -1.54164
internal_weight=0 1539.44 1432.51 1077.58 106.932 1041.09 887.44 819.227 314.251 504.976 475.306 319.028 143.312 156.279 141.821 89.5885 177.206 153.646 354.926 52.7892 71.18 117.306 70.6414 59.9002 117.863 133.65 61.9822 170.939 53.7237
internal_count=1633 1595 1529 1093 66 1073 884 807 321 486 469 295 108 174 111 63 184 189 436 62 68 138 43 46 135 169 49 213 45
shrinkage=1


Tree=2
num_leaves=33
num_cat=0
split_feature=1599 1584 1050 1553 1551 1669 1654 1672 1555 1578 1266 1555 1591 1570 1578 1562 1562 1562 1673 1566 1601 1566 1590 1670 1578 1578 1566 1555 1587 1682 1555 1586
split_gain=1415.54 500.596 321.665 111.371 110.582 205.257 64.5952 30.5809 29.5599 36.4199 27.8079 26.1284 18.2315 16.8993 16.595 17.9494 11.4952 6.77138 6.54219 5.77912 5.05336 7.88313 12.263 7.82481 2.1833 2.16983 4.17311 1.0458 0.409583 5.02503 0.161526 0.144463
threshold=3.5000000000000004 1.0000000180025095e-35 1.0000000180025095e-35 1.0000000180025095e-35 1.0000000180025095e-35 1.0000000180025095e-35 1.0000000180025095e-35 1.0000000180025095e-35 5.5000000000000009 1798.5000000000002 1.0000000180025095e-35 1.5000000000000002 1.0000000180025095e-35 5.3456085609058741 32659198.500000004 0.96481648798434638 0.7980303030303032 0.97871084296966659 1.0000000180025095e-35 26.250000000000004 1.0000000180025095e-35 50.500000000000007 4.2024811476561608 1.0000000180025095e-35 1209598.5000000002 89.000000000000014 61.500000000000007 1.5000000000000002 16.500000000000004 1.0000000180025095e-35 1.5000000000000002 1.0000000180025095e-35
decision_type=2 2 2 2 2 2 2 2 2 2 2 2 2 2 2 2 2 2 2 2 2 2 2 2 2 2 2 2 2 2 2 2
left_child=2 17 3 4 8 6 7 10 12 -10 14 -8 25 18 15 24 -11 -2 20 -20 31 22 23 28 -6 -1 27 -27 -22 -30 -7 -5
right_child=1 -3 -4 13 5 30 11 -9 9 16 -12 -13 -14 -15 -16 -17 -18 -19 19 -21 21 -23 -24 -25 -26 26 -28 -29 29 -31 -32 -33
leaf_value=-1.6522188727646081 -0.79082971903343435 -1.6524587180917312 -0.67185534919096379 -1.6695434410443792 -1.2245275814958048 -0.71466943886002976 -0.87027397060872114 -1.6621985995630106 -1.0974437321843658 -1.6697955765900063 -1.6465984006003671 -1.2922493074305736 -1.4047486949173269 -1.4060912280953961 -1.5416800528552008 -1.4336298111939321 -1.4159534620954362 -0.5231212234890511 -1.6091214740154756 -1.3578751421298085 -1.6736527220878097 -1.6774700961999818 -1.3437997831882464 -1.4746536411100255 -1.0832688664349415 -1.513672437832293 -1.6733768064193395 -1.5906438705128474 -1.4799468076281037 -1.6730626621465385 -0.88016404900065115 -1.6136764182685626
leaf_weight=145.34720796346664 19.094640135765076 43.799704670906067 39.962341070175171 281.6405046582222 29.625630557537079 28.632960855960846 19.858631193637848 67.035688817501068 24.6302210688591 25.88241571187973 36.163038432598114 37.474443733692169 38.995709776878357 32.082406580448151 29.21398913860321 39.715697824954987 40.686661422252655 193.34045988321304 16.780410826206211 15.04990893602371 40.038628220558167 84.705595016479492 20.175275504589081 38.340416729450226 19.118495345115662 47.515373528003693 38.54883337020874 34.775144398212433 19.935760855674744 36.979111552238464 23.776390671730042 32.501170337200165
leaf_count=96 20 68 46 305 31 36 23 58 23 19 31 35 31 35 24 36 39 235 23 19 34 81 26 35 21 27 31 22 23 35 31 34
internal_value=-1.38038 -0.734053 -1.50032 -1.52544 -1.4457 -1.31768 -1.42095 -1.49467 -1.55237 -1.4022 -1.42032 -1.13985 -1.59703 -1.61896 -1.34913 -1.28444 -1.51747 -0.544309 -1.63054 -1.49326 -1.63821 -1.60276 -1.56042 -1.59275 -1.16426 -1.625 -1.5903 -1.54833 -1.63801 -1.60831 -0.778977 -1.66452
internal_weight=0 256.235 1385.19 1345.23 726.997 330.615 278.206 220.873 396.382 91.1993 153.837 57.3331 305.182 618.229 117.674 88.4598 66.5691 212.435 586.147 31.8303 554.316 240.175 155.469 135.294 48.7441 266.187 120.839 82.2905 96.9535 56.9149 52.4094 314.142
internal_count=1633 323 1310 1264 614 326 259 201 288 81 143 58 207 650 112 88 58 255 615 42 573 234 153 127 52 176 80 49 92 58 67 339
shrinkage=1


Tree=3
num_leaves=34
num_cat=0
split_feature=1575 1674 1584 1551 1585 1589 1051 1574 1578 11 1572 1578 1570 1578 1599 1551 1553 1590 1570 1266 1590 1566 1670 1578 1570 1578 1590 1590 1578 1578 1562 1578 1555
split_gain=1016.95 467.031 426.873 329.798 132.261 119.949 66.9747 34.5323 76.7621 32.1759 27.8278 40.429 25.75 21.7545 15.6385 24.3445 16.4615 13.658 22.9798 12.7083 24.6693 19.0996 38.5145 11.4478 9.06792 8.69346 5.51977 24.4513 4.93615 2.35271 0.681147 0.669948 0.132158
threshold=1.0000000180025095e-35 1.0000000180025095e-35 1.0000000180025095e-35 1.0000000180025095e-35 1.0000000180025095e-35 1.0000000180025095e-35 1.0000000180025095e-35 1.0000000180025095e-35 63179325.000000007 1.0000000180025095e-35 1.0000000180025095e-35 31535998.500000004 3.696418257530758 748.50000000000011 3.5000000000000004 1.0000000180025095e-35 1.0000000180025095e-35 4.3734468494271663 3.4301826802983597 1.0000000180025095e-35 4.7035464691755715 41.500000000000007 1.0000000180025095e-35 1.0000000180025095e-35 2.2036341148086946 1498.5000000000002 1.2500000000000002 3.1217908086633481 23328295.000000004 33695998.500000007 0.86948933419521668 1209598.5000000002 8.5000000000000018
decision_type=2 2 2 2 2 2 2 2 2 2 2 2 2 2 2 2 2 2 2 2 2 2 2 2 2 2 2 2 2 2 2 2 2
left_child=2 3 14 -2 7 10 -6 8 12 -4 11 13 -3 -5 15 26 19 18 29 20 21 22 23 24 -17 -25 32 31 -27 -13 -23 -28 -1
right_child=1 4 9 5 6 -7 -8 -9 -10 -11 -12 17 -14 -15 -16 16 -18 -19 -20 -21 -22 30 -24 25 -26 28 27 -29 -30 -31 -32 -33 -34
leaf_value=-1.6936067378319037 -1.5823864414218292 -1.2873037250206369 -1.0274056491198067 -1.0112758040551637 -1.2799321722906019 -1.2285907876690749 -0.57458227593628797 -1.6309918316133647 -1.651129972461822 -0.51812448316848114 -0.52234402281896586 -1.1321238455023663 -0.77374669612986657 -0.55761897701828189 -1.6902640007256737 -1.4885399963241512 -1.6798638744957914 -1.1842426497603189 -0.58587804524786236 -1.6869366411600493 -1.1407644317324794 -1.6881389117622041 -1.0721026719245774 -1.6691093053894392 -1.2008272152695167 -1.4456858596578004 -1.3977820436727459 -1.6767142538327382 -1.56456056010182 -0.93518001445021648 -1.5988826145374535 -1.4657171674982177 -1.6301533854451611
leaf_weight=172.2860152721405 47.948411166667938 19.873075664043427 21.817580223083496 13.634693682193754 28.494882106781006 39.655987560749054 20.597454786300659 108.14858323335648 39.566963791847229 28.446264624595642 92.878830373287201 16.774870693683624 15.537226200103758 81.343376934528351 205.39921146631241 22.121970772743225 66.62695437669754 17.125752210617065 18.123866558074951 34.614455699920654 15.704689741134642 40.566952705383301 18.659169912338257 38.891744434833527 16.222898662090302 63.040752708911896 25.112356781959534 135.43925613164902 64.12733119726181 17.083644032478333 25.337322175502777 26.330917596817017 26.511245131492615
leaf_count=115 33 20 27 17 26 39 33 59 18 46 149 20 21 130 252 27 37 24 29 30 18 34 21 47 20 76 22 105 55 22 17 21 23
internal_value=-1.39633 -1.07677 -1.57247 -0.855665 -1.40575 -0.737961 -0.973495 -1.5233 -1.36691 -0.727675 -0.663188 -0.747722 -1.05106 -0.618054 -1.61568 -1.59599 -1.54405 -0.93449 -0.857765 -1.51662 -1.49639 -1.51653 -1.47394 -1.51202 -1.36494 -1.54597 -1.65012 -1.61024 -1.50648 -1.02238 -1.65736 -1.43321 -1.68636
internal_weight=0 576.788 1047.26 344.569 232.218 296.621 49.0923 183.126 74.9773 50.2638 256.965 164.086 35.4103 94.9781 996.993 791.594 405.914 69.1081 51.9824 339.287 304.673 288.968 223.064 204.405 38.3449 166.06 385.68 186.883 127.168 33.8585 65.9043 51.4433 198.797
internal_count=1633 640 993 463 177 430 59 118 59 73 391 242 41 147 920 668 382 95 71 345 315 297 246 225 47 178 286 148 131 42 51 43 138
shrinkage=1


Tree=4
num_leaves=43
num_cat=0
split_feature=1551 1266 8 1568 1578 1587 1575 1589 1575 1570 1601 1572 1571 1142 1672 1555 1600 1570 1578 1578 1578 1578 1578 1566 1590 1555 1585 1053 1590 1555 1555 1601 1570 1575 1589 1555 1555 1566 1555 1555 1578 1568
split_gain=230.329 172.726 133.374 75.3298 63.4735 110.585 47.6913 29.9799 27.0214 25.006 27.0578 16.3975 35.2173 11.8903 12.7576 22.9237 10.2685 14.7957 13.5577 13.1179 48.8796 9.53851 8.32103 20.4537 6.55492 14.2415 6.47086 2.82546 2.20744 2.00394 1.83337 4.11299 4.58508 1.18209 1.00166 0.820388 0.720122 0.575098 0.572849 0.450123 0.284937 0.193127
threshold=1.0000000180025095e-35 1.0000000180025095e-35 1.0000000180025095e-35 31.637500000000003 11.500000000000002 15.500000000000002 1.0000000180025095e-35 -2.4999999999999996 1.0000000180025095e-35 1.9957648121420117 1.0000000180025095e-35 1.0000000180025095e-35 0.043401215174891698 1.0000000180025095e-35 1.0000000180025095e-35 7.5000000000000009 2.0000000000000004 3.0335056560298956 31492798.000000004 2729.0000000000005 907198.50000000012 34257599.000000007 89.000000000000014 1.9130434782608698 2.5217843656153409 1.5000000000000002 1.0000000180025095e-35 1.0000000180025095e-35 2.2036341148086946 5.5000000000000009 14.500000000000002 1.0000000180025095e-35 3.5744013115109059 1.0000000180025095e-35 9.5000000000000018 1.5000000000000002 33.000000000000007 31.500000000000004 11.500000000000002 4.5000000000000009 86398.500000000015 44.500000000000007
decision_type=2 2 2 2 2 2 2 2 2 2 2 2 2 2 2 2 2 2 2 2 2 2 2 2 2 2 2 2 2 2 2 2 2 2 2 2 2 2 2 2 2 2
left_child=3 2 4 9 5 8 7 11 28 10 22 12 -5 14 16 26 17 19 -18 35 -21 39 27 -24 33 -26 37 -1 -2 34 31 38 -33 -22 -19 -6 -32 -16 -31 -20 -11 -13
right_child=1 -3 -4 6 13 -7 -8 -9 -10 40 -12 41 -14 -15 15 -17 18 29 21 20 24 -23 23 -25 25 -27 -28 -29 -30 30 36 32 -34 -35 -36 -37 -38 -39 -40 -41 -42 -43
leaf_value=0.16664227614784982 -0.019529950474034868 0.42035646809940841 0.42500846803840303 0.06850903362790571 -0.18348793044165609 0.36592990358779032 0.031178664706634905 0.0635847463214569 -0.26599409049400496 -0.086519864901369758 0.31535249818047234 0.45306257938096761 0.45567497318825778 0.036397309180640429 -0.027778779813377355 0.16691732619200578 0.088299626108283916 -0.26460681107238171 -0.26682591561440205 0.37129655642035481 -0.16292124311818809 -0.016798603875877179 -0.179325234375875 0.15740117922593735 0.14443158676409798 -0.25795542027477952 -0.26353284788808634 0.062375073479109269 0.120614852740698 -0.26417222973450377 -0.26824355730781946 -0.16865342537340802 0.041711065262766016 -0.27087729197748978 -0.15533211927623805 -0.27166167012742798 -0.16433926711082494 -0.10804972327392082 -0.16354728324326509 -0.1677973323631326 -0.13535956516513892 0.57629694450619973
leaf_weight=38.168875992298126 20.58145546913147 57.373141169548035 39.077747702598572 34.060745716094971 29.217196404933929 57.688920736312866 52.14345109462738 27.596380710601807 64.711252748966217 33.397267162799835 42.774597406387329 41.390076875686646 56.56298553943634 23.9262934923172 16.374817430973053 25.421082198619843 24.83782297372818 219.92928299307823 34.337460041046143 18.134192407131195 24.067742466926575 25.722365617752075 36.630837142467499 27.586753606796265 15.809337705373766 14.009404450654982 30.299630999565125 63.383206367492676 18.449622869491577 32.265273749828339 52.948410838842392 29.079317539930344 13.02339258790016 27.702718824148178 12.984798073768614 35.367584139108658 13.906770914793013 16.744280397891998 14.414558827877043 13.060017645359038 28.251186668872833 31.014044463634491
leaf_count=23 28 37 25 24 38 41 33 17 49 22 34 28 37 26 23 20 26 378 57 19 19 15 25 26 23 22 43 29 20 55 85 47 17 48 8 55 13 17 24 17 18 22
internal_value=0 -0.0809477 -0.111185 0.165238 -0.134271 0.0364564 0.286183 0.35541 -0.148501 0.055914 0.105462 0.40412 0.312495 -0.170366 -0.177094 -0.0694376 -0.191661 -0.207584 -0.100605 -0.130802 -0.0615396 -0.165099 0.0497364 -0.034478 -0.161074 -0.0468532 -0.1653 0.102807 0.0480734 -0.239633 -0.208876 -0.175945 -0.104125 -0.224728 -0.259205 -0.235179 -0.249371 -0.0703394 -0.237181 -0.24357 -0.110705 0.512981
internal_weight=0 1021.47 964.093 512.96 925.015 161.431 242.768 190.624 103.742 270.193 208.544 163.028 90.6237 763.584 739.657 88.8398 650.818 552.86 97.9577 164.308 99.7234 73.1198 165.77 64.2176 81.5892 29.8187 63.4187 101.552 39.0311 388.552 155.638 88.7825 42.1027 51.7705 232.914 64.5848 66.8552 33.1191 46.6798 47.3975 61.6485 72.4041
internal_count=1633 1295 1258 338 1233 138 161 128 97 177 137 111 61 1095 1069 103 966 851 115 224 131 89 103 51 112 45 83 52 48 627 241 143 64 67 386 93 98 40 79 74 40 50
shrinkage=0.3


Tree=5
num_leaves=26
num_cat=0
split_feature=1112 1599 1554 1658 1590 1571 1688 1551 1578 1669 1601 1562 1566 1601 1578 1578 1053 1051 1674 1575 1566 1553 1590 1582 4
split_gain=221.974 126.715 86.9913 59.0622 46.8505 42.0974 50.3491 41.3557 65.0915 53.3948 53.0994 52.3763 50.4601 38.3829 31.6117 22.9581 48.2673 19.2846 12.6354 10.1642 26.1867 7.4387 7.34746 7.10928 4.61007
threshold=1.0000000180025095e-35 1.0000000180025095e-35 1.0000000180025095e-35 1.0000000180025095e-35 4.7719472258263531 0.18261936783619545 29.500000000000004 1.0000000180025095e-35 1798.5000000000002 1.0000000180025095e-35 1.0000000180025095e-35 0.97871084296966659 4.5000000000000009 1.0000000180025095e-35 31492798.000000004 90503999.000000015 1.0000000180025095e-35 1.0000000180025095e-35 1.0000000180025095e-35 1.0000000180025095e-35 1.9130434782608698 1.0000000180025095e-35 3.0495929629863094 1.0000000180025095e-35 1.0000000180025095e-35
decision_type=2 2 2 2 2 2 2 2 2 2 2 2 2 2 2 2 2 2 2 2 2 2 2 2 2
left_child=1 2 3 4 5 6 7 10 24 11 19 12 -10 -13 18 16 -4 23 -12 20 -1 -3 -22 -6 -9
right_child=-2 21 15 -5 17 -7 -8 8 9 -11 14 13 -14 -15 -16 -17 -18 -19 -20 -21 22 -23 -24 -25 -26
leaf_value=0.26571728171085951 0.38277809903312615 -0.26861957528868152 -0.18469583142311219 0.30752722543800282 -0.27491302494696473 -0.28275862419095538 0.42495960057954152 -0.2684746602927191 0.24122422115254913 -0.28002665926776443 -0.050072824174496183 0.3618684077669353 -0.13118136232914374 0.054959072742204122 0.1918831208865823 0.37651104410023112 0.3206051608479486 0.059953265992320884 -0.28129006309687388 0.33684139703718147 -0.097640351887163038 -0.044015047719351309 0.11208437537738843 -0.066498151661107105 -0.11751441363890494
leaf_weight=76.568604826927185 125.93861758708954 184.72363996505737 27.536970734596252 45.721211194992065 101.44935697317123 47.810696482658386 23.795814156532288 105.972296833992 39.947477489709854 51.854070663452148 43.278547883033752 59.138410478830338 163.07485005259514 95.126469701528549 29.076223969459534 58.166555523872375 41.471194863319397 21.810194104909897 41.859638810157776 33.729933321475983 31.356952846050262 14.759178936481474 27.08218652009964 18.090192377567291 24.722804725170135
leaf_count=43 38 323 29 21 173 61 10 178 30 87 35 33 212 98 19 17 20 31 43 18 25 17 21 17 34
internal_value=0 -0.031417 0.00521825 -0.0224584 -0.0373077 -0.0118517 0.00376328 -0.00891918 -0.057584 0.00145956 0.0838029 0.04298 -0.0570822 0.174188 -0.073793 0.238914 0.119212 -0.197166 -0.165701 0.190282 0.151459 -0.252304 -0.000198016 -0.244186 -0.241028
internal_weight=0 1408.12 1208.64 1081.47 1035.74 894.395 846.584 822.788 539.836 409.141 282.952 357.287 203.022 154.265 114.214 127.175 69.0082 141.35 85.1382 168.738 135.008 199.483 58.4391 119.54 130.695
internal_count=1633 1595 1255 1189 1168 947 886 876 672 460 204 373 242 131 97 66 49 221 78 107 89 340 46 190 212
shrinkage=0.3


Tree=6
num_leaves=36
num_cat=0
split_feature=1599 1584 1050 1553 1551 1669 1672 1555 1578 1555 1578 1555 1595 1585 1591 1570 1578 1590 1673 1566 1601 1551 1587 1570 1578 1555 1578 1564 1568 1568 1578 1586 1578 1566 1563
split_gain=510.71 142.66 124.729 74.4885 59.4967 76.4952 36.4653 25.384 39.2906 22.0894 26.5392 16.4418 31.9958 47.4045 14.7312 13.9917 11.6641 10.863 6.35142 4.78821 4.46436 11.5678 5.90974 12.0094 3.19079 2.52172 2.31329 3.40119 1.37442 3.63422 1.07028 0.493777 0.463516 0.425953 0.182977
threshold=3.5000000000000004 1.0000000180025095e-35 1.0000000180025095e-35 1.0000000180025095e-35 1.0000000180025095e-35 1.0000000180025095e-35 1.0000000180025095e-35 12.500000000000002 31535998.500000004 5.5000000000000009 1049.0000000000002 2.5000000000000004 2.0000000000000004 1.0000000180025095e-35 1.0000000180025095e-35 5.3456085609058741 1306799.0000000002 3.0015370947142852 1.0000000180025095e-35 31.500000000000004 1.0000000180025095e-35 1.0000000180025095e-35 38.500000000000007 3.8980860914690529 2729.0000000000005 2.5000000000000004 89.000000000000014 0.92261904761904778 33.785714285714292 32.982142857142868 31535998.500000004 1.0000000180025095e-35 1498.5000000000002 6.4000000000000012 0.026755490690235081
decision_type=2 2 2 2 2 2 2 2 2 2 2 2 2 2 2 2 2 2 2 2 2 2 2 2 2 2 2 2 2 2 2 2 2 2 2
left_child=2 28 3 4 9 6 7 11 -9 14 -11 12 13 -6 26 18 -13 -12 20 -20 31 -22 23 24 -23 -26 33 30 29 -2 -28 34 -7 -1 -5
right_child=1 -3 -4 15 5 32 -8 8 -10 10 17 16 -14 -15 -16 -17 -18 -19 19 -21 21 22 -24 -25 25 -27 27 -29 -30 -31 -32 -33 -34 -35 -36
leaf_value=-0.26033511174308943 0.44934108369381043 -0.23846626466413581 0.3565630882510134 -0.26085122769747621 -0.048085827717903068 0.27263848419546627 -0.25007229637334655 0.49969877064122464 -0.023488291599596759 0.26703826641391326 0.068731403061982263 0.0061120846654881779 -0.26922618715123364 0.4520663726396319 -0.0042247071283509066 -0.0018526536501498334 -0.24465994334081059 -0.19076872157599337 -0.1897895462929664 0.053266666784764209 0.044892810262216629 -0.09445624850455564 -0.27342021829507857 0.077315723618566048 -0.27272327749799602 -0.13416849690813309 -0.16543843794908725 -0.26086413899962246 0.42516710674529795 0.28997863694196158 -0.085936633457612099 -0.18930175831717022 0.36568488113191816 -0.20167162875938907 -0.18063311586359274
leaf_weight=71.070694029331207 26.930919170379639 33.901196002960205 52.624551117420197 199.4076946079731 43.222788870334625 30.255798935890198 52.454815983772278 22.218930661678314 28.929261982440948 22.870462775230408 21.318743884563446 28.102843165397644 20.596027195453644 26.991146206855774 37.071171283721924 30.131052285432816 39.944789886474609 41.848993599414825 13.66074112057686 13.838382065296171 17.451377749443054 21.221168428659439 75.489036679267883 15.815978080034254 47.422247976064682 19.981174319982529 41.740561902523041 27.971743881702423 206.54834455251694 47.454429626464844 30.186548888683319 25.261599868535995 36.678518116474152 44.019644856452942 12.639673262834547
leaf_count=49 25 68 46 286 37 29 59 25 28 19 24 26 24 28 31 35 32 38 24 18 19 26 95 22 52 20 29 30 190 40 21 34 38 47 19
internal_value=0 0.337269 -0.0909957 -0.111593 -0.0461811 0.0445085 -0.0288263 0.0273593 0.20901 -0.134407 -0.00305523 -0.0320693 0.0513359 0.147827 -0.179053 -0.200005 -0.142506 -0.103483 -0.212891 -0.0698991 -0.221756 -0.186031 -0.208553 -0.159518 -0.202175 -0.234212 -0.20904 -0.171545 0.407344 0.35287 -0.133709 -0.250564 0.328258 -0.239828 -0.25694
internal_weight=0 314.835 1212.44 1159.81 667.493 329.395 262.461 210.006 51.1482 338.099 86.0382 158.858 90.81 70.2139 252.06 492.32 68.0476 63.1677 462.189 27.4991 434.69 197.381 179.93 104.441 88.6246 67.4034 214.989 99.8989 280.934 74.3853 71.9271 237.309 66.9343 115.09 212.047
internal_count=1633 323 1310 1264 614 326 259 200 53 288 81 147 89 65 207 650 58 62 615 42 573 234 215 120 98 72 176 80 255 65 50 339 67 96 305
shrinkage=0.3


Tree=7
num_leaves=33
num_cat=0
split_feature=1575 1584 1578 1578 1553 1566 1587 1586 1056 1599 1551 1553 1578 1578 1578 1590 1568 1670 1677 1550 11 1589 1590 1590 1555 1570 1570 1578 1578 1555 1555 1578
split_gain=469.518 183.458 143.205 136.103 64.2082 38.8776 32.9052 19.8928 47.2711 12.3544 19.6769 15.2593 11.2318 40.0364 16.3486 10.457 20.9715 10.3045 11.184 20.5921 8.07592 7.4234 6.10667 20.4113 5.5647 6.98655 4.1842 2.5624 1.06391 0.644955 0.390406 0.229939
threshold=1.0000000180025095e-35 1.0000000180025095e-35 209.00000000000003 63179325.000000007 1.0000000180025095e-35 114.00000000000001 13.500000000000002 1.0000000180025095e-35 1.0000000180025095e-35 3.5000000000000004 1.0000000180025095e-35 1.0000000180025095e-35 1997998.0000000002 1829.0000000000002 32659198.500000004 2.5124494855594826 33.050000000000004 1.0000000180025095e-35 1.0000000180025095e-35 1.0000000180025095e-35 1.0000000180025095e-35 -2.4999999999999996 1.2500000000000002 3.1217908086633481 2.5000000000000004 4.0425069705733545 3.6252045570635185 11.500000000000002 907198.50000000012 2.5000000000000004 7.5000000000000009 33955198.500000007
decision_type=2 2 2 2 2 2 2 2 2 2 2 2 2 2 2 2 2 2 2 2 2 2 2 2 2 2 2 2 2 2 2 2
left_child=1 9 6 4 -4 7 -2 17 -9 10 22 12 13 15 24 27 -17 18 21 -20 -3 31 30 28 -14 -26 -8 -12 -24 -29 -1 -6
right_child=2 20 3 -5 5 -7 26 8 -10 -11 11 -13 14 -15 -16 16 -18 -19 19 -21 -22 -23 23 -25 25 -27 -28 29 -30 -31 -32 -33
leaf_value=-0.27229419963756829 0.19534687422251981 0.20008138635810072 -0.16739680882999644 -0.23935743060963863 0.43002876987216332 0.0033669679967211342 -0.20749376122626934 -0.10053602722801949 0.48308338970370768 -0.26133744466126052 -0.095592686423521658 -0.26023681797661408 -0.27087558524356931 0.26092778768486913 0.024860925141793465 0.23240428404215968 -0.19861794315284179 0.20556550454297298 0.05406419073546477 0.45992997737905739 0.42760194591091266 0.2494400355062093 0.032933639072336415 -0.24915913252421518 -0.024179006337027818 -0.22894039671646821 -0.06785104452048063 -0.24475340094853726 -0.054488422301794896 -0.15224219793811125 -0.20193910623442782 0.53218221150934664
leaf_weight=131.72557330131531 27.732783049345016 26.689753234386444 23.121684074401855 43.071959376335144 242.65069961547852 28.9499192237854 71.484824120998383 25.754454255104065 22.748650550842285 148.6084543466568 27.272923707962036 54.933952748775482 54.968599855899811 32.270045459270477 37.852774977684021 19.142142415046692 19.504142045974731 29.211580455303192 23.41745799779892 21.208445012569427 38.158809840679169 24.531171560287476 22.812250852584839 104.27827009558678 28.157458752393723 31.740678727626801 28.101039111614227 32.253579169511795 25.54276168346405 18.000812292098999 23.90164378285408 21.369870662689209
leaf_count=110 30 27 23 22 292 30 43 18 28 252 35 37 65 39 31 25 19 29 20 26 46 24 21 105 29 27 28 49 22 26 28 27
internal_value=0 -0.143684 0.194986 0.266434 0.313905 0.339529 -0.0888556 0.363148 0.177419 -0.182509 -0.16451 -0.115924 -0.0888259 -0.0297412 -0.145689 -0.112019 0.0153515 0.38745 0.402734 0.252805 0.338422 0.424968 -0.22008 -0.175047 -0.201621 -0.134662 -0.169156 -0.174899 -0.013414 -0.215233 -0.262847 0.440274
internal_weight=0 877.815 633.355 506.036 462.964 439.842 127.319 410.892 48.5031 812.966 664.358 356.097 301.163 148.444 152.72 116.174 38.6463 362.389 333.178 44.6259 64.8486 288.552 308.26 152.633 114.867 59.8981 99.5859 77.5273 48.355 50.2544 155.627 264.021
internal_count=1633 993 640 539 517 494 101 464 46 920 668 382 345 193 152 154 44 418 389 46 73 343 286 148 121 56 71 110 43 75 138 319
shrinkage=0.3


Tree=8
num_leaves=37
num_cat=0
split_feature=1551 1266 8 1578 1572 1568 1687 1567 1601 1562 1669 1555 1570 1574 1568 1566 1595 1555 1587 1578 1554 1553 1566 1566 1600 1562 1570 1590 1555 1589 1555 1574 1578 1601 1555 1578
split_gain=118.411 91.2259 72.1718 36.5955 67.3152 33.994 26.6379 26.7927 22.2667 21.3949 20.4681 19.3891 17.9841 12.7988 12.72 10.222 8.33311 9.26485 9.11566 9.85715 7.13776 6.94917 5.54989 5.34251 3.14478 12.5713 3.42693 7.16088 7.48409 5.2077 5.32699 2.50461 2.26344 1.68806 0.982017 0.0700386
threshold=1.0000000180025095e-35 1.0000000180025095e-35 1.0000000180025095e-35 35599.000000000007 1.0000000180025095e-35 31.637500000000003 0.10307459677419356 0.79554662508460483 1.0000000180025095e-35 0.99821882951653962 1.0000000180025095e-35 7.5000000000000009 3.7562094490123852 1.0000000180025095e-35 10.500000000000002 63.833333333333336 2.0000000000000004 33.000000000000007 1.0000000180025095e-35 90503999.000000015 1.0000000180025095e-35 1.0000000180025095e-35 1.9130434782608698 28.500000000000004 4.5000000000000009 0.99821882951653962 3.0335056560298956 2.5217843656153409 1.5000000000000002 7.5000000000000009 7.5000000000000009 1.0000000180025095e-35 31535998.500000004 1.0000000180025095e-35 1.5000000000000002 12959998.500000002
decision_type=2 2 2 2 2 2 2 2 2 2 2 2 2 2 2 2 2 2 2 2 2 2 2 2 2 2 2 2 2 2 2 2 2 2 2 2
left_child=5 2 3 4 8 9 15 -8 11 14 -11 21 -6 -10 20 23 17 18 -5 24 31 22 34 -7 26 -26 27 35 -29 30 -28 -1 -17 -16 -2 -20
right_child=1 -3 -4 16 12 6 7 -9 13 10 -12 -13 -14 -15 33 32 -18 -19 19 -21 -22 -23 -24 -25 25 -27 29 28 -30 -31 -32 -33 -34 -35 -36 -37
leaf_value=-0.049232043451797561 -0.14114964092938703 0.31851451806461245 0.32808871505872483 0.093058151809086609 0.054941041696336061 0.27733022370588578 0.18364443497328387 -0.17467003949368179 -0.064924493291251342 0.34143021765197984 0.047147684064248144 0.10440115380036356 0.43819744327059823 0.19795866704834522 -0.16373520572978478 0.40001852658132592 0.050723697109475503 0.058664277619506641 -0.171785037961144 -0.038746556187401478 0.15194642389934865 -0.26101340608023765 -0.025746920534436054 0.11670867535211975 -0.25757666888183095 0.06233078763910075 -0.25186708864054375 0.10041416812000664 -0.17757517487303057 -0.0093878759167077882 -0.16045319303488939 0.056189493959516799 0.27124876218379207 -0.062492019128901968 -0.24716295718683209 -0.25287924514674803
leaf_weight=47.769709974527359 23.947058439254761 51.670400619506836 34.732136845588684 10.841803491115568 17.603396594524384 35.740998983383179 53.219245672225952 27.800410389900208 34.729276835918427 34.774743854999542 53.41755074262619 22.904244631528854 29.964269697666168 30.41821563243866 35.529707223176956 45.446795582771301 16.394464462995529 15.793973654508589 12.847746789455412 41.960775852203369 36.987196087837219 65.400908619165421 30.950092077255249 43.131140828132629 23.02570715546608 19.888224303722382 196.75986936688423 17.100914865732193 15.867678135633467 10.704318106174467 92.147240787744522 33.731379210948944 32.862439393997192 28.172094106674194 18.964955717325211 22.522957593202591
leaf_count=32 44 37 25 9 30 23 38 15 35 23 36 29 22 24 33 29 26 19 19 25 18 93 33 31 43 25 426 23 27 16 184 18 25 17 39 42
internal_value=0 -0.0641804 -0.0890946 -0.108295 -0.0203856 0.11839 0.200798 0.0600648 -0.0885382 0.0453181 0.165712 -0.147789 0.300417 0.0589562 -0.0135471 0.272501 -0.156889 -0.164079 -0.171777 -0.178308 0.0445443 -0.189715 -0.123941 0.192055 -0.192433 -0.111274 -0.201571 -0.137079 -0.03467 -0.215776 -0.223365 -0.00544834 0.350082 -0.120618 -0.192564 -0.228956
internal_weight=0 857.141 805.47 770.738 274.882 508.583 238.201 81.0197 227.315 270.382 88.1923 162.167 47.5677 65.1475 182.19 157.181 495.856 479.461 463.667 452.825 118.488 139.263 73.8621 78.8721 410.865 42.9139 367.951 68.3393 32.9686 299.611 288.907 81.5011 78.3092 63.7018 42.912 35.3707
internal_count=1633 1295 1258 1233 349 338 161 53 297 177 59 238 52 59 118 108 884 858 839 830 68 209 116 54 805 68 737 111 50 626 610 50 54 50 83 61
shrinkage=0.3


Tree=9
num_leaves=30
num_cat=0
split_feature=1673 1112 1589 1587 1578 1551 1550 1578 1601 1566 1566 1578 1601 1669 1575 1553 1562 1588 1570 1566 1589 1570 1590 1053 1555 1555 4 1575 1601
split_gain=107.144 84.1945 55.0631 60.9018 54.628 79.3938 52.7405 57.9819 45.077 26.4586 27.3584 51.7074 23.0934 21.7976 21.2183 23.9139 22.716 19.3804 18.0317 13.1087 11.7413 41.5103 10.9246 18.1139 17.1549 9.44399 6.77857 4.35472 7.16259
threshold=1.0000000180025095e-35 1.0000000180025095e-35 30.500000000000004 55.000000000000007 25056999.000000004 1.0000000180025095e-35 1.0000000180025095e-35 879756459.50000012 1.0000000180025095e-35 41.500000000000007 34.250000000000007 34257599.000000007 1.0000000180025095e-35 1.0000000180025095e-35 1.0000000180025095e-35 1.0000000180025095e-35 0.99821882951653962 47.500000000000007 5.5914179551025747 23.500000000000004 -6.4999999999999991 4.7670220855880538 3.0495929629863094 1.0000000180025095e-35 1.5000000000000002 2.5000000000000004 1.0000000180025095e-35 1.0000000180025095e-35 1.0000000180025095e-35
decision_type=2 2 2 2 2 2 2 2 2 2 2 2 2 2 2 2 2 2 2 2 2 2 2 2 2 2 2 2 2
left_child=1 2 3 4 5 8 7 9 22 10 13 -12 17 25 15 16 -14 26 20 -10 21 -5 23 24 -1 -6 -7 -2 -29
right_child=27 -3 -4 18 6 12 -8 -9 19 -11 11 -13 14 -15 -16 -17 -18 -19 -20 -21 -22 -23 -24 -25 -26 -27 -28 28 -30
leaf_value=0.12982834494756509 -0.25384196519121016 0.27300475213347469 0.28709568908176947 0.33279396586414983 0.33697881664053575 -0.26363332240407317 -0.27389476631233367 -0.28205143159308282 -0.013623932091737132 0.37195626088141942 -0.26425349675819282 0.22791351985990402 0.19159589647654848 -0.0084602077830797599 -0.25596400739473413 0.30537380425562549 -0.27131961558675949 0.08482170685272851 0.084319967550944272 -0.25862685001352925 -0.29028945302215059 -0.25423720995831833 0.2776650669516334 0.23012124497553435 -0.13562830841174012 0.16708270793641891 -0.075735295551217913 -0.25990082563639261 0.062630858822892349
leaf_weight=53.086440622806549 130.05076968669891 117.76554155349731 58.8950355052948 13.494954288005827 74.257042109966278 149.31985634565353 27.863314598798752 24.828102648258209 48.381911218166351 56.054519474506378 35.738244771957397 39.272351980209351 15.669593185186384 32.217074632644653 23.653899401426315 23.279903650283813 21.452330440282822 17.637265145778656 19.797023922204971 32.23869988322258 81.880062460899353 42.551512181758881 46.383955627679825 65.123231887817383 35.849435567855835 54.36270934343338 20.644885301589966 11.868982315063477 11.345525532960892
leaf_count=28 281 38 21 4 38 330 52 32 38 31 68 19 16 34 45 10 33 17 21 44 136 105 26 29 30 32 34 19 22
internal_value=0 0.0328891 0.00728188 -0.00859514 0.0216821 -0.0367578 0.115254 0.150242 0.0749056 0.187849 0.142706 -0.0069674 -0.152139 0.212122 -0.021092 0.0735567 -0.0760175 -0.210431 -0.179899 -0.113564 -0.218157 -0.109535 0.150898 0.111187 0.0225063 0.267013 -0.241387 -0.232312 -0.106195
internal_weight=0 1231.7 1113.93 1055.04 897.315 552.721 344.593 316.73 281.064 291.902 235.847 75.0106 271.658 160.837 84.0557 60.4018 37.1219 187.602 157.724 80.6206 137.927 56.0465 200.443 154.059 88.9359 128.62 169.965 153.265 23.2145
internal_count=1633 1311 1273 1252 986 680 306 254 195 222 191 87 485 104 104 59 49 381 266 82 245 109 113 87 58 70 364 322 41
shrinkage=0.3


Tree=10
num_leaves=39
num_cat=0
split_feature=1599 1553 1584 1050 1551 1672 1578 1266 1578 1578 1590 1602 1587 1590 1570 1578 1687 1578 1587 1590 1674 1587 1570 1566 1682 1566 1590 1687 1555 1555 1570 1056 1566 1590 1687 1570 1566 1573
split_gain=253.273 74.2219 70.2598 58.398 31.8553 35.8313 22.9648 23.04 17.1505 30.3356 12.6043 10.0586 9.93376 19.1416 10.1294 9.8013 24.5453 12.8092 7.64502 17.3183 6.86334 9.90363 5.64162 5.07514 9.57295 4.74041 4.58288 3.54271 4.16406 5.27267 2.59078 1.76695 2.27634 0.946434 0.636265 0.601838 0.198028 0.115863
threshold=3.5000000000000004 1.0000000180025095e-35 1.0000000180025095e-35 1.0000000180025095e-35 1.0000000180025095e-35 1.0000000180025095e-35 32659198.500000004 1.0000000180025095e-35 89.000000000000014 2729.0000000000005 3.8219363533524429 1.0000000180025095e-35 14.500000000000002 3.4022650295823875 5.3456085609058741 1829.0000000000002 0.86882591093117423 1498.5000000000002 41.500000000000007 4.2024811476561608 1.0000000180025095e-35 9.5000000000000018 4.1617603702037922 31.500000000000004 1.0000000180025095e-35 29.500000000000004 3.0075203660298446 0.99074074074074081 12.500000000000002 14.500000000000002 3.6556669798304631 1.0000000180025095e-35 15.833333333333334 3.7394566895021599 0.99074074074074081 3.7924829182193576 28.500000000000004 1.0000000180025095e-35
decision_type=2 2 2 2 2 2 2 2 2 2 2 2 2 2 2 2 2 2 2 2 2 2 2 2 2 2 2 2 2 2 2 2 2 2 2 2 2 2
left_child=1 3 27 4 8 6 7 10 22 -10 15 20 -3 26 18 17 25 -6 19 23 21 -11 31 -15 33 -17 -14 -2 -29 -30 -18 32 -1 -25 -19 -20 -4 -7
right_child=2 12 36 -5 5 37 -8 -9 9 11 -12 -13 13 14 -16 16 30 34 35 -21 -22 -23 -24 24 -26 -27 -28 28 29 -31 -32 -33 -34 -35 -36 -37 -38 -39
leaf_value=-0.11131540548496363 0.17642281921406419 -0.24966748501327451 -0.24679397789795501 0.31776106980569202 0.11468608492019521 -0.25031960010671833 -0.15423182068297531 -0.1961529010688885 0.23329558865187533 -0.25331982315974944 -0.029941401000108739 0.047282918382055013 0.21269910591373178 -0.24255230243979117 -0.0077199729749163944 0.14316375892621389 -0.14278222245530431 0.265661459861327 -0.1483580605937401 0.16111436754638461 -0.027051676778075216 -0.036033749200598458 -0.035823568739514797 0.07142877803055428 -0.24813916559706575 0.34817900597131562 -0.013083007726445462 0.33802443638414609 0.11301191833112081 0.29892652203215575 0.0043522406154595239 -0.27427171083830498 -0.24834350523179394 -0.039782778538227558 0.38244783167387392 -0.25740161676155493 -0.15163642229992966 -0.169745495828173
leaf_weight=25.631154745817184 24.211984395980835 110.52406543493271 15.013649761676788 44.864751219749451 45.02006208896637 26.511837810277939 33.920449167490005 19.783340990543365 28.196836948394775 58.765631496906281 34.494103729724884 32.46051812171936 11.46976852416992 54.618140697479248 30.394005626440048 23.349393010139465 21.111586183309555 20.778491616249084 9.7593603134155256 14.56984558701515 35.517113089561462 28.140251338481903 16.836012691259384 13.548636198043825 21.444878697395325 20.996325075626373 22.739085674285889 161.97247463464737 22.401304662227631 43.617899000644684 20.887916326522827 43.599955797195435 22.901708960533142 12.182470977306364 28.162182509899139 100.87962663173676 10.929810523986816 13.352684974670408
leaf_count=23 20 165 36 43 42 38 32 31 30 57 29 29 20 85 35 23 23 21 9 23 33 32 19 22 34 19 38 168 22 45 19 34 31 18 28 204 32 21
internal_value=0 -0.0716628 0.249896 -0.00855796 -0.0334292 0.0337816 0.0733719 0.106798 -0.104269 -0.0477188 0.13548 -0.100046 -0.172652 -0.142708 -0.170664 0.167117 0.0925377 0.233955 -0.192351 -0.136639 -0.139177 -0.184173 -0.197981 -0.180409 -0.104922 0.24577 0.0665097 0.298253 0.310364 0.23847 -0.0712073 -0.22691 -0.179685 0.0192568 0.339177 -0.249198 -0.213821 -0.228145
internal_weight=0 1047.41 278.147 645.282 600.418 308.368 268.504 234.583 292.049 183.08 214.8 154.884 402.13 291.606 257.397 180.306 86.3452 93.9607 227.003 116.364 122.423 86.9059 108.969 101.794 47.176 44.3457 34.2089 252.204 227.992 66.0192 41.9995 92.1328 48.5329 25.7311 48.9407 110.639 25.9435 39.8645
internal_count=1633 1310 323 657 614 326 267 235 288 181 204 151 653 488 430 175 84 91 395 182 122 89 107 159 74 42 58 255 235 67 42 88 54 40 49 213 68 59
shrinkage=0.3


Tree=11
num_leaves=39
num_cat=0
split_feature=1575 1584 1674 1551 1590 1682 1586 1573 1670 1570 1599 1578 1578 1590 1567 1551 1578 1566 1591 1600 11 1570 1590 1590 1566 1572 1670 1578 1578 1555 1587 1590 1578 1570 1570 1585 1570 1566
split_gain=248.053 97.7677 69.8323 60.4104 31.1756 38.5041 17.1062 12.5941 18.9815 21.0195 11.9946 13.5054 33.3613 11.7384 10.6492 9.30954 11.6566 8.14096 7.45872 7.60276 5.93867 5.29767 5.24812 5.21241 4.27714 3.65273 5.58955 3.49261 7.30891 2.29107 1.79508 3.07535 1.22005 1.60668 3.18363 0.616129 0.325304 0.224404
threshold=1.0000000180025095e-35 1.0000000180025095e-35 1.0000000180025095e-35 1.0000000180025095e-35 2.9684178858661245 1.0000000180025095e-35 1.0000000180025095e-35 1.0000000180025095e-35 1.0000000180025095e-35 3.5744013115109059 3.5000000000000004 32659198.500000004 111671999.00000001 3.8279187936957482 6.8417536495568569 1.0000000180025095e-35 1.0000000180025095e-35 3.5000000000000004 1.0000000180025095e-35 2.0000000000000004 1.0000000180025095e-35 4.7027956801936854 2.3464393446710159 3.8219363533524429 75.40000000000002 1.0000000180025095e-35 1.0000000180025095e-35 23328295.000000004 1829.0000000000002 4.5000000000000009 3.5000000000000004 2.7206113102771714 31535998.500000004 3.8632694609080995 3.3997307297596189 1.0000000180025095e-35 3.4825661185009218 39.500000000000007
decision_type=2 2 2 2 2 2 2 2 2 2 2 2 2 2 2 2 2 2 2 2 2 2 2 2 2 2 2 2 2 2 2 2 2 2 2 2 2 2
left_child=1 7 3 -2 -4 25 14 8 10 -10 11 15 -13 -7 17 30 22 -5 19 24 -3 23 -17 27 32 26 -6 28 -18 -29 -1 -32 -19 34 -34 -9 -12 -33
right_child=2 20 4 6 5 13 -8 35 9 -11 36 12 -14 -15 -16 16 21 18 -20 -21 -22 -23 -24 -25 -26 -27 -28 29 -30 -31 31 37 33 -35 -36 -37 -38 -39
leaf_value=-0.23966459076767332 -0.14043973777344274 0.12975915119052464 0.36355277141894771 0.14150334667640274 -0.16022360005005259 0.043728883471072739 0.033580408480291549 -0.26427332558804872 0.27589274299439259 -0.11694409500872377 -0.24983031311955362 0.36732621913019892 -0.17266526944245877 0.31772531417332334 0.04234415589372513 -0.048080245650048391 -0.14904779257848741 0.33690620131520571 0.097131178045724201 0.14791583189662791 0.3235328158359308 -0.26062105594000845 0.17513766122173582 0.014726856454233076 0.43404338335828097 -0.24511515177383197 0.0013182305606799355 -0.25232157969674596 0.056116274349567202 -0.12052165571562438 -0.07730366394538353 -0.16590142296490362 0.28974599170013737 0.31461286070883848 0.11052778520792172 -0.17713169719393748 -0.1512359249952617 -0.24629193383535375
leaf_weight=79.056947857141495 38.610717058181763 27.922581017017365 17.566021472215652 34.733118057250977 66.212437570095062 36.219438791275024 30.000291168689728 84.773024410009384 19.49811390042305 29.564774036407471 97.166297286748886 15.539911597967146 26.304699659347534 22.420880138874054 17.677034854888916 22.527119398117065 60.253548443317413 109.34925031661987 16.23477303981781 24.845314979553223 33.489075303077698 27.151601910591125 14.979691982269285 23.041142493486404 37.15886202454567 24.840335130691528 27.007266700267792 30.730902314186096 20.381407558917999 24.286560148000717 24.879165709018707 17.203449875116348 22.287259519100189 47.270940899848938 17.567373991012573 17.939134478569031 8.9453889429569227 22.064768731594086
leaf_count=76 33 27 23 35 44 32 29 100 24 31 230 21 37 27 17 32 99 144 19 30 46 25 19 22 50 23 28 44 22 25 21 25 26 63 17 19 22 26
internal_value=0 -0.120606 0.140949 0.213111 -0.00638746 -0.0450026 0.25162 -0.154051 -0.135986 0.0415659 -0.152965 -0.129033 0.0317653 0.152061 0.271454 -0.147426 -0.108308 0.284363 0.301846 0.31428 0.238919 -0.138974 0.0433029 -0.11666 0.331266 -0.143339 -0.113905 -0.138921 -0.0971381 -0.197331 -0.207262 -0.164261 0.309729 0.272183 0.215388 -0.250908 -0.243008 -0.216067
internal_weight=0 727.699 590.001 395.735 194.266 176.7 357.124 666.288 563.575 49.0629 514.513 408.401 41.8446 58.6403 327.124 366.556 223.352 309.447 274.714 258.479 61.4117 185.845 37.5068 158.694 233.634 118.06 93.2197 135.652 80.635 55.0175 143.204 64.1474 196.475 87.1256 39.8546 102.712 106.112 39.2682
internal_count=1633 993 640 463 177 154 430 920 801 55 746 494 58 59 401 436 288 384 349 330 73 237 51 212 300 95 72 190 121 69 148 72 250 106 43 119 252 51
shrinkage=0.3


Tree=12
num_leaves=46
num_cat=0
split_feature=1124 1572 1575 387 1578 1565 1551 1670 1671 1566 1601 1570 1581 1565 1590 1678 1562 1587 1555 1601 1570 1600 1600 1570 1563 1570 1056 1562 1588 1570 1590 1555 1672 1566 1575 1590 1564 1590 1566 1555 1590 1589 1688 1555 1570
split_gain=63.7902 67.3159 73.3365 29.6078 37.0424 29.2584 20.2558 18.1749 17.1681 24.56 17.8086 16.0634 14.5796 12.3094 11.1491 8.31018 8.20455 18.2762 8.18736 6.37584 7.36598 6.2788 5.05792 13.7777 6.20137 4.89782 4.12259 5.94635 3.57055 4.35569 9.84004 6.09077 3.53563 3.38176 1.90649 9.28791 1.90309 1.97038 1.2549 1.54565 0.924423 0.829768 0.444091 0.419287 0.086235
threshold=1.0000000180025095e-35 1.0000000180025095e-35 1.0000000180025095e-35 1.0000000180025095e-35 2635199.0000000005 0.72137687767241465 1.0000000180025095e-35 1.0000000180025095e-35 1.0000000180025095e-35 17.000000000000004 1.0000000180025095e-35 3.8738062437462948 1.0000000180025095e-35 0.64634041190360036 4.7035464691755715 1.0000000180025095e-35 0.91220996663848208 13.500000000000002 13.500000000000002 1.0000000180025095e-35 3.6252045570635185 2.0000000000000004 3.5000000000000004 3.7562094490123852 -1.0000000180025095e-35 3.6147282174001307 1.0000000180025095e-35 0.99821882951653962 68.500000000000014 3.0335056560298956 2.4486325695945523 33.000000000000007 1.0000000180025095e-35 11.250000000000002 1.0000000180025095e-35 3.3205684283372885 12.973684210526317 4.6230931522957235 1.9130434782608698 1.5000000000000002 0.95914791702724489 -6.4999999999999991 45.500000000000007 12.500000000000002 0.90563906222956658
decision_type=2 2 2 2 2 2 2 2 2 2 2 2 2 2 2 2 2 2 2 2 2 2 2 2 2 2 2 2 2 2 2 2 2 2 2 2 2 2 2 2 2 2 2 2 2
left_child=1 3 16 4 5 6 19 13 10 -10 34 12 25 21 -7 22 17 -3 -14 26 -21 41 28 24 -24 -12 27 40 29 30 44 36 -19 -32 35 38 37 43 39 -8 -1 -4 -2 -31 -6
right_child=42 2 7 -5 15 14 8 -9 9 -11 11 -13 18 -15 -16 -17 -18 32 -20 20 -22 -23 23 -25 -26 -27 -28 -29 -30 31 33 -33 -34 -35 -36 -37 -38 -39 -40 -41 -42 -43 -44 -45 -46
leaf_value=-0.13521168536956008 0.35468763529043817 -0.037483080144569698 -0.26486897669643511 0.27898943582291491 -0.24359692551702666 0.052684176247753491 -0.11004476474406232 0.1781286401204713 0.26466149061694089 -0.2278641680260402 0.064621717343431057 -0.29487653406371639 -0.2407817120239267 0.16541604651903602 0.34903416477908311 0.098676981708976569 0.37124107104724435 0.18870287666992916 0.12111040282309785 0.17169010214128294 -0.015384437320999417 -0.049836650194136987 -0.052738202187585577 -0.26324212292202953 0.2130289306497001 0.26855850997207942 0.053042527529692879 0.063343805599392067 -0.07055615904097523 -0.25978614973638164 0.13562803023628428 0.024929988183580113 0.31153006427691626 -0.072628167483888284 -0.25053314789129061 0.0066281675021881764 -0.11056254181226478 -0.084882307799830262 -0.27652245843752038 -0.23980917282828079 -0.061583566225125633 -0.15782209258939386 0.26032445670658555 -0.19077647241162532 -0.17473729558023593
leaf_weight=26.767149150371552 26.980201601982117 22.263447761535645 34.542425543069839 23.050240278244019 14.003930225968359 21.408047318458557 19.963392317295074 20.097288906574249 24.785348057746887 13.17373466491699 30.592730611562729 14.670840337872503 18.450964838266376 10.137868613004683 24.564708232879639 11.905006587505339 38.085490345954895 44.159431725740433 7.1984772682189933 47.526278018951416 30.820701837539673 25.114126741886139 17.634584844112396 17.627703875303268 12.88261851668358 15.999942213296888 66.576919078826904 31.816213250160217 31.95067498087883 94.361856713891029 12.605844587087633 9.1625687777996045 57.862892746925354 13.572325408458708 42.309585079550743 21.262766361236572 14.571778774261473 8.5806882828474027 26.505940109491348 18.381626278162003 42.039245873689651 15.487428292632101 31.517821669578552 25.306117221713066 29.41215281188488
leaf_count=16 20 21 110 21 22 22 44 16 20 57 37 30 52 15 18 14 24 33 18 35 18 29 32 29 15 16 30 25 39 222 15 11 49 27 63 32 15 17 57 49 30 31 29 68 40
internal_value=0 -0.00949067 0.121973 -0.0495175 -0.0586532 -0.0113039 -0.0325569 -0.0725442 -0.0919146 0.0922687 -0.124659 -0.0193876 0.0398205 -0.132997 0.215093 -0.140621 0.247886 0.207424 -0.138484 0.0287984 0.098831 -0.1749 -0.150359 -0.0595983 0.0626529 0.138825 -0.00441023 -0.0425717 -0.167293 -0.180863 -0.115903 -0.209656 0.260713 0.0289561 -0.195202 -0.165453 -0.224774 -0.236796 -0.221118 -0.176765 -0.0917531 -0.235473 0.309076 -0.246895 -0.201932
internal_weight=0 1149.19 267.75 881.443 858.392 544.815 498.842 105.379 253.295 37.9591 215.336 86.913 72.2421 85.2818 45.9728 313.578 162.371 124.286 25.6494 245.547 78.347 75.144 301.673 48.1449 30.5172 46.5927 167.2 100.623 253.528 221.577 69.5943 151.983 102.022 26.1782 128.423 86.1137 142.82 128.249 64.851 38.345 68.8064 50.0299 58.498 119.668 43.4161
internal_count=1633 1584 328 1256 1235 669 629 201 475 77 398 153 123 185 40 566 127 103 70 154 53 170 552 76 47 53 101 71 476 437 104 333 82 42 245 182 322 307 150 93 46 141 49 290 62
shrinkage=0.3


Tree=13
num_leaves=34
num_cat=0
split_feature=1673 1112 1550 1578 1551 1590 1051 1587 1581 1601 1567 1570 1562 1566 1570 1571 1587 1578 1570 1555 1563 1562 1555 1674 1570 1578 1053 1587 1555 1575 1568 1566 1578
split_gain=65.0623 44.2419 30.7952 31.3775 45.1799 34.7089 21.9925 17.5956 16.53 16.1867 28.1243 13.9566 38.3703 16.392 16.7484 13.6554 11.9344 29.7997 14.2196 14.3709 10.6942 9.73921 9.05745 16.2399 6.73848 5.95528 8.97744 17.6789 5.82539 4.8984 6.90016 2.87556 4.39082
threshold=1.0000000180025095e-35 1.0000000180025095e-35 1.0000000180025095e-35 25056999.000000004 1.0000000180025095e-35 4.6230931522957235 1.0000000180025095e-35 41.500000000000007 1.0000000180025095e-35 1.0000000180025095e-35 0.79554662508460483 3.8738062437462948 0.99821882951653962 5.4954545454545469 1.9957648121420117 0.045736639333024048 35.000000000000007 34257599.000000007 3.1217908086633481 1.5000000000000002 0.06394135867542354 0.99821882951653962 1.5000000000000002 1.0000000180025095e-35 1.9957648121420117 2729.0000000000005 1.0000000180025095e-35 5.5000000000000009 1.5000000000000002 1.0000000180025095e-35 33.785714285714292 1.0000000180025095e-35 449.00000000000006
decision_type=2 2 2 2 2 2 2 2 2 2 2 2 2 2 2 2 2 2 2 2 2 2 2 2 2 2 2 2 2 2 2 2 2
left_child=1 2 3 4 9 7 21 15 11 25 22 13 -13 14 28 16 18 -18 19 24 -17 -7 23 -11 -5 26 27 -1 31 -2 -31 -6 -33
right_child=29 -3 -4 5 8 6 -8 -9 -10 10 -12 12 -14 -15 -16 20 17 -19 -20 -21 -22 -23 -24 -25 -26 -27 -28 -29 -30 30 -32 32 -34
leaf_value=-0.10175964854918526 -0.24328635643992103 0.21333548214739179 -0.25631498855053775 0.24838853593337695 0.067830445105675041 -0.25772164281349802 0.25132583662359781 0.24556425817347383 0.13359498294780356 0.051957878139509202 0.26373472368147555 -0.26111397656064955 0.29099228086038242 -0.25852588985194486 0.21103715392573527 -0.2617796949301967 -0.25022061978978144 0.15857249812501714 0.24908564175686182 -0.10402549060606729 0.088126578363766875 0.0086420612619642883 -0.27470802187489779 -0.25350685688809255 0.049656441831758054 0.20046376218039005 0.15136093169643522 0.14301940793176307 -0.24580442247019846 0.092434875134844371 -0.24137561262403712 -0.0044676731178730023 -0.24161843855440235
leaf_weight=55.681621670722961 92.173749431967735 100.380490899086 37.892119988799095 30.554542601108551 10.286598861217497 42.75767856836319 11.792562127113341 76.677927866578102 19.720991671085358 41.778364956378937 20.141883850097656 22.456300884485245 20.91274282336235 107.95396712422371 13.918957382440565 16.431740999221805 25.336213245987892 40.086811006069183 72.042162597179413 28.460488796234131 13.613296449184416 17.126107811927795 24.002852499485016 23.811425060033798 31.130858689546585 37.4400854408741 70.061004877090454 48.972472786903381 27.003338992595673 10.343626543879511 10.151090651750563 15.486589252948763 11.921091586351393
leaf_count=39 281 38 105 12 13 128 8 33 13 36 7 44 12 302 11 29 61 20 36 23 14 17 32 38 28 20 30 33 65 21 20 36 28
internal_value=0 0.0243632 0.00549124 0.0158909 -0.0293974 0.0795599 -0.108778 0.120141 -0.12492 0.0448482 -0.0484025 -0.147574 0.00567222 -0.183037 -0.0774329 0.0820097 0.107115 -0.00112349 0.150516 0.0698731 -0.105507 -0.182654 -0.120713 -0.0610783 0.150486 0.0930816 0.0690606 0.0130533 -0.141762 -0.213876 -0.0764399 -0.0628014 -0.112492
internal_weight=0 1115.83 1015.45 977.561 571.55 406.01 71.6763 334.334 249.661 321.89 109.735 229.94 43.369 186.571 78.6166 257.656 227.611 65.423 162.188 90.1459 30.045 59.8838 89.5926 65.5898 61.6854 212.155 174.715 104.654 64.6976 112.668 20.4947 37.6943 27.4077
internal_count=1633 1311 1273 1168 759 409 153 256 524 235 113 511 56 455 153 223 180 81 99 63 43 145 106 74 40 122 102 72 142 322 41 77 64
shrinkage=0.3


Tree=14
num_leaves=33
num_cat=0
split_feature=1599 1553 1584 1050 1056 1669 1578 1555 1591 1676 1687 1571 1590 1570 1570 1600 1562 1568 1568 1670 1687 1566 1578 1570 1687 1555 1555 1566 1590 1551 1575 1570
split_gain=133.733 44.449 42.0733 32.6471 20.7147 32.5596 24.5187 15.3686 17.5907 16.6676 15.2151 12.9328 11.9884 10.7006 10.3641 8.8896 8.51084 7.30288 19.7987 9.82684 5.71958 11.2844 5.68987 4.75037 4.50523 4.96536 4.49979 3.86818 1.54017 0.562693 0.523461 0.437853
threshold=1.0000000180025095e-35 1.0000000180025095e-35 1.0000000180025095e-35 1.0000000180025095e-35 1.0000000180025095e-35 1.0000000180025095e-35 1829.0000000000002 10.500000000000002 1.0000000180025095e-35 1.0000000180025095e-35 0.15877016129032259 0.032744408067285478 3.7394566895021599 4.7547646945093485 5.3456085609058741 4.5000000000000009 0.37736326853973917 51.375000000000007 44.500000000000007 1.0000000180025095e-35 0.33809523809523817 20.500000000000004 4535998.5000000009 4.3937515999961096 0.96249413970932973 12.500000000000002 14.500000000000002 2.5000000000000004 3.9507418812868864 1.0000000180025095e-35 1.0000000180025095e-35 3.1661038812898346
decision_type=2 2 2 2 2 2 2 2 2 2 2 2 2 2 2 2 2 2 2 2 2 2 2 2 2 2 2 2 2 2 2 2
left_child=1 3 24 4 5 7 16 8 9 15 -10 12 -9 -13 17 23 -7 18 19 20 28 30 -21 27 -2 -26 -27 -1 -3 -29 -22 -4
right_child=2 14 31 -5 -6 6 -8 11 10 -11 -12 13 -14 -15 -16 -17 -18 -19 -20 22 21 -23 -24 -25 25 26 -28 29 -30 -31 -32 -33
leaf_value=-0.10427253255833101 0.11041017825031799 -0.23504254662883725 -0.11187224994000161 0.25528995861158404 -0.24261383258683092 0.12831921722762349 -0.078901049745900093 0.016858463128188391 0.18302374255840689 0.15940525402760777 -0.11115950530179895 0.057413673486199947 0.29727162666003054 -0.24698549474226045 0.029277251873674623 -0.024571996768000887 0.32706511564689011 -0.24707710592518051 0.17078065171924028 0.080999222551462038 -0.26323184546341721 0.11143879643474504 -0.14865675683118851 -0.048794724684636956 0.28910848424018232 0.057221618893137587 0.23500586089838915 -0.25224737824479226 -0.098654725547892938 -0.19286786227298447 -0.15579792689552083 -0.23044107266581157
leaf_weight=33.196238279342651 24.230050221085548 113.61025148630142 7.4935239851474789 38.658133924007416 36.24383956193924 46.756963193416595 35.77970427274704 30.088456451892853 34.738560855388641 16.283944725990295 27.497991561889648 23.195731699466705 24.425149917602539 17.407592535018921 27.339768797159195 42.107153177261353 35.11529141664505 70.969059884548187 16.793499335646629 21.032484948635101 10.401282310485842 14.950205802917479 16.384846359491348 22.651010781526566 126.68433856964111 19.890751838684082 39.600609540939331 58.623739987611771 10.131192713975905 54.255420565605164 20.259492710232735 13.930916517972944
leaf_count=32 24 233 19 43 36 43 30 31 35 16 24 25 27 25 33 37 36 186 34 22 10 33 25 32 169 22 51 88 16 90 51 55
internal_value=0 -0.0573192 0.197767 -0.00743199 -0.0267354 -0.0107018 0.126742 -0.0529808 -0.0872989 -0.125903 0.0533423 0.0512401 0.145591 -0.0758892 -0.146453 -0.148588 0.21648 -0.162809 -0.135077 -0.160621 -0.191206 -0.0973138 -0.0208177 -0.17921 0.238579 0.254581 0.177493 -0.198964 -0.224756 -0.225651 -0.199407 -0.195808
internal_weight=0 898.897 231.83 577.025 538.367 502.123 117.652 384.471 289.354 227.118 62.2366 95.1169 54.5136 40.6033 321.872 210.834 81.8723 294.532 223.563 206.77 169.352 45.611 37.4173 168.726 210.406 186.176 59.4914 146.075 123.741 112.879 30.6608 21.4244
internal_count=1633 1293 340 650 607 571 109 462 354 295 59 108 58 50 643 279 79 610 424 390 343 94 47 242 266 242 73 210 249 178 61 74
shrinkage=0.3


Tree=15
num_leaves=41
num_cat=0
split_feature=1575 1657 1589 1674 1553 1578 1573 1673 1551 1551 1578 1590 1570 1562 1671 1578 1567 1583 1677 1555 1563 1588 1601 1566 1570 1600 1568 1566 1677 1578 1142 11 1562 1578 1555 1589 1566 1568 1568 1566
split_gain=139.604 55.0773 35.3048 37.4379 25.4049 20.7714 11.7468 13.0404 11.7954 11.3803 11.0454 10.4143 17.0469 9.37098 8.71473 10.5127 7.04816 6.39776 11.7401 8.32846 9.68152 6.05536 5.94238 5.40348 4.70605 3.66444 4.90334 10.4521 7.14129 3.16922 3.16468 3.03933 9.89476 1.48802 1.29285 0.90077 0.561085 0.421521 0.745222 0.246739
threshold=1.0000000180025095e-35 1.0000000180025095e-35 31.500000000000004 1.0000000180025095e-35 1.0000000180025095e-35 1997998.0000000002 1.0000000180025095e-35 1.0000000180025095e-35 1.0000000180025095e-35 1.0000000180025095e-35 34257599.000000007 1.2500000000000002 3.4538496001010999 0.73412237491933896 1.0000000180025095e-35 11.500000000000002 6.8417536495568569 1.0000000180025095e-35 1.0000000180025095e-35 3.5000000000000004 0.03660495599066152 43.500000000000007 1.0000000180025095e-35 3.5000000000000004 3.738853209360014 2.0000000000000004 49.500000000000007 36.500000000000007 1.0000000180025095e-35 86398.500000000015 1.0000000180025095e-35 1.0000000180025095e-35 0.75455931473349913 1798.5000000000002 4.5000000000000009 1.0000000180025095e-35 28.500000000000004 43.250000000000007 46.100000000000009 39.500000000000007
decision_type=2 2 2 2 2 2 2 2 2 2 2 2 2 2 2 2 2 2 2 2 2 2 2 2 2 2 2 2 2 2 2 2 2 2 2 2 2 2 2 2
left_child=1 6 3 4 -2 22 7 8 11 -6 13 34 -13 21 15 -10 23 18 19 29 24 -7 -5 -11 -21 26 27 28 36 33 -9 32 -3 -17 -1 -28 -25 -8 -39 -14
right_child=2 31 -4 5 9 10 37 30 14 16 -12 12 39 -15 -16 17 -18 -19 -20 20 -22 -23 -24 25 -26 -27 35 -29 -30 -31 -32 -33 -34 -35 -36 -37 -38 38 -40 -41
leaf_value=-0.24704313411511081 -0.16435958207056761 0.24934266767336327 -0.25356048045605722 -0.055830129802875696 -0.015314551269152356 0.38642835212875942 -0.25492187035265085 -0.23259072906925837 0.14549690436638499 0.10679612137321122 -0.035211072658213216 0.068290085010853388 -0.16144136133973122 0.039405362590582138 -0.21066016320853853 -0.15907143169359009 0.03055805406712497 0.089779426438533386 0.14349615412834443 0.10337416533446443 -0.21021205159375703 0.12790558720739137 -0.24824378885265341 0.29472841466651872 -0.061193333000960609 0.11813695920405368 0.28787821132863073 0.0058494747390549695 0.076063488970308304 -0.26288031778094967 -0.042510404122029964 0.27613031836614033 -0.10400343704111077 -0.0088545574432439388 -0.12631688528933538 0.40055066552915691 0.20609183291881181 -0.10579308231234497 -0.22996145595282647 -0.24161213068617449
leaf_weight=63.869383484125137 17.207610011100769 18.555188000202183 22.17746239900589 41.917975187301636 20.067307442426682 18.304839253425598 56.090073555707932 80.630189210176468 27.66798534989357 31.438742518424988 37.855527818202972 38.745213568210602 17.775353848934174 28.958234488964081 24.140384018421173 18.409916281700134 17.473073482513428 24.545160859823227 18.977873951196671 29.890309691429138 21.40311786532402 16.641553997993469 21.722210705280304 82.489396452903748 30.737356394529343 21.768137872219086 71.316015779972076 18.43097597360611 19.239887595176697 27.98090785741806 9.2832274436950666 22.222688853740692 10.517883211374281 8.7262072861194628 13.008045166730879 16.40402215719223 19.281806647777557 10.528220772743227 13.452183395624159 21.050708115100861
leaf_count=83 19 21 18 38 20 24 72 258 40 33 34 37 32 25 21 49 17 32 26 38 28 20 30 132 32 29 119 19 19 32 12 39 26 14 22 21 23 18 29 32
internal_value=0 -0.10191 0.109315 0.125867 0.183366 0.00896631 -0.129366 -0.11108 -0.0867555 0.202644 0.0927282 -0.150787 -0.0718409 0.167891 -0.0437523 -0.0234986 0.217331 -0.0500371 -0.0724497 -0.103154 -0.0416503 0.270302 -0.124331 0.228822 0.0203017 0.243744 0.25521 0.216743 0.248552 -0.192316 -0.213649 0.192951 0.122304 -0.112798 -0.2285 0.313226 0.280104 -0.235555 -0.181865 -0.209884
internal_weight=0 608.208 522.695 500.517 335.117 165.4 556.912 476.841 386.928 317.909 101.76 154.449 77.5713 63.9046 232.479 208.339 297.842 180.671 156.126 137.148 82.0308 34.9464 63.6402 280.369 60.6277 248.93 227.162 139.442 121.011 55.117 89.9134 51.2958 29.0731 27.1361 76.8774 87.72 101.771 80.0705 23.9804 38.8261
internal_count=1633 993 640 622 451 171 907 788 518 432 103 206 101 69 312 291 412 251 219 193 98 44 68 395 70 362 333 193 174 95 270 86 47 63 105 140 155 119 47 64
shrinkage=0.3


Tree=16
num_leaves=41
num_cat=0
split_feature=1124 1572 1575 387 1578 1565 1590 1112 1571 1578 1068 1670 1578 1589 1688 1570 1553 1570 1566 1555 1587 1600 1588 1678 1600 1672 1555 1562 1570 1671 1555 1570 1570 1570 1568 1568 1589 1578 1578 1578
split_gain=35.9082 40.57 38.1088 16.7617 24.1531 16.5549 14.6882 14.9905 15.8559 11.5772 14.0088 10.5542 10.0171 9.96428 8.8593 8.30313 7.43486 10.4805 11.1454 7.33719 6.64545 6.2285 5.68787 6.95342 5.65473 4.57921 4.30711 4.13838 11.2485 7.49167 3.38771 6.7896 2.46126 1.75031 5.99424 6.18348 0.935434 0.924537 0.539768 0.235817
threshold=1.0000000180025095e-35 1.0000000180025095e-35 1.0000000180025095e-35 1.0000000180025095e-35 2635199.0000000005 0.72137687767241465 3.9863948636650695 1.0000000180025095e-35 0.027178535374553503 11.500000000000002 1.0000000180025095e-35 1.0000000180025095e-35 2591998.5000000005 -4.4999999999999991 22.500000000000004 2.9947199497847228 1.0000000180025095e-35 2.5519840916365109 5.4954545454545469 10.500000000000002 23.500000000000004 2.0000000000000004 68.500000000000014 1.0000000180025095e-35 3.5000000000000004 1.0000000180025095e-35 28.500000000000004 0.69897936762730983 3.000814583693912 1.0000000180025095e-35 1.5000000000000002 1.2182851698782835 3.6748036057236386 4.3937515999961096 127.71491228070177 86.166666666666671 -6.4999999999999991 63092924.500000007 34257599.000000007 879756459.50000012
decision_type=2 2 2 2 2 2 2 2 2 2 2 2 2 2 2 2 2 2 2 2 2 2 2 2 2 2 2 2 2 2 2 2 2 2 2 2 2 2 2 2
left_child=1 3 20 4 5 6 7 8 9 15 12 14 19 -7 21 30 22 18 -18 -11 -3 36 23 24 26 -22 27 28 -6 38 31 -1 -26 -8 35 -35 -4 -19 -29 -2
right_child=39 2 11 -5 16 13 33 -9 -10 10 -12 -13 -14 -15 -16 -17 17 37 -20 -21 25 -23 -24 -25 32 -27 -28 29 -30 -31 -32 -33 -34 34 -36 -37 -38 -39 -40 -41
leaf_value=0.05576682408514131 0.20843205273627424 0.092680788173521919 -0.2545404935295667 0.25002719205322338 -0.24572177801293316 0.015829758990030099 -0.29711306812616656 -0.20169261463765922 -0.25819121495060415 -0.11644193269299516 0.17288517839518081 0.14532319824784284 0.19396114115686233 0.30653123109471792 0.15132513909091477 0.19206722432901133 -0.22010128272783175 -0.25276592549033827 0.21203592315267697 0.036867709393131928 0.16645012899898495 -0.018120669880224115 0.068308332431596855 0.13459281676675042 0.09332934487510551 0.2992837884228346 0.053419723964582728 -0.26300078268860333 0.10204776383570313 0.070105127898033096 0.10655813416760535 -0.13349413828957382 -0.071366687319129984 -0.18391631555439797 -0.31435771184570144 0.16077681095849361 -0.1361939309343306 -0.12256881477733007 -0.18511403942451912 0.29208462493869486
leaf_weight=64.482747077941895 22.128019034862518 40.920402079820633 24.917359128594398 16.805625259876251 15.380639851093294 19.829925358295441 11.277612954378126 31.355220884084702 17.761546432971954 116.90606674551964 26.30796754360199 18.675796777009964 12.072717741131781 22.115766167640686 9.7457058280706388 43.520525634288788 9.1974250525236148 62.929125592112541 10.351659089326857 36.352839410305023 49.571450531482697 22.277520805597305 19.824481934309006 9.8576387763023359 12.867895245552065 54.887489140033722 8.4920180439949018 38.808307364583015 16.279550656676292 7.7517985999584189 46.151344358921051 22.071599423885345 18.866710960865021 9.4748333990573936 10.424433350563048 7.4978585019707671 13.512410163879393 8.4583242386579496 28.240136653184891 25.658462047576904
leaf_count=46 21 33 105 21 20 21 9 33 28 275 21 16 13 19 20 32 28 162 14 66 38 26 26 8 13 56 17 80 27 6 27 23 29 25 6 25 34 18 118 28
internal_value=0 -0.00506293 0.104112 -0.0379057 -0.04455 -0.00541932 -0.0221556 -0.00554591 0.0108831 0.0245395 -0.0264502 -0.0500382 -0.0590176 0.17267 -0.103134 0.0798253 -0.117102 -0.186606 0.00790756 -0.0800738 0.198314 -0.145774 -0.0804153 -0.0995634 -0.116104 0.238423 -0.146815 -0.163135 -0.0692507 -0.201435 0.0418546 0.00653128 -0.00377398 -0.196584 -0.146198 -0.0311714 -0.217438 -0.239246 -0.233398 0.258415
internal_weight=0 1016.22 234.508 781.714 764.909 497.603 455.657 416.983 385.627 367.866 191.64 89.1288 165.332 41.9457 70.453 176.226 267.306 90.9365 19.5491 153.259 145.379 60.7073 176.369 156.545 146.687 104.459 114.952 106.46 31.6602 74.8002 132.706 86.5543 31.7346 38.6747 27.3971 16.9727 38.4298 71.3874 67.0484 47.7865
internal_count=1633 1584 328 1256 1235 669 629 564 531 503 375 201 354 40 185 128 566 222 42 341 127 165 344 318 310 94 268 251 47 204 96 69 42 65 56 50 139 180 198 49
shrinkage=0.3


Tree=17
num_leaves=27
num_cat=0
split_feature=1673 41 1550 1599 1072 1589 1568 1566 1600 1578 1570 1587 1578 1555 1578 1551 1553 1601 1570 1566 1672 1590 1589 1590 1572 1687
split_gain=40.4002 23.8206 21.9186 21.3748 17.7798 16.4301 21.8394 21.0243 22.446 24.4562 20.7727 18.3104 19.1893 15.0902 7.82263 25.9195 16.8411 8.99446 8.81412 16.3405 6.26943 5.08018 5.07018 9.48713 3.71384 3.4985
threshold=1.0000000180025095e-35 1.0000000180025095e-35 1.0000000180025095e-35 1.0000000180025095e-35 1.0000000180025095e-35 30.500000000000004 62.67735042735044 41.500000000000007 4.5000000000000009 31492798.000000004 5.5914179551025747 29.500000000000004 33695998.500000007 55.000000000000007 604798.50000000012 1.0000000180025095e-35 1.0000000180025095e-35 1.0000000180025095e-35 3.413880746400487 9.5000000000000018 1.0000000180025095e-35 4.7719472258263531 -6.4999999999999991 3.173596949768688 1.0000000180025095e-35 0.33809523809523817
decision_type=2 2 2 2 2 2 2 2 2 2 2 2 2 2 2 2 2 2 2 2 2 2 2 2 2 2
left_child=1 2 3 4 5 6 7 11 9 25 13 14 24 20 15 17 -17 -1 19 -16 -8 -22 -2 -24 -13 -9
right_child=22 -3 -4 -5 -6 -7 10 8 -10 -11 -12 12 -14 -15 18 16 -18 -19 -20 -21 21 -23 23 -25 -26 -27
leaf_value=0.082761990606664906 -0.23897201834265147 0.19971211486575499 -0.24512023151681342 -0.2514909706641944 0.27787337384550365 0.18162245583216341 -0.27757116109721497 -0.23369316895006165 0.38758041232719154 0.23276637092617014 0.19438004891508659 -0.26243887175143998 0.037655840239056805 0.17421811922196018 0.092361856023705891 -0.24919160545903102 0.00042070668452294421 -0.069271609764189654 0.18739657295282056 -0.13763915547705108 0.080932543406575713 -0.2224204364341392 0.16573363789875892 -0.22878849886770117 -0.091071050251182728 -0.0014358015835505406
leaf_weight=185.97037193179131 63.127513900399208 60.342412948608398 29.103494055569172 25.303089827299118 22.961058676242828 49.656606942415237 56.170360296964645 16.893322288990024 26.45150488615036 30.639931350946426 14.531530648469923 43.854983910918236 46.588659152388573 8.6794921755790693 119.28845730423927 50.045151621103287 46.468617931008339 42.28708615899086 46.645309120416641 35.205742195248604 9.3172831833362597 8.7745585963129979 8.5892893821001071 11.956588506698607 17.208085834980011 8.6812544465064985
leaf_count=99 257 28 105 97 13 20 157 45 10 18 16 109 36 7 82 137 115 47 32 63 9 35 24 41 21 10
internal_value=0 0.0185761 0.00675753 0.0150585 0.0229429 0.0158494 0.0055225 0.0237048 0.165048 0.0553927 -0.126964 0.00503149 -0.107112 -0.184909 0.0281466 -0.000689376 -0.130239 0.0544169 0.0744798 0.0394017 -0.228639 -0.0701377 -0.197225 -0.0638197 -0.216392 -0.157874
internal_weight=0 1001.07 940.726 911.622 886.319 863.358 813.702 716.228 82.666 56.2145 97.4732 633.562 107.652 82.9417 525.911 324.771 96.5138 228.257 201.14 154.494 74.2622 18.0918 83.6734 20.5459 61.0631 25.5746
internal_count=1633 1311 1283 1178 1081 1068 1048 824 83 73 224 741 166 208 575 398 252 146 177 145 201 44 322 65 130 55
shrinkage=0.3


Tree=18
num_leaves=36
num_cat=0
split_feature=1673 1553 1687 1050 1554 1072 1672 1578 1570 1568 1568 1591 1563 1567 1578 1568 1587 1578 1575 1566 1551 1570 1587 1570 1062 1590 1570 1555 1555 1555 1590 1570 1578 1566 1568
split_gain=71.9207 30.4824 30.3437 17.5528 15.3231 14.6565 13.217 13.9143 11.5166 22.4517 11.8071 16.1682 12.4228 10.873 8.52796 7.86931 6.08711 6.80225 7.23825 7.12353 6.06576 5.64186 4.68678 16.4653 4.61548 4.56878 3.27592 2.39219 4.16138 1.02571 0.663543 0.59411 0.532386 0.333701 0.24481
threshold=1.0000000180025095e-35 1.0000000180025095e-35 0.85093167701863359 1.0000000180025095e-35 1.0000000180025095e-35 1.0000000180025095e-35 1.0000000180025095e-35 330436799.00000006 4.9017030872934066 60.500000000000007 46.100000000000009 1.0000000180025095e-35 1.0000000180025095e-35 22.003768514284669 31535998.500000004 33.785714285714292 15.500000000000002 2729.0000000000005 1.0000000180025095e-35 31.500000000000004 1.0000000180025095e-35 3.3277442593851094 37.500000000000007 4.2847650279274623 1.0000000180025095e-35 3.0364744698854786 5.298511100672223 12.500000000000002 14.500000000000002 24.500000000000004 5.3493420897254369 4.0656280108751277 898.50000000000011 1.9130434782608698 40.31818181818182
decision_type=2 2 2 2 2 2 2 2 2 2 2 2 2 2 2 2 2 2 2 2 2 2 2 2 2 2 2 2 2 2 2 2 2 2 2
left_child=1 3 15 4 5 6 7 8 9 10 11 12 -1 16 31 -2 33 18 -18 21 -19 -20 23 24 34 -4 -10 -27 -29 -30 -24 -8 -23 -3 -22
right_child=2 13 25 -5 -6 -7 14 -9 26 -11 -12 -13 -14 -15 -16 -17 17 20 19 -21 22 32 30 -25 -26 27 -28 28 29 -31 -32 -33 -34 -35 -36
