tree
version=v3
num_class=4
num_tree_per_iteration=4
label_index=0
max_feature_idx=1688
objective=multiclass num_class:4
feature_names=Column_0 Column_1 Column_2 Column_3 Column_4 Column_5 Column_6 Column_7 Column_8 Column_9 Column_10 Column_11 Column_12 Column_13 Column_14 Column_15 Column_16 Column_17 Column_18 Column_19 Column_20 Column_21 Column_22 Column_23 Column_24 Column_25 Column_26 Column_27 Column_28 Column_29 Column_30 Column_31 Column_32 Column_33 Column_34 Column_35 Column_36 Column_37 Column_38 Column_39 Column_40 Column_41 Column_42 Column_43 Column_44 Column_45 Column_46 Column_47 Column_48 Column_49 Column_50 Column_51 Column_52 Column_53 Column_54 Column_55 Column_56 Column_57 Column_58 Column_59 Column_60 Column_61 Column_62 Column_63 Column_64 Column_65 Column_66 Column_67 Column_68 Column_69 Column_70 Column_71 Column_72 Column_73 Column_74 Column_75 Column_76 Column_77 Column_78 Column_79 Column_80 Column_81 Column_82 Column_83 Column_84 Column_85 Column_86 Column_87 Column_88 Column_89 Column_90 Column_91 Column_92 Column_93 Column_94 Column_95 Column_96 Column_97 Column_98 Column_99 Column_100 Column_101 Column_102 Column_103 Column_104 Column_105 Column_106 Column_107 Column_108 Column_109 Column_110 Column_111 Column_112 Column_113 Column_114 Column_115 Column_116 Column_117 Column_118 Column_119 Column_120 Column_121 Column_122 Column_123 Column_124 Column_125 Column_126 Column_127 Column_128 Column_129 Column_130 Column_131 Column_132 Column_133 Column_134 Column_135 Column_136 Column_137 Column_138 Column_139 Column_140 Column_141 Column_142 Column_143 Column_144 Column_145 Column_146 Column_147 Column_148 Column_149 Column_150 Column_151 Column_152 Column_153 Column_154 Column_155 Column_156 Column_157 Column_158 Column_159 Column_160 Column_161 Column_162 Column_163 Column_164 Column_165 Column_166 Column_167 Column_168 Column_169 Column_170 Column_171 Column_172 Column_173 Column_174 Column_175 Column_176 Column_177 Column_178 Column_179 Column_180 Column_181 Column_182 Column_183 Column_184 Column_185 Column_186 Column_187 Column_188 Column_189 Column_190 Column_191 Column_192 Column_193 Column_194 Column_195 Column_196 Column_197 Column_198 Column_199 Column_200 Column_201 Column_202 Column_203 Column_204 Column_205 Column_206 Column_207 Column_208 Column_209 Column_210 Column_211 Column_212 Column_213 Column_214 Column_215 Column_216 Column_217 Column_218 Column_219 Column_220 Column_221 Column_222 Column_223 Column_224 Column_225 Column_226 Column_227 Column_228 Column_229 Column_230 Column_231 Column_232 Column_233 Column_234 Column_235 Column_236 Column_237 Column_238 Column_239 Column_240 Column_241 Column_242 Column_243 Column_244 Column_245 Column_246 Column_247 Column_248 Column_249 Column_250 Column_251 Column_252 Column_253 Column_254 Column_255 Column_256 Column_257 Column_258 Column_259 Column_260 Column_261 Column_262 Column_263 Column_264 Column_265 Column_266 Column_267 Column_268 Column_269 Column_270 Column_271 Column_272 Column_273 Column_274 Column_275 Column_276 Column_277 Column_278 Column_279 Column_280 Column_281 Column_282 Column_283 Column_284 Column_285 Column_286 Column_287 Column_288 Column_289 Column_290 Column_291 Column_292 Column_293 Column_294 Column_295 Column_296 Column_297 Column_298 Column_299 Column_300 Column_301 Column_302 Column_303 Column_304 Column_305 Column_306 Column_307 Column_308 Column_309 Column_310 Column_311 Column_312 Column_313 Column_314 Column_315 Column_316 Column_317 Column_318 Column_319 Column_320 Column_321 Column_322 Column_323 Column_324 Column_325 Column_326 Column_327 Column_328 Column_329 Column_330 Column_331 Column_332 Column_333 Column_334 Column_335 Column_336 Column_337 Column_338 Column_339 Column_340 Column_341 Column_342 Column_343 Column_344 Column_345 Column_346 Column_347 Column_348 Column_349 Column_350 Column_351 Column_352 Column_353 Column_354 Column_355 Column_356 Column_357 Column_358 Column_359 Column_360 Column_361 Column_362 Column_363 Column_364 Column_365 Column_366 Column_367 Column_368 Column_369 Column_370 Column_371 Column_372 Column_373 Column_374 Column_375 Column_376 Column_377 Column_378 Column_379 Column_380 Column_381 Column_382 Column_383 Column_384 Column_385 Column_386 Column_387 Column_388 Column_389 Column_390 Column_391 Column_392 Column_393 Column_394 Column_395 Column_396 Column_397 Column_398 Column_399 Column_400 Column_401 Column_402 Column_403 Column_404 Column_405 Column_406 Column_407 Column_408 Column_409 Column_410 Column_411 Column_412 Column_413 Column_414 Column_415 Column_416 Column_417 Column_418 Column_419 Column_420 Column_421 Column_422 Column_423 Column_424 Column_425 Column_426 Column_427 Column_428 Column_429 Column_430 Column_431 Column_432 Column_433 Column_434 Column_435 Column_436 Column_437 Column_438 Column_439 Column_440 Column_441 Column_442 Column_443 Column_444 Column_445 Column_446 Column_447 Column_448 Column_449 Column_450 Column_451 Column_452 Column_453 Column_454 Column_455 Column_456 Column_457 Column_458 Column_459 Column_460 Column_461 Column_462 Column_463 Column_464 Column_465 Column_466 Column_467 Column_468 Column_469 Column_470 Column_471 Column_472 Column_473 Column_474 Column_475 Column_476 Column_477 Column_478 Column_479 Column_480 Column_481 Column_482 Column_483 Column_484 Column_485 Column_486 Column_487 Column_488 Column_489 Column_490 Column_491 Column_492 Column_493 Column_494 Column_495 Column_496 Column_497 Column_498 Column_499 Column_500 Column_501 Column_502 Column_503 Column_504 Column_505 Column_506 Column_507 Column_508 Column_509 Column_510 Column_511 Column_512 Column_513 Column_514 Column_515 Column_516 Column_517 Column_518 Column_519 Column_520 Column_521 Column_522 Column_523 Column_524 Column_525 Column_526 Column_527 Column_528 Column_529 Column_530 Column_531 Column_532 Column_533 Column_534 Column_535 Column_536 Column_537 Column_538 Column_539 Column_540 Column_541 Column_542 Column_543 Column_544 Column_545 Column_546 Column_547 Column_548 Column_549 Column_550 Column_551 Column_552 Column_553 Column_554 Column_555 Column_556 Column_557 Column_558 Column_559 Column_560 Column_561 Column_562 Column_563 Column_564 Column_565 Column_566 Column_567 Column_568 Column_569 Column_570 Column_571 Column_572 Column_573 Column_574 Column_575 Column_576 Column_577 Column_578 Column_579 Column_580 Column_581 Column_582 Column_583 Column_584 Column_585 Column_586 Column_587 Column_588 Column_589 Column_590 Column_591 Column_592 Column_593 Column_594 Column_595 Column_596 Column_597 Column_598 Column_599 Column_600 Column_601 Column_602 Column_603 Column_604 Column_605 Column_606 Column_607 Column_608 Column_609 Column_610 Column_611 Column_612 Column_613 Column_614 Column_615 Column_616 Column_617 Column_618 Column_619 Column_620 Column_621 Column_622 Column_623 Column_624 Column_625 Column_626 Column_627 Column_628 Column_629 Column_630 Column_631 Column_632 Column_633 Column_634 Column_635 Column_636 Column_637 Column_638 Column_639 Column_640 Column_641 Column_642 Column_643 Column_644 Column_645 Column_646 Column_647 Column_648 Column_649 Column_650 Column_651 Column_652 Column_653 Column_654 Column_655 Column_656 Column_657 Column_658 Column_659 Column_660 Column_661 Column_662 Column_663 Column_664 Column_665 Column_666 Column_667 Column_668 Column_669 Column_670 Column_671 Column_672 Column_673 Column_674 Column_675 Column_676 Column_677 Column_678 Column_679 Column_680 Column_681 Column_682 Column_683 Column_684 Column_685 Column_686 Column_687 Column_688 Column_689 Column_690 Column_691 Column_692 Column_693 Column_694 Column_695 Column_696 Column_697 Column_698 Column_699 Column_700 Column_701 Column_702 Column_703 Column_704 Column_705 Column_706 Column_707 Column_708 Column_709 Column_710 Column_711 Column_712 Column_713 Column_714 Column_715 Column_716 Column_717 Column_718 Column_719 Column_720 Column_721 Column_722 Column_723 Column_724 Column_725 Column_726 Column_727 Column_728 Column_729 Column_730 Column_731 Column_732 Column_733 Column_734 Column_735 Column_736 Column_737 Column_738 Column_739 Column_740 Column_741 Column_742 Column_743 Column_744 Column_745 Column_746 Column_747 Column_748 Column_749 Column_750 Column_751 Column_752 Column_753 Column_754 Column_755 Column_756 Column_757 Column_758 Column_759 Column_760 Column_761 Column_762 Column_763 Column_764 Column_765 Column_766 Column_767 Column_768 Column_769 Column_770 Column_771 Column_772 Column_773 Column_774 Column_775 Column_776 Column_777 Column_778 Column_779 Column_780 Column_781 Column_782 Column_783 Column_784 Column_785 Column_786 Column_787 Column_788 Column_789 Column_790 Column_791 Column_792 Column_793 Column_794 Column_795 Column_796 Column_797 Column_798 Column_799 Column_800 Column_801 Column_802 Column_803 Column_804 Column_805 Column_806 Column_807 Column_808 Column_809 Column_810 Column_811 Column_812 Column_813 Column_814 Column_815 Column_816 Column_817 Column_818 Column_819 Column_820 Column_821 Column_822 Column_823 Column_824 Column_825 Column_826 Column_827 Column_828 Column_829 Column_830 Column_831 Column_832 Column_833 Column_834 Column_835 Column_836 Column_837 Column_838 Column_839 Column_840 Column_841 Column_842 Column_843 Column_844 Column_845 Column_846 Column_847 Column_848 Column_849 Column_850 Column_851 Column_852 Column_853 Column_854 Column_855 Column_856 Column_857 Column_858 Column_859 Column_860 Column_861 Column_862 Column_863 Column_864 Column_865 Column_866 Column_867 Column_868 Column_869 Column_870 Column_871 Column_872 Column_873 Column_874 Column_875 Column_876 Column_877 Column_878 Column_879 Column_880 Column_881 Column_882 Column_883 Column_884 Column_885 Column_886 Column_887 Column_888 Column_889 Column_890 Column_891 Column_892 Column_893 Column_894 Column_895 Column_896 Column_897 Column_898 Column_899 Column_900 Column_901 Column_902 Column_903 Column_904 Column_905 Column_906 Column_907 Column_908 Column_909 Column_910 Column_911 Column_912 Column_913 Column_914 Column_915 Column_916 Column_917 Column_918 Column_919 Column_920 Column_921 Column_922 Column_923 Column_924 Column_925 Column_926 Column_927 Column_928 Column_929 Column_930 Column_931 Column_932 Column_933 Column_934 Column_935 Column_936 Column_937 Column_938 Column_939 Column_940 Column_941 Column_942 Column_943 Column_944 Column_945 Column_946 Column_947 Column_948 Column_949 Column_950 Column_951 Column_952 Column_953 Column_954 Column_955 Column_956 Column_957 Column_958 Column_959 Column_960 Column_961 Column_962 Column_963 Column_964 Column_965 Column_966 Column_967 Column_968 Column_969 Column_970 Column_971 Column_972 Column_973 Column_974 Column_975 Column_976 Column_977 Column_978 Column_979 Column_980 Column_981 Column_982 Column_983 Column_984 Column_985 Column_986 Column_987 Column_988 Column_989 Column_990 Column_991 Column_992 Column_993 Column_994 Column_995 Column_996 Column_997 Column_998 Column_999 Column_1000 Column_1001 Column_1002 Column_1003 Column_1004 Column_1005 Column_1006 Column_1007 Column_1008 Column_1009 Column_1010 Column_1011 Column_1012 Column_1013 Column_1014 Column_1015 Column_1016 Column_1017 Column_1018 Column_1019 Column_1020 Column_1021 Column_1022 Column_1023 Column_1024 Column_1025 Column_1026 Column_1027 Column_1028 Column_1029 Column_1030 Column_1031 Column_1032 Column_1033 Column_1034 Column_1035 Column_1036 Column_1037 Column_1038 Column_1039 Column_1040 Column_1041 Column_1042 Column_1043 Column_1044 Column_1045 Column_1046 Column_1047 Column_1048 Column_1049 Column_1050 Column_1051 Column_1052 Column_1053 Column_1054 Column_1055 Column_1056 Column_1057 Column_1058 Column_1059 Column_1060 Column_1061 Column_1062 Column_1063 Column_1064 Column_1065 Column_1066 Column_1067 Column_1068 Column_1069 Column_1070 Column_1071 Column_1072 Column_1073 Column_1074 Column_1075 Column_1076 Column_1077 Column_1078 Column_1079 Column_1080 Column_1081 Column_1082 Column_1083 Column_1084 Column_1085 Column_1086 Column_1087 Column_1088 Column_1089 Column_1090 Column_1091 Column_1092 Column_1093 Column_1094 Column_1095 Column_1096 Column_1097 Column_1098 Column_1099 Column_1100 Column_1101 Column_1102 Column_1103 Column_1104 Column_1105 Column_1106 Column_1107 Column_1108 Column_1109 Column_1110 Column_1111 Column_1112 Column_1113 Column_1114 Column_1115 Column_1116 Column_1117 Column_1118 Column_1119 Column_1120 Column_1121 Column_1122 Column_1123 Column_1124 Column_1125 Column_1126 Column_1127 Column_1128 Column_1129 Column_1130 Column_1131 Column_1132 Column_1133 Column_1134 Column_1135 Column_1136 Column_1137 Column_1138 Column_1139 Column_1140 Column_1141 Column_1142 Column_1143 Column_1144 Column_1145 Column_1146 Column_1147 Column_1148 Column_1149 Column_1150 Column_1151 Column_1152 Column_1153 Column_1154 Column_1155 Column_1156 Column_1157 Column_1158 Column_1159 Column_1160 Column_1161 Column_1162 Column_1163 Column_1164 Column_1165 Column_1166 Column_1167 Column_1168 Column_1169 Column_1170 Column_1171 Column_1172 Column_1173 Column_1174 Column_1175 Column_1176 Column_1177 Column_1178 Column_1179 Column_1180 Column_1181 Column_1182 Column_1183 Column_1184 Column_1185 Column_1186 Column_1187 Column_1188 Column_1189 Column_1190 Column_1191 Column_1192 Column_1193 Column_1194 Column_1195 Column_1196 Column_1197 Column_1198 Column_1199 Column_1200 Column_1201 Column_1202 Column_1203 Column_1204 Column_1205 Column_1206 Column_1207 Column_1208 Column_1209 Column_1210 Column_1211 Column_1212 Column_1213 Column_1214 Column_1215 Column_1216 Column_1217 Column_1218 Column_1219 Column_1220 Column_1221 Column_1222 Column_1223 Column_1224 Column_1225 Column_1226 Column_1227 Column_1228 Column_1229 Column_1230 Column_1231 Column_1232 Column_1233 Column_1234 Column_1235 Column_1236 Column_1237 Column_1238 Column_1239 Column_1240 Column_1241 Column_1242 Column_1243 Column_1244 Column_1245 Column_1246 Column_1247 Column_1248 Column_1249 Column_1250 Column_1251 Column_1252 Column_1253 Column_1254 Column_1255 Column_1256 Column_1257 Column_1258 Column_1259 Column_1260 Column_1261 Column_1262 Column_1263 Column_1264 Column_1265 Column_1266 Column_1267 Column_1268 Column_1269 Column_1270 Column_1271 Column_1272 Column_1273 Column_1274 Column_1275 Column_1276 Column_1277 Column_1278 Column_1279 Column_1280 Column_1281 Column_1282 Column_1283 Column_1284 Column_1285 Column_1286 Column_1287 Column_1288 Column_1289 Column_1290 Column_1291 Column_1292 Column_1293 Column_1294 Column_1295 Column_1296 Column_1297 Column_1298 Column_1299 Column_1300 Column_1301 Column_1302 Column_1303 Column_1304 Column_1305 Column_1306 Column_1307 Column_1308 Column_1309 Column_1310 Column_1311 Column_1312 Column_1313 Column_1314 Column_1315 Column_1316 Column_1317 Column_1318 Column_1319 Column_1320 Column_1321 Column_1322 Column_1323 Column_1324 Column_1325 Column_1326 Column_1327 Column_1328 Column_1329 Column_1330 Column_1331 Column_1332 Column_1333 Column_1334 Column_1335 Column_1336 Column_1337 Column_1338 Column_1339 Column_1340 Column_1341 Column_1342 Column_1343 Column_1344 Column_1345 Column_1346 Column_1347 Column_1348 Column_1349 Column_1350 Column_1351 Column_1352 Column_1353 Column_1354 Column_1355 Column_1356 Column_1357 Column_1358 Column_1359 Column_1360 Column_1361 Column_1362 Column_1363 Column_1364 Column_1365 Column_1366 Column_1367 Column_1368 Column_1369 Column_1370 Column_1371 Column_1372 Column_1373 Column_1374 Column_1375 Column_1376 Column_1377 Column_1378 Column_1379 Column_1380 Column_1381 Column_1382 Column_1383 Column_1384 Column_1385 Column_1386 Column_1387 Column_1388 Column_1389 Column_1390 Column_1391 Column_1392 Column_1393 Column_1394 Column_1395 Column_1396 Column_1397 Column_1398 Column_1399 Column_1400 Column_1401 Column_1402 Column_1403 Column_1404 Column_1405 Column_1406 Column_1407 Column_1408 Column_1409 Column_1410 Column_1411 Column_1412 Column_1413 Column_1414 Column_1415 Column_1416 Column_1417 Column_1418 Column_1419 Column_1420 Column_1421 Column_1422 Column_1423 Column_1424 Column_1425 Column_1426 Column_1427 Column_1428 Column_1429 Column_1430 Column_1431 Column_1432 Column_1433 Column_1434 Column_1435 Column_1436 Column_1437 Column_1438 Column_1439 Column_1440 Column_1441 Column_1442 Column_1443 Column_1444 Column_1445 Column_1446 Column_1447 Column_1448 Column_1449 Column_1450 Column_1451 Column_1452 Column_1453 Column_1454 Column_1455 Column_1456 Column_1457 Column_1458 Column_1459 Column_1460 Column_1461 Column_1462 Column_1463 Column_1464 Column_1465 Column_1466 Column_1467 Column_1468 Column_1469 Column_1470 Column_1471 Column_1472 Column_1473 Column_1474 Column_1475 Column_1476 Column_1477 Column_1478 Column_1479 Column_1480 Column_1481 Column_1482 Column_1483 Column_1484 Column_1485 Column_1486 Column_1487 Column_1488 Column_1489 Column_1490 Column_1491 Column_1492 Column_1493 Column_1494 Column_1495 Column_1496 Column_1497 Column_1498 Column_1499 Column_1500 Column_1501 Column_1502 Column_1503 Column_1504 Column_1505 Column_1506 Column_1507 Column_1508 Column_1509 Column_1510 Column_1511 Column_1512 Column_1513 Column_1514 Column_1515 Column_1516 Column_1517 Column_1518 Column_1519 Column_1520 Column_1521 Column_1522 Column_1523 Column_1524 Column_1525 Column_1526 Column_1527 Column_1528 Column_1529 Column_1530 Column_1531 Column_1532 Column_1533 Column_1534 Column_1535 Column_1536 Column_1537 Column_1538 Column_1539 Column_1540 Column_1541 Column_1542 Column_1543 Column_1544 Column_1545 Column_1546 Column_1547 Column_1548 Column_1549 Column_1550 Column_1551 Column_1552 Column_1553 Column_1554 Column_1555 Column_1556 Column_1557 Column_1558 Column_1559 Column_1560 Column_1561 Column_1562 Column_1563 Column_1564 Column_1565 Column_1566 Column_1567 Column_1568 Column_1569 Column_1570 Column_1571 Column_1572 Column_1573 Column_1574 Column_1575 Column_1576 Column_1577 Column_1578 Column_1579 Column_1580 Column_1581 Column_1582 Column_1583 Column_1584 Column_1585 Column_1586 Column_1587 Column_1588 Column_1589 Column_1590 Column_1591 Column_1592 Column_1593 Column_1594 Column_1595 Column_1596 Column_1597 Column_1598 Column_1599 Column_1600 Column_1601 Column_1602 Column_1603 Column_1604 Column_1605 Column_1606 Column_1607 Column_1608 Column_1609 Column_1610 Column_1611 Column_1612 Column_1613 Column_1614 Column_1615 Column_1616 Column_1617 Column_1618 Column_1619 Column_1620 Column_1621 Column_1622 Column_1623 Column_1624 Column_1625 Column_1626 Column_1627 Column_1628 Column_1629 Column_1630 Column_1631 Column_1632 Column_1633 Column_1634 Column_1635 Column_1636 Column_1637 Column_1638 Column_1639 Column_1640 Column_1641 Column_1642 Column_1643 Column_1644 Column_1645 Column_1646 Column_1647 Column_1648 Column_1649 Column_1650 Column_1651 Column_1652 Column_1653 Column_1654 Column_1655 Column_1656 Column_1657 Column_1658 Column_1659 Column_1660 Column_1661 Column_1662 Column_1663 Column_1664 Column_1665 Column_1666 Column_1667 Column_1668 Column_1669 Column_1670 Column_1671 Column_1672 Column_1673 Column_1674 Column_1675 Column_1676 Column_1677 Column_1678 Column_1679 Column_1680 Column_1681 Column_1682 Column_1683 Column_1684 Column_1685 Column_1686 Column_1687 Column_1688
feature_infos=[0:1] [0:1] [0:1] [0:1] [0:1] none none none [0:1] none none [0:1] none none none none none none none none none none none none none none none none none none none none none none none none none none none none none [0:1] none none none none none none none none none none none none none none none none none none none none none none none none none none [0:1] none none none none none none none none none none none none none none none none none none none none none none none none none none none none none none none none none none none none none none none none none none none none none none none none none none none none none none none none none none none none none none none none none none none none none none none none none none none none none none none none none none none none none none none none none none none none none none none none none none none none none none none none none none none none none none none none none none none none none none none none none none none none none none none none none none none none none none none none none none none none none none none none none none none none none none none none none none none none none none none none none none none none none none none none none none none none none none none none none none none none none none none none none none none none none none none none none none none none none none none none none none none none none none none none none none none none none none none none none none none none none none none none none none none none none none none none none none none none none none none none none none none none none none none none none none none none none none none none none none none none none none none none none none none none none none none none none none none none none none none none none none none none none none none none none none none none none none none none none none none none none none none none none none none none none none none none none none none none none none [0:1] none none none none none none [0:1] none none none none none none none none none none none none none none none none none none none none none none none none none none none none none none none none none none none none none none none none none none none none none none none none none none none none none none none none none none none none none none none none none none none none none none none none none none none none none none none none none none none none none none none none none none none none none none none none none none none none none none none none none [0:1] none none [0:1] none [0:1] none none none none none [0:1] none none none none none none none none none none none none none none none none none none none none none none none none none none none none none none none none none none none none none none none none none none none none none none none none none none none none none none none none none none none none none none none none none none none none none none none none none none none none none none none none none none none none none none none none none none none none none none none none none none none none none none none none none none none none none none none none none none none none none none none none none none none none none none none none none none none none none none none none none none none none none none none none none none none none none none none none none none none none none none none none none none none none none none none none none none none none none none none none none none none none none none none none none none none none none none none none none none none none none none none none none none none none none none none none none none none none none none none none none none none none none none none none none none none none none none none none none none none none none none none none none none none none none none none none none none none none none none none none none none none none none none none none none none none none none none none none none none none none none none none none none none none none none none none none none none none none none none none none none none none none none none none none none none none none none none none none none none none none none none none none none none none none none none none none none none none none none none none none none none none none none none none none none none none none none none none none none none none none none none none none none none none none none none none none none none none none none none none none none none none none none none none none none none none none none none none none none none none none none none none none none none none none none none none none none none none none none none none none none none none none none none none none none none none none none none none none none none none none none none none none none none none none none none none none none none none none none none none none none none none none none none none none none none none none none none none none none none none none none none none none none none none none none none none none none none none none none none none none none none none none none none none none none none none none none none none none none none none none none none none none none none none none none none none none none none none none none none none none none none [0:1] [0:1] none [0:1] none none [0:1] none none none none none [0:1] none none none none none [0:1] none none none [0:1] none none none none none none none none none none none none none none none none none none none none none none none none none none none none none none none none none none none none none none none [0:1] none none none none none none none none none none none [0:1] none none none none none none none none none none none none none none none none none [0:1] [0:1] none none none none none none none none none none none none none none none none none none none none none none none none [0:1] none none none none none none none none none none none none none none none none none none none none none none none none none none none none none none none none none none none none none none none none none none none none none none none none none none none none none none none none none none none none none none none none none none none none none none none none none none none none none none none none none none none none none none none none none none none none none none none none none [0:1] none none none none none none none none none none none none none none none none none none none none none none none none none none none none none none none none none none none none none none none none none none none none none none none none none none none none none none none none none none none none none none none none none none none none none none none none none none none none none none none none none none none none none none none none none none none none none none none none none none none none none none none none none none none none none none none none none none none none none none none none none none none none none none none none none none none none none none none none none none none none none none none none none none none none none none none none none none none none none none none none none none none none none none none none none none none none none none none none none none none none none none none none none none none none none none none none none none none none none none none none none none none none none none none none none none none none none none none none none none none none none none none none none none none none none none none none none none none none none none none none none none none none none none none none none none none [0:1] none none none none none none none none none none none none none none none none none none none none none none none none none none none none none none none [0:1] [0:1] [0:1] [0:1] [0:1] [1:128] none [0:1] none none [0:1] [0:1] [-1:1] [-1:0.69962416974542008] [-1:1036] [-1:205.46337873207477] [0:878] [-1:732.56262530926324] [8:680] [-1:371.93816690412399] [0:5.8781221759355171] [-1:3.3380824090712267] [-1:1] [-1:1] [-1:1] [-1:1] [-1:1] none [0:251789028888] [-1:1] none [-1:1] [-1:1] [-1:1] [-1:1] [-1:1] [-1:1] [0:878] [8:680] [-8:209] [0:5.8781221759355171] [-1:1] none none none [-1:11] none none [-1:48] [-1:6] [-1:7] [-1:1] [-1:1] [0:1] none none none none none none none none none none none none none none none none none none none none none none none none none none none none none none none none none none none none none none none none none none none none none none none none none [-1:1] [-1:1] [-1:1] [-1:1] [-1:1] [-1:8] none none none none none none none none none none [-1:1] [-1:1] [-1:1] [-1:1] [-1:1] [-1:1] [-1:1] [-1:1] [-1:1] [-1:1] none none none [-1:1] none none none [-1226911371:63242940] [0:1] [0:1036]
tree_sizes=4114 3276 3908 4016 4470 4046 4178 4360 4466 3529 4699 4253 5018 3738 4911 5107 4595 3635 5009 4905 4254 2567 4893 4576 3954 4161 4807 5126 3730 3319 4789 4289 4276 2589 3522 3954 3959 2916 2363 4286 2160 3009 3312 4039 2170 2477 4040 4146

Tree=0
num_leaves=38
num_cat=0
split_feature=1551 1266 8 1568 1578 1587 1562 1570 1564 1587 1601 1566 1142 1566 1574 1669 1570 1674 1572 1566 1590 1590 1575 1601 1585 1566 1570 1566 1687 1566 1555 1555 1590 1600 1578 1555 1555
split_gain=500.966 466.055 293.331 205.654 146.387 341.188 121.216 56.663 55.823 36.6105 32.1708 27.8422 23.6671 16.6187 15.8146 26.4216 15.7109 13.9116 20.7196 8.07322 20.4872 8.7723 8.42606 6.73298 7.15665 5.93915 5.51949 5.32794 3.32145 2.78415 2.70442 3.0027 0.483951 0.279107 0.247174 1.34042 0.1516
threshold=1.0000000180025095e-35 1.0000000180025095e-35 1.0000000180025095e-35 31.887500000000003 58.500000000000007 14.500000000000002 0.52458157227388014 2.8059700456977024 1.0000000180025095e-35 27.500000000000004 1.0000000180025095e-35 63.833333333333336 1.0000000180025095e-35 1.2500000000000002 1.0000000180025095e-35 1.0000000180025095e-35 1.0684028754600869 1.0000000180025095e-35 1.0000000180025095e-35 16.500000000000004 2.5217843656153409 5.4655609304980111 1.0000000180025095e-35 1.0000000180025095e-35 1.0000000180025095e-35 34.250000000000007 3.0364744698854786 1.0000000180025095e-35 0.86318681318681334 22.500000000000004 12.500000000000002 15.500000000000002 3.7513576394898522 1.0000000180025095e-35 1498.5000000000002 1.5000000000000002 25.500000000000004
decision_type=2 2 2 2 2 2 2 2 2 2 2 2 2 2 2 2 2 2 2 2 2 2 2 2 2 2 2 2 2 2 2 2 2 2 2 2 2
left_child=3 2 4 8 5 7 9 13 10 -5 14 -11 17 -2 15 -1 -12 19 23 20 27 26 -22 29 25 -25 -21 -6 32 -19 33 -32 -26 -28 35 -29 -33
right_child=1 -3 -4 6 12 -7 -8 -9 -10 11 16 -13 -14 -15 -16 -17 -18 18 -20 21 22 -23 -24 24 28 -27 30 34 -30 -31 31 36 -34 -35 -36 -37 -38
leaf_value=-1.2069396526918037 -1.4567880294509707 -0.52859718545396117 -0.63199751792798131 -0.5043573058472467 -1.488012884747576 -0.65405437903402908 -1.2591188332265228 -1.6813745517024032 -1.6363403458253338 -1.0483790027652631 -0.91377652632707307 -0.68727937003675676 -1.3217955252116618 -1.0729290697260647 -1.2115170139963669 -1.5520679653499836 -1.2258351292783047 -1.5403062045053535 -1.3686724159335308 -1.513052927997973 -1.2445741939894954 -1.4342002355999415 -1.5055708939197066 -1.5379484265016743 -1.6743487389892606 -1.3083537128529359 -1.6795356928399652 -1.5541252759787505 -1.511787249969625 -1.6800653679942437 -1.5118038177982915 -1.6747507284723964 -1.5685904603127465 -1.6064333797680082 -1.6796920039298846 -1.6729080525881994 -1.5897491572402638
leaf_weight=35.015111446380615 18.871420919895172 43.119611978530884 31.397749900817871 48.179939389228821 22.029243528842926 51.224500894546509 52.675233364105225 94.946717262268066 34.472762525081635 39.320992827415466 34.106396198272705 44.491312623023987 27.006372570991516 20.215219080448151 83.002265095710754 43.801489949226379 27.287728607654572 20.614511847496033 48.999008774757385 25.39262580871582 18.889235436916351 17.078188419342041 24.289021611213684 20.266777217388153 28.562833964824677 18.517707824707031 342.91910827159882 22.905484735965729 33.352921307086945 66.643007576465607 25.201732635498047 29.781397461891174 13.739302575588225 20.883894503116608 61.393930613994598 24.889747738838196 17.03060245513916
leaf_count=24 23 37 25 41 20 47 39 53 24 32 31 38 29 22 50 32 19 18 27 35 12 20 36 26 38 19 431 25 31 80 31 37 19 32 81 31 18
internal_value=-1.3843 -1.48563 -1.52232 -1.11207 -1.54803 -1.30485 -0.871298 -1.55713 -1.28593 -0.718633 -1.23093 -0.850733 -1.59648 -1.25544 -1.30209 -1.39844 -1.04771 -1.60476 -1.54343 -1.62803 -1.57038 -1.64862 -1.39081 -1.58575 -1.53551 -1.42917 -1.65643 -1.62898 -1.58873 -1.64919 -1.66447 -1.60324 -1.64505 -1.67596 -1.65622 -1.62063 -1.64877
internal_weight=0 1190.16 1147.04 442.353 1115.64 185.258 184.667 134.033 257.686 131.992 223.213 83.8123 930.387 39.0866 161.819 78.8166 61.3941 903.38 250.696 652.684 174.397 478.288 43.1783 201.697 114.44 38.7845 461.209 131.218 75.6551 87.2575 435.817 72.0137 42.3021 363.803 109.189 47.7952 46.812
internal_count=1633 1303 1266 330 1241 145 150 98 180 111 156 70 1096 45 106 56 50 1067 258 809 205 604 48 231 133 45 584 157 88 98 549 86 57 463 137 56 55
shrinkage=1


Tree=1
num_leaves=30
num_cat=0
split_feature=1112 1554 1658 1599 1562 1566 1551 1570 1587 1578 1589 1578 1601 1570 1587 1553 1062 1600 1578 1570 1553 1578 1551 1578 1575 1563 1578 1568 1574
split_gain=775.866 292.19 131.921 99.4553 93.2633 102.648 127.928 75.0738 117.88 60.9632 40.1807 70.2444 39.1407 38.425 63.473 35.857 33.9981 49.1648 35.5582 33.519 27.8668 49.298 31.8377 11.4576 6.02889 4.72258 6.93802 5.92388 3.86589
threshold=1.0000000180025095e-35 1.0000000180025095e-35 1.0000000180025095e-35 1.0000000180025095e-35 0.87035014005602251 5.0909090909090917 1.0000000180025095e-35 3.4655926450380736 24.500000000000004 31535998.500000004 1.0000000180025095e-35 31535998.500000004 1.0000000180025095e-35 5.0724745561840114 41.500000000000007 1.0000000180025095e-35 1.0000000180025095e-35 4.5000000000000009 31535998.500000004 3.7656384260319791 1.0000000180025095e-35 604798.50000000012 1.0000000180025095e-35 31535998.500000004 1.0000000180025095e-35 0.081286153576459838 439058282.00000006 11.04166666666667 1.0000000180025095e-35
decision_type=2 2 2 2 2 2 2 2 2 2 2 2 2 2 2 2 2 2 2 2 2 2 2 2 2 2 2 2 2
left_child=1 2 3 4 5 6 -1 20 -9 -3 16 28 24 14 19 -5 17 25 -18 23 21 22 -6 -10 -8 26 27 -7 -12
right_child=-2 9 -4 15 7 10 12 8 13 -11 11 -13 -14 -15 -16 -17 18 -19 -20 -21 -22 -23 -24 -25 -26 -27 -28 -29 -30
leaf_value=-0.94051310145608835 -0.60884995680577259 -1.1755289104505047 -0.89906921174502985 -1.6903539253948652 -1.3429940656564825 -1.529708495649176 -1.6856742564744138 -0.75068216222163964 -1.4041022962530034 -0.69522231824842229 -1.4922206386286221 -0.98589350141639276 -1.2407048669190115 -1.6788474777053897 -1.0000047746949494 -1.2446384280055485 -1.5869523342710234 -1.321084104271633 -1.1482519887995626 -1.6816255680438348 -1.684399574835179 -1.170801712502795 -1.6860349303714006 -1.104503936149152 -1.4792444516980867 -1.5251928083959252 -1.4906215833942611 -1.6907068288047704 -1.6791371848808212
leaf_weight=55.475031733512878 105.36403381824493 51.517023265361786 33.196617007255554 246.2838391661644 43.795553505420685 24.505145013332367 49.830626010894775 40.011404037475586 26.679848313331604 45.414178669452667 19.708749532699585 26.552726209163666 33.632526338100433 22.544144213199615 49.260523021221161 16.803644180297852 38.461539506912231 41.146376609802246 27.739278674125671 29.124949157238007 40.787847995758057 51.040302932262421 53.145976305007935 19.075717449188232 18.443111777305603 23.812881171703339 19.543954133987427 347.99986237287521 23.092996537685394
leaf_count=34 42 40 19 318 38 22 60 20 27 19 22 21 30 21 36 17 34 39 27 38 58 38 65 16 25 23 15 448 21
internal_value=-1.39215 -1.44697 -1.48144 -1.49571 -1.45676 -1.51781 -1.30289 -1.33481 -1.2004 -0.945677 -1.57495 -1.36078 -1.50262 -1.32659 -1.26084 -1.66143 -1.60335 -1.63239 -1.40224 -1.43533 -1.46805 -1.40686 -1.53214 -1.27572 -1.63197 -1.66329 -1.67132 -1.68051 -1.59732
internal_weight=0 1518.63 1421.7 1388.5 1125.41 749.945 157.381 375.466 186.697 96.9312 592.564 69.3545 101.906 146.685 124.141 263.087 523.209 457.008 66.2008 74.8805 188.77 147.982 96.9415 45.7556 68.2737 415.862 392.049 372.505 42.8017
internal_count=1633 1591 1532 1513 1178 821 149 357 158 59 672 64 115 138 117 335 608 547 61 81 199 141 103 43 85 508 485 470 43
shrinkage=1


Tree=2
num_leaves=36
num_cat=0
split_feature=1599 1584 1050 1553 1551 1669 1654 1687 1555 1578 1555 1672 1266 1602 1570 1590 1570 1555 1590 1566 1670 1570 1555 1555 1555 1551 1687 1562 1578 1554 1669 1588 1555 1578 1578
split_gain=1282.93 489.066 350.74 101.935 102.924 204.06 71.5649 41.518 22.7777 34.1905 20.9039 16.9168 21.0182 15.753 14.9026 12.8274 20.0832 9.70188 8.97417 28.9364 12.3875 6.68038 4.5148 3.62119 3.47442 2.56268 2.30663 0.81129 0.793392 0.731122 4.36979 0.60091 0.449476 0.053479 0.806367
threshold=3.5000000000000004 1.0000000180025095e-35 1.0000000180025095e-35 1.0000000180025095e-35 1.0000000180025095e-35 1.0000000180025095e-35 1.0000000180025095e-35 0.96249413970932973 5.5000000000000009 1049.0000000000002 1.5000000000000002 1.0000000180025095e-35 1.0000000180025095e-35 1.0000000180025095e-35 5.3417786781271781 3.5145521276701093 2.9781686413431907 14.500000000000002 3.4022650295823875 20.500000000000004 1.0000000180025095e-35 4.1657937678207135 1.5000000000000002 1.5000000000000002 2.5000000000000004 1.0000000180025095e-35 0.97033845048927203 1.0000000180025095e-35 1209598.5000000002 1.0000000180025095e-35 1.0000000180025095e-35 39.500000000000007 1.5000000000000002 31535998.500000004 33695998.500000007
decision_type=2 2 2 2 2 2 2 2 2 2 2 2 2 2 2 2 2 2 2 2 2 2 2 2 2 2 2 2 2 2 2 2 2 2 2
left_child=2 7 3 4 8 6 11 -2 13 -10 -8 12 15 24 18 16 22 -11 19 20 33 -17 -6 -4 27 -20 -27 29 -28 30 31 -1 -7 -5 -35
right_child=1 -3 23 14 5 32 10 -9 9 17 -12 -13 -14 -15 -16 21 -18 -19 25 -21 -22 -23 -24 -25 -26 26 28 -29 -30 -31 -32 -33 -34 34 -36
leaf_value=-1.6669214405966544 -1.0560240745405569 -1.6595208107907258 -0.84880374626754695 -1.6829342025953258 -1.3469401183994687 -0.74030711637623903 -0.91657461877634938 -0.53225863039539534 -1.1264735444832272 -1.4211339956291118 -1.2801833340633582 -1.6498327596836697 -1.6549180628606968 -1.4120944705697041 -1.4238442983101571 -1.6114702156231959 -1.1101487441736391 -1.6500439456135041 -1.5607696492287206 -1.2816758825068317 -1.3812397492367707 -1.3972186366710826 -1.5235633626130021 -0.57629032396825297 -1.5380927209127213 -1.6696100152476174 -1.6374106372534336 -1.6821400351763343 -1.5470737547186877 -1.678237716949216 -1.5124854674493962 -1.5937630430093868 -0.90853590579371257 -1.553765768374191 -1.672075938061421
leaf_weight=61.418907701969147 16.497694432735443 44.83687025308609 17.999396562576294 66.473833322525024 25.710204899311066 31.297371089458466 20.937418758869171 190.41687715053558 23.921061158180237 33.153486788272858 42.926059365272522 59.031873106956482 38.337405502796173 35.581168532371521 33.504736721515656 28.692991852760315 24.90888637304306 33.201826870441437 32.236307382583618 26.229910552501678 15.936914026737211 23.604064881801605 24.687561273574829 25.650344729423523 40.277052521705627 345.79659855365753 24.554642260074615 56.244683504104614 28.991937398910522 31.806444406509399 34.233407855033875 33.513285100460052 21.965463280677795 15.869239926338194 18.596585512161255
leaf_count=43 14 70 19 93 25 39 24 233 20 29 39 53 33 27 39 24 31 28 22 32 17 24 19 32 29 351 15 40 33 19 19 27 28 19 24
internal_value=-1.3875 -0.766182 -1.50144 -1.52903 -1.45295 -1.33339 -1.43352 -0.572224 -1.5595 -1.42719 -1.15555 -1.5131 -1.46318 -1.59998 -1.61953 -1.40395 -1.32494 -1.53787 -1.63085 -1.56326 -1.62681 -1.51677 -1.43442 -0.674082 -1.62574 -1.65281 -1.65978 -1.64123 -1.59232 -1.62521 -1.61001 -1.64351 -0.799579 -1.66527 -1.62383
internal_weight=0 251.751 1377.29 1333.64 725.451 342.099 288.836 206.915 383.351 90.2764 63.8635 224.973 165.941 293.075 608.191 127.604 75.3067 66.3553 574.686 143.106 116.877 52.2971 50.3978 43.6497 257.494 431.579 399.343 217.217 53.5466 160.972 129.166 94.9322 53.2628 100.94 34.4658
internal_count=1633 317 1316 1265 620 339 272 247 281 77 63 209 156 204 645 123 75 57 606 185 153 48 44 51 177 421 399 148 48 108 89 70 67 136 43
shrinkage=1


Tree=3
num_leaves=37
num_cat=0
split_feature=1575 1674 1584 1566 1585 1551 1589 1051 1677 1687 1574 1578 1587 1566 1578 1591 1599 1551 1578 1568 1566 1574 1555 1669 1590 1590 1570 1578 1587 4 1562 1568 1589 1555 1568 1578
split_gain=939.099 451.909 433.174 266.465 144.066 80.2874 75.7319 55.3473 44.9389 40.0149 38.173 67.5502 30.3581 18.9407 16.6277 16.5319 16.4273 25.6379 15.5001 15.6525 61.7015 11.5532 6.08783 6.03897 5.51658 15.7756 5.30114 12.8451 3.93185 1.2475 2.22781 1.24185 0.93404 0.794193 0.688242 0.543805
threshold=1.0000000180025095e-35 1.0000000180025095e-35 1.0000000180025095e-35 117.50000000000001 1.0000000180025095e-35 1.0000000180025095e-35 1.0000000180025095e-35 1.0000000180025095e-35 1.0000000180025095e-35 0.97669376693766952 1.0000000180025095e-35 63179325.000000007 146.50000000000003 31.500000000000004 209.00000000000003 1.0000000180025095e-35 3.5000000000000004 1.0000000180025095e-35 32659198.500000004 41.500000000000007 27.500000000000004 1.0000000180025095e-35 11.500000000000002 1.0000000180025095e-35 1.2500000000000002 3.1194739867463599 3.2320239964902981 1829.0000000000002 26.500000000000004 1.0000000180025095e-35 0.95800948825231258 64.000000000000014 -5.4999999999999991 7.5000000000000009 13.500000000000002 31535998.500000004
decision_type=2 2 2 2 2 2 2 2 2 2 2 2 2 2 2 2 2 2 2 2 2 2 2 2 2 2 2 2 2 2 2 2 2 2 2 2
left_child=2 3 16 5 10 -2 8 -6 14 -4 11 13 -5 -3 -7 -16 17 24 19 20 21 26 31 -23 33 34 27 29 -10 30 -19 -21 -18 -1 -26 -27
right_child=1 4 9 12 7 6 -8 -9 28 -11 -12 -13 -14 -15 15 -17 32 18 -20 22 -22 23 -24 -25 25 35 -28 -29 -30 -31 -32 -33 -34 -35 -36 -37
leaf_value=-1.6799188601675592 -1.334287641915523 -1.2949213958235097 -1.0523405593633841 -1.6717374578443644 -1.2096093519438591 -0.94565518754732258 -1.2697849461513695 -0.57418450518170638 -1.1133721741067193 -0.51356142311154496 -1.6204837956613951 -1.6342447892218159 -1.2240665979973591 -0.87539999986976824 -0.55073816126738628 -0.94715956200465112 -1.6801336586110522 -1.6414278732089762 -1.3469694315384773 -1.6781270872891052 -1.0497053142926971 -1.2752626218956338 -1.5169168212219315 -1.5041382402956132 -1.4254427905503693 -1.6642677744347765 -1.6617103987694091 -1.4044011746625622 -0.87680579955278326 -1.6711540342290452 -1.5080050031238128 -1.5787778619831063 -1.5759111769220004 -1.6052976613280645 -1.4930155982767777 -1.5897288207966449
leaf_weight=161.73804092407227 19.214714169502258 19.088812649250031 23.215708017349243 28.966761589050293 31.281632483005524 15.646523177623747 19.676490306854248 20.181092083454132 17.929728329181671 31.232523918151855 113.62104767560959 36.765742242336273 24.140119075775146 19.755000829696655 184.87355899810791 13.646670222282408 183.16072434186935 24.970315158367157 40.06328284740448 81.59430718421936 24.296710968017578 18.11730283498764 41.609788835048676 21.721023857593536 29.318185806274414 101.5653270483017 51.235230803489685 40.485530614852905 16.078896880149841 27.31917417049408 26.526088297367096 23.679923117160797 15.953991532325743 32.239172875881195 28.298134446144104 26.616459786891937
leaf_count=108 16 19 28 23 30 20 15 32 21 50 61 17 23 26 292 20 222 27 34 64 30 21 39 26 21 77 36 37 21 33 33 19 20 27 24 21
internal_value=-1.38126 -1.07524 -1.54989 -0.853172 -1.38997 -0.739316 -0.696969 -0.949794 -0.652183 -0.733212 -1.51132 -1.34629 -1.4691 -1.07422 -0.600556 -0.575677 -1.59494 -1.57525 -1.52373 -1.54233 -1.49346 -1.54604 -1.61911 -1.40001 -1.63193 -1.59217 -1.57984 -1.54265 -0.990312 -1.61248 -1.57642 -1.65785 -1.6728 -1.66873 -1.45997 -1.65052
internal_weight=0 580.867 1054.96 340.173 240.693 287.067 267.852 51.4627 248.175 54.4482 189.231 75.6096 53.1069 38.8438 214.167 198.52 1000.51 801.394 421.619 381.555 234.671 210.375 146.884 39.8383 379.775 185.798 170.536 119.301 34.0086 78.8156 51.4964 105.274 199.115 193.977 57.6163 128.182
internal_count=1633 636 997 451 185 405 389 62 374 78 123 62 46 45 332 312 919 677 399 365 243 213 122 47 278 143 166 130 42 93 60 83 242 135 45 98
shrinkage=1


Tree=4
num_leaves=41
num_cat=0
split_feature=1551 1678 1670 1578 1568 1591 1564 1589 1578 1572 1575 1578 1555 1687 1068 1578 1573 1669 1555 1676 1570 1587 1578 1600 1578 1555 1670 1566 1578 1588 1555 1555 1555 1555 1590 1587 1555 1590 1570 1053
split_gain=216.74 185.078 115.496 77.4381 62.0606 53.5119 32.0622 27.0195 23.7418 70.3911 28.7666 43.8343 26.2233 23.296 17.2545 13.4653 12.6712 10.3036 7.40005 7.02306 6.91354 6.78362 8.40335 6.28802 7.68353 5.154 4.91649 6.68698 3.30788 2.63326 2.66141 5.36944 3.93485 1.16206 1.05148 0.894713 0.727314 0.485936 0.384085 0.147304
threshold=1.0000000180025095e-35 1.0000000180025095e-35 1.0000000180025095e-35 4535998.5000000009 31.887500000000003 1.0000000180025095e-35 1.0000000180025095e-35 -6.4999999999999991 35599.000000000007 1.0000000180025095e-35 1.0000000180025095e-35 58.500000000000007 2.5000000000000004 0.2991071428571429 1.0000000180025095e-35 141911999.00000003 1.0000000180025095e-35 1.0000000180025095e-35 33.000000000000007 1.0000000180025095e-35 3.0364744698854786 9.5000000000000018 2591997.5000000005 2.0000000000000004 31535998.500000004 1.5000000000000002 1.0000000180025095e-35 63.833333333333336 34257599.000000007 124.50000000000001 8.5000000000000018 14.500000000000002 12.500000000000002 1.5000000000000002 3.3835328650686436 14.500000000000002 1.5000000000000002 3.7181339414680172 3.6139889733089992 1.0000000180025095e-35
decision_type=2 2 2 2 2 2 2 2 2 2 2 2 2 2 2 2 2 2 2 2 2 2 2 2 2 2 2 2 2 2 2 2 2 2 2 2 2 2 2 2
left_child=4 2 8 7 6 13 14 -4 9 10 11 12 -2 26 16 18 17 -1 20 -13 21 22 -10 29 -25 -23 27 -6 36 30 35 32 -32 -21 -3 -22 -26 -5 -12 -19
right_child=1 34 3 37 5 -7 -8 -9 15 -11 38 19 -14 -15 -16 -17 -18 39 -20 33 23 25 -24 24 28 -27 -28 -29 -30 -31 31 -33 -34 -35 -36 -37 -38 -39 -40 -41
leaf_value=0.23689368831271934 0.0048291973257122882 0.30394667229605876 0.059712724403914022 -0.21424605446506517 0.26760068570407902 -0.00381588094593937 -0.22549404795288064 0.40574088307931216 0.0021239005351033472 0.33693178049159755 -0.26931923994498941 -0.066025618602668895 0.44412831429320787 0.13400730043364942 0.26980059391771055 0.089220243291627352 -0.061487564236836746 0.043767460016601832 0.016767942691983288 -0.16632241912856383 -0.15747211316538348 0.089137991784459025 -0.26922630395602026 0.034656280009327092 -0.26617574358291951 -0.15286099895597005 0.51731883461947592 0.434301368492433 -0.085703880526167356 -0.11388695766726473 -0.17698029282091096 -0.26729282803347498 0.0092133221268000907 -0.26764516463709698 0.42570119829837511 -0.26670242292244645 -0.15155142021344561 -0.13222111796532213 -0.20685630539438857 0.069204751627465186
leaf_weight=40.346904754638672 31.211690008640289 24.135617643594742 30.197098672389984 24.9082350730896 44.266020536422729 47.149421989917755 29.040413022041321 63.567150950431824 14.530805885791777 30.978688091039658 73.869361460208893 41.942637950181961 19.132144868373871 35.838152527809143 44.612240850925446 14.523406386375425 52.14780330657959 44.991033315658569 13.836281120777128 25.606093466281891 12.19782519340515 18.441762149333957 33.914292544126511 17.304266184568405 29.712154984474182 12.370468378067015 35.897802531719208 62.924677729606628 20.86898946762085 17.388763904571533 31.648471862077713 46.249983876943588 14.727729082107542 34.222752094268799 46.603995800018311 224.29547733068466 12.078206300735472 19.147152662277222 36.177240610122681 57.448877990245819
leaf_count=29 39 22 30 30 30 27 24 39 14 34 52 36 16 27 34 9 37 29 17 33 22 28 54 25 48 21 25 41 12 15 53 77 22 55 32 363 18 16 71 27
internal_value=0 -0.0760835 -0.11054 0.142961 0.165099 0.280596 0.0672028 0.296107 -0.152896 -0.0838727 -0.134689 -0.0495763 0.177174 0.355146 0.103477 -0.190553 0.0642293 0.110251 -0.19853 -0.162377 -0.204442 -0.120583 -0.18944 -0.219708 -0.140764 -0.00977057 0.409219 0.36857 -0.188992 -0.237468 -0.243633 -0.195061 -0.118904 -0.227727 0.388976 -0.261755 -0.237363 -0.182323 -0.250833 0.058564
internal_weight=0 1035.79 965.049 137.82 494.663 226.076 268.587 93.7642 827.229 293.141 262.162 152.115 50.3438 178.927 239.547 534.089 194.935 142.787 519.565 101.771 505.729 79.2573 48.4451 426.472 79.9636 30.8122 143.089 107.191 62.6594 346.508 329.119 92.6262 46.3762 59.8288 70.7396 236.493 41.7904 44.0554 110.047 102.44
internal_count=1633 1303 1249 115 330 150 180 69 1134 336 302 179 55 123 156 798 122 85 789 124 772 117 68 655 103 49 96 71 78 552 537 152 75 88 54 385 66 46 123 56
shrinkage=0.3


Tree=5
num_leaves=37
num_cat=0
split_feature=1112 1554 1599 1562 1566 1578 1677 1590 1570 1576 1563 1553 1555 1555 1053 1566 1587 1570 1570 1578 1589 1586 1578 1551 1566 1578 1588 1570 1578 1601 1590 1574 1590 1578 1669 1578
split_gain=251.554 122.394 73.698 63.5336 64.903 65.5588 45.4041 52.3388 60.6323 40.563 36.9892 32.7226 38.4772 30.4968 32.5508 40.9615 39.4284 26.7839 55.8078 51.4434 72.003 18.2615 17.0201 13.486 25.9952 12.8465 20.4312 9.98784 7.68401 6.90449 5.08187 4.76776 4.62725 4.43849 2.28755 4.20879
threshold=1.0000000180025095e-35 1.0000000180025095e-35 1.0000000180025095e-35 0.14276713709677422 6.166666666666667 31492798.000000004 1.0000000180025095e-35 3.4308823128329955 5.0724745561840114 1.0000000180025095e-35 0.074779524644003212 1.0000000180025095e-35 10.500000000000002 3.5000000000000004 1.0000000180025095e-35 4.5000000000000009 13.500000000000002 3.7675882924894428 4.1945050509334676 2591998.5000000005 -6.4999999999999991 1.0000000180025095e-35 31535998.500000004 1.0000000180025095e-35 1.2500000000000002 129599.00000000001 46.500000000000007 5.6707109168733894 604798.50000000012 1.0000000180025095e-35 5.3417786781271781 1.0000000180025095e-35 3.8909796977394064 1209598.5000000002 1.0000000180025095e-35 449.00000000000006
decision_type=2 2 2 2 2 2 2 2 2 2 2 2 2 2 2 2 2 2 2 2 2 2 2 2 2 2 2 2 2 2 2 2 2 2 2 2
left_child=1 2 3 4 5 23 7 13 10 -4 11 12 29 28 15 33 -17 21 19 32 -21 -6 -3 24 -1 -13 -27 -20 -5 -9 -10 34 -19 -15 -25 -36
right_child=-2 22 9 6 17 -7 -8 8 30 -11 -12 25 -14 14 -16 16 -18 18 27 20 -22 -23 -24 31 -26 26 -28 -29 -30 -31 -32 -33 -34 -35 35 -37
leaf_value=0.25326404038271794 0.38319577222267215 0.13559783250856791 0.25638811049080806 -0.27712463180956648 -0.27709995828122486 0.40605662460043512 -0.29835679897990702 0.26796909596643415 -0.26828930739214041 -0.26873001074068026 0.47073318515395635 0.44674735415382311 -0.20118452774666701 -0.28717288904706129 0.36583447285889154 0.35953611731773788 -0.13488871281136486 -0.26111155811507408 -0.27262764162389042 -0.11851993156330604 0.58434600683664784 -0.0091324929454427231 0.36653992499704247 -0.020522059735303824 -0.11017622012115842 0.0013322378953368175 0.40812805866788621 0.020455194264057827 -0.085001861185557998 0.070495948661212726 -0.04062179761405852 -0.26359169766973528 -0.051878737451924901 -0.094061682790760312 -0.030994293692088587 -0.25657335840098683
leaf_weight=30.918308734893799 140.55676865577698 58.066068768501282 13.484999835491179 41.538193881511688 178.97666576504707 35.885799705982208 31.265845537185669 36.090693473815918 23.801144123077393 183.94119283556938 42.016032695770264 32.771412909030914 35.706181347370148 31.772527247667313 22.537814438343048 32.69604754447937 24.77472996711731 22.071222960948944 89.506491303443909 22.86117759346962 28.898591578006744 26.30298513174057 59.664884150028229 26.788447082042694 38.897638022899628 23.726490676403046 19.910489439964294 11.681502342224119 35.716691642999649 29.597841858863831 14.331235229969023 17.582504272460938 17.218015253543854 17.916130572557449 15.631650149822237 13.78013354539871
leaf_count=14 42 40 14 61 279 20 40 20 33 321 21 12 38 41 15 21 32 25 156 34 13 22 19 28 36 29 11 14 39 26 13 25 17 18 21 23
internal_value=0 -0.036602 -0.0637761 -0.0326875 -0.100299 0.0492539 0.0459816 0.0697299 0.159637 -0.231751 0.220157 0.158643 0.0460128 -0.042562 0.0463553 -0.0235989 0.147736 -0.167778 -0.0866364 0.0833665 0.277543 -0.242975 0.254738 -0.0421038 0.0520785 0.305579 0.191928 -0.238924 -0.190523 0.181383 -0.18595 -0.130727 -0.172981 -0.220773 -0.0852785 -0.141645
internal_weight=0 1388.33 1270.6 1073.17 577.001 179.484 496.17 464.904 257.952 197.426 219.819 177.803 101.395 206.952 129.697 107.159 57.4708 397.517 192.237 91.049 51.7598 205.28 117.731 143.599 69.8159 76.4084 43.637 101.188 77.2549 65.6885 38.1324 73.7827 39.2892 49.6887 56.2002 29.4118
internal_count=1633 1591 1532 1197 727 167 470 430 203 335 157 136 84 227 127 112 53 560 259 89 47 301 59 147 50 52 40 170 100 46 46 97 42 59 72 44
shrinkage=0.3


Tree=6
num_leaves=38
num_cat=0
split_feature=1599 1584 1050 1553 1551 1669 1654 1585 1555 1578 1602 1672 1570 1266 1673 1578 1562 1578 1590 1587 1570 1562 1551 1555 1590 1571 1562 1578 1587 1587 1555 1578 1568 1056 1566 1578 1555
split_gain=456.83 140.471 134.309 65.1017 59.1497 71.2297 36.5369 25.7291 16.2845 18.298 13.898 12.7303 12.4176 11.9735 10.5038 8.89197 8.76153 8.63001 7.43505 21.0624 6.07964 5.70316 4.29383 3.18795 2.82317 2.23253 1.03033 2.07651 0.831168 5.45374 0.773279 0.557126 0.487825 0.357454 2.13861 0.258363 0.134862
threshold=3.5000000000000004 1.0000000180025095e-35 1.0000000180025095e-35 1.0000000180025095e-35 1.0000000180025095e-35 1.0000000180025095e-35 1.0000000180025095e-35 1.0000000180025095e-35 5.5000000000000009 1049.0000000000002 1.0000000180025095e-35 1.0000000180025095e-35 5.3417786781271781 1.0000000180025095e-35 1.0000000180025095e-35 32659198.500000004 0.96418098031001265 15596998.500000002 3.4116770358748041 15.500000000000002 3.2026285729188739 0.97871084296966659 1.0000000180025095e-35 2.5000000000000004 3.563692494612527 0.050874972079913913 1.0000000180025095e-35 15854399.000000002 37.500000000000007 28.500000000000004 1.5000000000000002 1498.5000000000002 43.500000000000007 1.0000000180025095e-35 9.5000000000000018 31535998.500000004 1.5000000000000002
decision_type=2 2 2 2 2 2 2 2 2 2 2 2 2 2 2 2 2 2 2 2 2 2 2 2 2 2 2 2 2 2 2 2 2 2 2 2 2
left_child=2 21 3 4 8 6 11 -8 10 -10 23 13 14 15 18 16 25 -11 19 35 -21 -2 -20 26 -18 -6 27 33 29 -24 -4 -7 -31 34 -1 -5 -13
right_child=1 -3 30 12 5 31 7 -9 9 17 -12 36 -14 -15 -16 -17 24 -19 22 20 -22 -23 28 -25 -26 -27 -28 -29 -30 32 -32 -33 -34 -35 -36 -37 -38
leaf_value=-0.14526902230281385 0.2450128482111229 -0.239248318754093 0.28333276624825976 -0.27182939733160066 0.15574799228671379 0.26034955103883428 -0.030114753810137555 0.32819991953846633 0.17603563062218247 -0.21857383926053836 0.0040590126371597077 -0.19319190827181412 -0.0076920950231578874 -0.22566547638505222 0.0015734034570271188 -0.15529079250796909 -0.0049395337204230861 0.011295916143210308 -0.10854721268168108 -0.070565361433228266 0.15375595281128979 0.40993449781669872 -0.26082845873501653 -0.11727533955258679 -0.16036347071988855 0.024641254523179047 -0.26883238221400835 -0.11814407947323276 -0.2708739460370142 -0.078178983659642723 0.40045560257921115 0.35148861517171193 -0.15511615513238028 -0.26832906685192259 -0.25142744923524168 -0.20156850116503741 -0.26593924966752058
leaf_weight=37.473903328180313 26.290480852127075 34.814643681049347 23.101048827171326 42.366538316011429 35.402783036231995 33.010471224784851 34.698490738868713 36.213746190071106 26.98967844247818 32.574243009090424 33.110863268375397 26.856142580509186 30.959329783916473 27.880798518657684 21.23919266462326 28.527691423892975 26.326586425304413 25.978939414024353 23.590909868478775 27.026890367269516 16.781631469726563 247.2911331653595 118.96283626556396 35.418950438499451 16.590306490659714 17.850968778133392 43.985933393239975 24.914262354373932 133.8449932038784 15.227354437112806 34.195244550704956 35.395956516265869 26.331161588430405 25.867447972297668 44.109315812587738 26.893003582954407 20.153652131557465
leaf_count=29 20 70 19 72 39 31 28 35 20 31 27 34 39 33 37 25 25 26 19 37 20 227 129 29 16 18 40 16 193 24 32 36 36 18 45 39 19
internal_value=0 0.32289 -0.0855727 -0.107961 -0.0472606 0.0407589 -0.0287037 0.15489 -0.137391 -0.0243408 -0.176622 -0.0943801 -0.191767 -0.0515983 -0.204323 -0.0111937 0.0327089 -0.118108 -0.214449 -0.146004 0.0168786 0.395036 -0.238255 -0.204759 -0.0673049 0.113064 -0.221569 -0.203965 -0.248247 -0.22782 0.358904 0.311893 -0.129425 -0.222591 -0.205015 -0.247805 -0.229269
internal_weight=0 308.396 1209.85 1152.55 669.331 338.908 270.501 70.9122 330.424 85.5429 244.881 199.589 483.224 152.579 452.265 124.698 96.1706 58.5532 431.025 113.068 43.8085 273.582 317.957 211.77 42.9169 53.2538 176.351 132.365 294.366 160.521 57.2963 68.4064 41.5585 107.451 81.5832 69.2595 47.0098
internal_count=1633 317 1316 1265 620 339 272 63 281 77 204 209 645 156 606 123 98 57 569 168 57 247 401 177 41 57 148 108 382 189 51 67 60 92 74 111 53
shrinkage=0.3


Tree=7
num_leaves=40
num_cat=0
split_feature=1575 1584 1674 1589 1574 1572 1551 1682 1566 1673 1569 1599 1551 1553 1590 1578 1578 1590 1570 1687 1570 1562 1566 1566 1566 1590 1590 1571 1566 1585 1574 1589 1555 1570 1578 1566 1566 1589 1562
split_gain=434.013 186.485 132.21 77.5253 64.8181 60.6009 49.0143 23.4823 23.3146 22.3309 13.9268 12.8463 21.7942 15.524 18.4446 12.153 50.6893 11.0375 19.294 10.5647 9.62102 7.81527 7.70734 45.3114 6.43341 5.1504 12.5539 9.69849 2.96428 2.71636 1.84871 1.38876 1.15306 1.01693 0.565512 0.415693 0.669874 0.397736 0.347301
threshold=1.0000000180025095e-35 1.0000000180025095e-35 1.0000000180025095e-35 31.500000000000004 1.0000000180025095e-35 1.0000000180025095e-35 1.0000000180025095e-35 1.0000000180025095e-35 21.500000000000004 1.0000000180025095e-35 0.56602523270742755 3.5000000000000004 1.0000000180025095e-35 1.0000000180025095e-35 4.7153619579743706 1997997.5000000002 1829.0000000000002 2.5124494855594826 3.4594613894182262 0.97669376693766952 3.3695880458828831 0.99821882951653962 63.833333333333336 41.500000000000007 3.5000000000000004 1.2500000000000002 3.1194739867463599 -1.0000000180025095e-35 28.500000000000004 1.0000000180025095e-35 1.0000000180025095e-35 -5.4999999999999991 7.5000000000000009 3.7080856762687291 31535998.500000004 42.500000000000007 26.250000000000004 -5.4999999999999991 0.69630938529631059
decision_type=2 2 2 2 2 2 2 2 2 2 2 2 2 2 2 2 2 2 2 2 2 2 2 2 2 2 2 2 2 2 2 2 2 2 2 2 2 2 2
left_child=1 11 3 6 5 7 -2 8 -4 10 22 12 25 14 15 16 17 30 -19 -3 -18 35 23 24 -8 32 27 -27 -26 -9 -14 -13 -1 -23 38 36 -17 -24 -28
right_child=2 19 4 -5 -6 -7 9 29 -10 -11 -12 31 13 -15 -16 21 20 18 -20 -21 -22 33 37 -25 28 26 34 -29 -30 -31 -32 -33 -34 -35 -36 -37 -38 -39 -40
leaf_value=-0.27185478965070126 -0.056532382215394222 0.18042832330352088 0.38222069034482498 -0.27465105241237447 -0.19593314859302249 -0.21713591117807365 0.25644073860433442 0.31618783180037141 0.0047546422810675918 0.11671217006561921 0.10943015192193271 -0.26729761198197038 -0.23401040466640891 -0.25763339850075329 0.1742514135999772 -0.23842533077552339 0.12038574525857119 0.19422964446975463 -0.18886365333301 0.42875317696860921 0.4376579255511634 -0.11630237547130405 0.42169627346975785 -0.045870236026644196 0.44845583763811148 -0.15458461810578344 -0.27017514520586167 0.10296317184157004 0.30100421908636449 0.52457034425721782 -0.13165927632063437 -0.14219123380245891 -0.18455366231896861 -0.028720132334734482 -0.17704986457718386 -0.26737339600856341 -0.14792525021788017 0.52281706115444659 -0.19181963138284702
leaf_weight=125.10118281841278 28.753288686275482 27.893649160861969 21.358978033065796 20.142128884792328 88.563781172037125 32.812733352184296 29.73883068561554 18.351435542106628 43.220402538776398 35.003537535667419 18.037211418151855 133.38545954227448 54.885915160179138 53.168654263019562 22.363347172737122 24.636966347694397 20.902707099914551 20.463352382183075 25.377154469490051 41.440492987632751 15.052025854587553 25.448843717575073 75.820443511009216 23.028993427753448 122.58716195821762 34.161080658435822 59.97822117805481 20.161113202571869 23.707406640052795 19.024749636650085 29.350140452384949 12.417441606521605 26.090341627597809 23.309141159057617 22.765482425689697 32.355540215969086 22.025311887264252 33.373096704483032 19.650408744812012
leaf_count=108 27 28 27 11 61 20 32 20 33 34 19 222 81 35 29 26 21 26 25 50 20 20 91 17 148 25 60 20 28 24 37 20 27 23 21 31 25 44 17
internal_value=0 -0.13647 0.188002 0.288924 0.00217946 0.132855 0.318655 0.246508 0.133522 0.348587 0.373029 -0.176361 -0.158499 -0.108874 -0.0831244 -0.103239 -0.0492396 -0.136459 -0.0173539 0.332836 0.261457 -0.172479 0.38805 0.348096 0.399603 -0.217479 -0.176901 -0.0588651 0.426767 0.433161 -0.200312 -0.257684 -0.258101 -0.0758516 -0.238347 -0.23041 -0.199708 0.457066 -0.253458
internal_weight=0 892.384 633.524 410.192 223.332 134.768 390.05 101.956 64.5794 361.297 326.293 823.05 677.247 369.339 316.17 293.807 166.031 130.077 45.8405 69.3341 35.9547 127.776 308.256 199.062 176.033 307.908 156.716 54.3222 146.295 37.3762 84.2361 145.803 151.192 48.758 102.394 79.0178 46.6623 109.194 79.6286
internal_count=1633 997 636 451 185 124 440 104 60 413 379 919 677 399 364 335 210 169 51 78 41 125 360 225 208 278 143 45 176 44 118 242 135 43 98 82 51 135 77
shrinkage=0.3


Tree=8
num_leaves=41
num_cat=0
split_feature=1551 1678 1670 1578 1578 1578 1590 1562 1571 1575 1578 1573 1588 1555 1568 1600 1653 1569 1566 1600 1578 1562 1570 1570 1068 1574 1554 1555 1570 1554 1601 1570 1578 1570 1674 1588 1568 1555 1590 1590
split_gain=99.9505 97.9963 58.8631 42.0586 32.6292 41.339 47.501 41.4185 30.6465 16.771 47.9508 38.1241 15.8355 15.9335 15.4279 10.0246 16.0287 10.0067 9.42672 7.34878 6.64979 5.50647 5.27161 12.34 4.85962 15.6356 3.77415 3.68538 3.18472 3.13339 3.1125 2.61969 4.25041 2.0311 1.82615 1.65554 9.36282 3.82874 1.64662 0.835878
threshold=1.0000000180025095e-35 1.0000000180025095e-35 1.0000000180025095e-35 4535998.5000000009 879756459.50000012 7775998.5000000009 1.5109640474436812 0.97040858870127178 0.023582336105868851 1.0000000180025095e-35 58.500000000000007 1.0000000180025095e-35 22.500000000000004 3.5000000000000004 46.100000000000009 4.5000000000000009 1.0000000180025095e-35 1.0000000180025095e-35 1.0000000180025095e-35 2.0000000000000004 449.00000000000006 0.87035014005602251 2.5968802472583108 1.9957648121420117 1.0000000180025095e-35 1.0000000180025095e-35 1.0000000180025095e-35 8.5000000000000018 3.9626071636692877 1.0000000180025095e-35 1.0000000180025095e-35 3.0364744698854786 2729.0000000000005 3.5145521276701093 1.0000000180025095e-35 33.500000000000007 32.250000000000007 14.500000000000002 3.3497286041538357 3.7181339414680172
decision_type=2 2 2 2 2 2 2 2 2 2 2 2 2 2 2 2 2 2 2 2 2 2 2 2 2 2 2 2 2 2 2 2 2 2 2 2 2 2 2 2
left_child=4 2 9 14 5 6 24 -7 20 10 12 15 13 -2 33 18 -17 19 -12 22 28 31 23 -11 25 -1 -27 -23 -8 30 -21 32 -20 -4 -24 36 -29 -37 -3 -5
right_child=1 38 3 39 -6 7 8 -9 -10 17 11 -13 -14 -15 -16 16 -18 -19 21 29 -22 27 34 -25 -26 26 -28 35 -30 -31 -32 -33 -34 -35 -36 37 -38 -39 -40 -41
leaf_value=-0.14095312217186701 -0.07589305182344501 0.19674325864296613 0.16390868882155968 -0.19819282368724636 0.38201839985085351 -0.23151835507734572 0.31625394197516515 0.13648424080238297 0.052106913104287125 -0.24830539493483006 0.041970350002759789 0.19508464471838979 0.41837659570827801 0.29344532260396977 0.35044217370240088 -0.20967395858782589 0.15478926035909027 0.018392661311893332 -0.14150629022866268 -0.242767885458366 0.43088364282680219 -0.2564258167202409 -0.25923864934291396 0.10590071724367872 0.12258921646145025 0.12719140594064421 0.0047545225963454962 -0.24792730449664194 0.18144754800301438 0.042279996450315237 -0.048328888394861991 -0.19363707608764569 0.055208425459754774 0.041752723995875603 -0.18770750161093838 -0.10489337475642978 0.10349832989292745 -0.25788951131961785 0.31981098740640729 -0.098240817309814363
leaf_weight=45.610041856765747 25.974348783493042 20.93287456035614 22.360480159521103 22.092143714427948 36.110722780227661 61.938814550638199 56.267333924770355 48.036669850349426 51.931699484586716 20.444023221731186 16.309323132038116 29.82744950056076 15.568731546401976 16.320540964603424 39.388080239295959 19.608019232749939 21.969960629940033 21.701600432395935 22.657088190317154 11.985609263181688 40.727630496025085 101.62659695744514 120.36755718290806 14.317751705646513 36.432351410388947 49.682901203632355 41.125023007392883 14.818408101797106 29.305885195732117 13.12503659725189 18.775438815355301 20.211121499538422 16.251315623521805 27.742622017860413 65.298737049102783 27.845791310071945 11.233247458934782 36.530452132225037 47.354007422924042 16.617926687002182
leaf_count=30 36 19 19 30 25 41 38 33 37 49 14 18 10 13 27 22 27 33 34 23 30 209 290 25 26 33 18 23 19 7 39 32 21 23 62 56 21 70 35 16
internal_value=0 -0.0571262 -0.0862901 0.0996527 0.11103 0.089025 0.13921 -0.0709955 0.247432 -0.121299 -0.0810461 -0.124169 0.169331 0.0701114 0.211985 -0.15551 -0.0179779 -0.176659 -0.176742 -0.192683 0.326704 -0.191053 -0.215015 -0.103532 0.0268374 0.000559482 0.072398 -0.215878 0.272717 -0.0782204 -0.129348 -0.108159 -0.0600177 0.0984102 -0.235222 -0.168003 -0.0981712 -0.194328 0.285469 -0.158839
internal_weight=0 879.256 810.969 128.201 497.169 461.058 351.083 109.975 178.233 682.768 396.752 338.889 57.8636 42.2949 89.4912 309.061 41.578 286.016 267.483 264.314 126.301 251.174 220.428 34.7618 172.85 136.418 90.8079 192.054 85.5732 43.8861 30.761 59.1195 38.9084 50.1031 185.666 90.4279 26.0517 64.3762 68.2869 38.7101
internal_count=1633 1303 1249 115 330 305 231 74 124 1134 606 547 59 49 69 529 49 528 480 495 87 466 426 74 107 81 51 379 57 69 62 87 55 42 352 170 44 126 54 46
shrinkage=0.3


Tree=9
num_leaves=32
num_cat=0
split_feature=1112 1599 1590 1566 1578 1551 1068 1570 1550 1587 1573 1578 1585 1587 1673 1576 1590 1573 1658 1687 1566 1566 1555 1590 1566 1566 1590 1553 1566 1590 1568
split_gain=121.546 60.4977 47.8389 46.0444 33.7309 61.9925 42.3352 46.9999 41.6886 45.5734 31.3643 30.3204 33.4554 36.0353 30.1697 27.081 26.0773 35.0793 20.7609 17.0259 21.5011 15.6113 10.7618 10.2978 8.57183 6.12358 15.5072 12.2892 5.13598 2.75864 0.355294
threshold=1.0000000180025095e-35 1.0000000180025095e-35 4.7153619579743706 187.90000000000003 31535998.500000004 1.0000000180025095e-35 1.0000000180025095e-35 3.6305888046327235 1.0000000180025095e-35 41.500000000000007 1.0000000180025095e-35 879756459.50000012 1.0000000180025095e-35 32.500000000000007 1.0000000180025095e-35 1.0000000180025095e-35 3.7495206870790168 1.0000000180025095e-35 2.5000000000000004 0.2991071428571429 5.4857142857142867 1.0000000180025095e-35 8.5000000000000018 5.7176110635885795 57.500000000000007 5.4857142857142867 1.9609640474436814 1.0000000180025095e-35 44.500000000000007 3.6243890622295667 42.500000000000007
decision_type=2 2 2 2 2 2 2 2 2 2 2 2 2 2 2 2 2 2 2 2 2 2 2 2 2 2 2 2 2 2 2
left_child=1 2 3 4 5 6 7 19 9 11 -3 12 30 14 15 -14 21 -18 23 20 -1 -7 -21 24 -4 26 27 -23 -9 -27 -6
right_child=-2 10 18 -5 8 16 -8 28 -10 -11 -12 -13 13 -15 -16 -17 17 -19 -20 22 -22 25 -24 -25 -26 29 -28 -29 -30 -31 -32
leaf_value=0.16542646045993248 0.27401447017937414 -0.25266482738028284 0.024157878353926146 0.33870971206038053 0.28139626410761331 0.062581402995158603 -0.28369387226603943 -0.25796634598977913 -0.27735703273489648 0.3128082868106995 0.19827881259574306 -0.28076382832279795 -0.085665467606359721 -0.27739717714935974 -0.24574335626772414 0.23248395068458641 0.19985270896198321 -0.20655409718049067 0.15250147189170146 0.36099634723893503 -0.13485237430413541 -0.25880882155906482 0.14022744682064447 0.065368920039487147 -0.2740986159537564 -0.26890585183347948 0.10678876180207332 0.088784773617787999 -0.035340542463572634 -0.14150551977969056 0.20988154915823093
leaf_weight=84.403128087520599 132.23689889907837 133.35775378346443 9.3798403143882734 38.080671012401581 36.107070952653885 21.192133575677872 26.794579207897186 26.395546734333038 26.489572465419769 74.262319803237915 14.740967035293577 22.148549318313599 34.017197892069817 31.784487664699554 21.37205696105957 77.975734949111938 42.666012942790985 33.006573885679245 14.678248107433317 48.598722249269485 27.82492470741272 56.89965683221817 36.458577156066895 10.056201577186583 93.344880521297455 103.08875024318695 17.537399053573608 10.359249949455259 14.681696802377699 22.306046634912491 34.980549812316895
leaf_count=42 42 321 10 13 22 24 29 36 53 27 14 24 48 54 40 42 33 39 8 25 33 113 22 12 194 221 14 18 14 28 18
internal_value=0 -0.0274521 -0.00307739 0.0196992 0.00630634 -0.038906 0.0672235 0.107691 0.078251 0.107315 -0.206751 0.0472767 0.0790861 0.00462666 0.0734048 0.135945 -0.130475 0.0222058 -0.175117 0.168437 0.0904443 -0.180288 0.269096 -0.218721 -0.246894 -0.204956 -0.139829 -0.204756 -0.181127 -0.247542 0.249605
internal_weight=0 1244.99 1096.89 969.431 931.351 572.213 265.157 238.363 359.138 332.648 148.099 258.386 236.237 165.149 133.365 111.993 307.056 75.6726 127.459 197.285 112.228 231.383 85.0573 112.781 102.725 210.191 84.7963 67.2589 41.0772 125.395 71.0876
internal_count=1633 1591 1256 1032 1019 691 201 172 328 275 335 248 224 184 130 90 490 72 224 122 75 418 47 216 204 394 145 131 50 249 40
shrinkage=0.3


Tree=10
num_leaves=43
num_cat=0
split_feature=1599 1669 1584 1056 1578 1555 1654 1601 1601 1572 1589 1570 1589 1578 1566 1553 1562 1565 1562 1570 1562 1578 1578 1553 1575 1555 1571 1670 1590 1591 1568 1570 1555 1553 1578 1566 1570 1590 1570 1574 1570 1570
split_gain=226.417 75.6245 72.988 71.3189 61.6592 36.5436 22.0461 19.5984 15.6976 28.9706 22.1078 18.7096 18.1118 15.0488 12.4359 13.8499 12.301 11.3788 10.6432 9.4041 8.54369 8.53046 6.93834 7.80918 5.96524 4.68773 4.12689 3.84737 3.38216 3.14584 2.68434 2.41043 2.20486 2.09708 1.61316 4.1658 1.08476 0.589525 0.573536 0.48238 0.156465 0.0940659
threshold=1.0000000180025095e-35 1.0000000180025095e-35 1.0000000180025095e-35 1.0000000180025095e-35 1829.0000000000002 10.500000000000002 1.0000000180025095e-35 1.0000000180025095e-35 1.0000000180025095e-35 1.0000000180025095e-35 -3.4999999999999996 3.7595866238851303 1.0000000180025095e-35 15551998.500000002 45.500000000000007 1.0000000180025095e-35 0.87344684301206055 0.40568058893939535 0.9371280763727835 1.5127976565354577 0.96294761437348686 89.000000000000014 86398.500000000015 1.0000000180025095e-35 1.0000000180025095e-35 12.500000000000002 0.01958471705129505 1.0000000180025095e-35 1.9609640474436814 1.0000000180025095e-35 39.650000000000006 3.4557796085301029 15.500000000000002 1.0000000180025095e-35 34257599.000000007 41.500000000000007 4.1945050509334676 3.7530714611784353 3.1538984978071758 1.0000000180025095e-35 3.1669313303766491 3.4655926450380736
decision_type=2 2 2 2 2 2 2 2 2 2 2 2 2 2 2 2 2 2 2 2 2 2 2 2 2 2 2 2 2 2 2 2 2 2 2 2 2 2 2 2 2 2
left_child=1 5 20 4 16 8 7 17 12 10 11 18 19 -6 15 -13 39 -7 22 -1 -2 -18 27 28 -15 41 -9 -10 -24 34 -25 -20 -27 -11 38 -36 37 -35 -21 -3 -4 -22
right_child=2 3 40 -5 13 6 -8 26 9 33 -12 14 -14 24 -16 -17 21 -19 31 29 25 -23 23 30 -26 32 -28 -29 -30 -31 -32 -33 -34 36 35 -37 -38 -39 -40 -41 -42 -43
leaf_value=-0.039203733207508029 0.085737276618398486 0.19052798350272743 -0.14893896124900555 -0.27549110637024171 -0.2851322059162566 -0.017682645764033472 0.28724756377290245 -0.057026996380820136 -0.18655348407921016 -0.27529765618242408 -0.24224315768147475 0.51552618978901166 0.1398538200581802 0.1623353016880402 -0.0038348585242581903 0.063980620326830731 0.23627382000512306 0.31603879071620194 -0.093002992256504755 -0.17842044944700539 0.33646343473412094 0.46229542633648429 0.049299976172151136 -0.17745523692813506 -0.08435243983530602 0.15020238350623985 -0.22006922096998596 0.004511343622750531 0.20567854936964222 -0.10982109152637123 0.012530671717978474 -0.23239895763537613 0.26992954039540584 -0.15240020336714974 -0.05050921976577618 -0.24718725849338824 -0.11633642898133321 -0.24776492243535131 -0.25056632705406673 0.13232618089165996 -0.24245447532058684 0.25523000502568421
leaf_weight=28.404477447271347 19.241968005895615 46.057561069726944 9.4118320941925067 42.620503604412079 24.788894236087799 18.762570023536682 24.503996878862381 30.156421393156052 20.363442540168762 47.825738131999969 39.634332776069641 12.636379808187485 13.678153187036513 13.973447769880293 20.61542946100235 11.665320992469788 37.60208785533905 16.846917629241943 24.588339388370514 22.966482490301132 145.33533769845963 30.319320619106293 28.140872657299042 11.854030996561052 20.503536343574524 26.71567964553833 26.67567104101181 16.976276814937592 22.602772802114487 23.395573675632477 13.709202051162718 23.553063720464706 46.039393544197083 17.690041720867157 17.027056902647018 23.606642693281174 20.719573825597763 23.719293147325516 187.35487520694733 36.649853467941284 18.986821949481964 18.950546085834503
leaf_count=33 16 41 19 30 33 21 27 32 25 43 56 15 18 13 21 27 40 21 32 40 151 30 25 20 41 26 31 19 23 26 29 25 47 17 12 43 39 25 291 34 56 20
internal_value=0 -0.0685623 0.232873 0.0741329 0.146096 -0.114228 0.0402686 -0.0275729 -0.141106 -0.0974633 -0.0399521 -0.000184601 -0.189784 -0.111778 0.168942 0.30987 0.247626 0.144522 -0.0478886 -0.205088 0.28344 0.342411 0.00253127 0.0542582 0.0173871 0.299061 -0.136037 -0.101835 0.121585 -0.222057 -0.0789324 -0.164544 0.228598 -0.224789 -0.232043 -0.167964 -0.182162 -0.211579 -0.24357 0.166626 -0.217582 0.328694
internal_weight=0 1042.19 284.682 252.515 209.895 789.673 116.946 92.4416 672.727 356.294 246.339 206.705 316.433 59.2659 44.9171 24.3017 150.629 35.6095 161.788 302.755 256.283 67.9214 113.647 76.3069 34.477 237.041 56.8321 37.3397 50.7436 274.351 25.5632 48.1414 72.7551 109.955 250.955 40.6337 62.1289 41.4093 210.321 82.7074 28.3987 164.286
internal_count=1633 1298 335 262 232 1036 132 105 904 441 317 261 463 87 63 42 145 42 198 445 260 70 141 97 54 244 63 44 48 412 49 57 73 124 386 55 81 42 331 75 75 171
shrinkage=0.3


Tree=11
num_leaves=39
num_cat=0
split_feature=1575 1584 1674 1566 1585 1587 1568 1568 1051 1574 1578 1573 1654 1551 1266 1590 1565 1570 1570 1570 1555 1562 1578 1687 1568 1590 1590 1566 1562 1570 1555 1578 1574 1570 1555 1566 1555 1570
split_gain=237.392 98.5174 61.5726 36.9485 35.3896 18.5844 15.5199 29.1933 14.3029 12.0051 17.9548 11.7762 18.3678 22.6447 15.2601 22.5514 11.6327 14.3773 20.5207 11.4638 11.1492 10.1432 8.24822 7.9936 7.19787 6.92196 16.3217 6.70341 6.35619 4.66996 5.18862 4.05434 1.74957 1.53991 1.10606 0.375452 0.335032 0.285318
threshold=1.0000000180025095e-35 1.0000000180025095e-35 1.0000000180025095e-35 117.50000000000001 1.0000000180025095e-35 146.50000000000003 71.333333333333357 31.887500000000003 1.0000000180025095e-35 1.0000000180025095e-35 63179325.000000007 1.0000000180025095e-35 1.0000000180025095e-35 1.0000000180025095e-35 1.0000000180025095e-35 4.7153619579743706 0.32478054967508568 2.5016291673878235 3.5744013115109059 3.6899748398804153 7.5000000000000009 0.7407936315021878 1829.0000000000002 0.97669376693766952 40.31818181818182 1.2500000000000002 3.3229314955857094 10.500000000000002 0.95951270449008008 3.6629736697507607 6.5000000000000009 31535999.500000004 1.0000000180025095e-35 3.7970857150313617 3.5000000000000004 3.5000000000000004 1.5000000000000002 3.6139889733089992
decision_type=2 2 2 2 2 2 2 2 2 2 2 2 2 2 2 2 2 2 2 2 2 2 2 2 2 2 2 2 2 2 2 2 2 2 2 2 2 2
left_child=1 11 3 6 9 -5 7 20 -6 10 19 12 13 25 15 16 17 22 28 -4 27 24 32 -3 -9 34 -27 35 -19 -14 -31 -13 36 -20 -1 -2 -15 -29
right_child=2 23 4 5 8 -7 -8 21 -10 -11 -12 31 29 14 -16 -17 -18 18 33 -21 -22 -23 -24 -25 -26 26 -28 37 -30 30 -32 -33 -34 -35 -36 -37 -38 -39
leaf_value=-0.25655332553874555 0.17834120627958938 0.11196960798497328 0.00080688853503988205 -0.25834676724926725 0.067834431460516847 0.12544603035736529 0.34648205378246721 0.07050301044237399 0.36027912685144936 -0.16332285070861977 -0.19659557843902817 -0.26508396287374664 -0.25271930508323531 -0.21678282997332418 -0.25185125549894449 0.318369819029164 -0.2415615551989404 0.38082121224927995 -0.00035511361530799829 0.30220063966883454 0.06753715120143558 0.20776256534377674 0.044766271896218776 0.32672446939632344 -0.14524412310195614 0.016494339277862407 -0.2398745181358832 0.39261668313795717 0.11827378987154229 -0.22355973493686232 -0.015246171868822852 -0.095831466790529923 -0.074020219084387093 -0.10682653091428208 -0.16441987977816219 0.25205515429193837 -0.1446498963794573 0.31252203843490539
leaf_weight=69.379896014928818 32.994311213493347 29.327876329421997 29.168814718723297 19.674261152744293 35.771924078464508 24.26817375421524 95.366693913936615 31.931528389453888 25.748670279979706 70.615955322980881 23.758151412010193 89.524613171815872 109.7714096903801 20.436472743749619 25.719225168228149 16.193280041217804 21.766060173511505 16.434708952903748 26.44363871216774 17.60664963722229 21.791180610656738 24.392161190509796 27.840359449386597 36.516072869300842 23.132285058498383 43.183645725250244 45.060177773237228 41.431117117404938 18.374871253967285 23.233892202377319 19.637640446424484 16.586998552083969 22.712945222854614 21.748707950115204 23.506559461355209 24.128836810588837 25.854075729846954 50.08756685256958
leaf_count=72 34 28 26 23 30 23 126 31 32 61 17 104 246 34 36 18 22 22 25 19 21 29 24 50 16 39 56 53 22 28 29 13 34 18 28 27 49 68
internal_value=0 -0.113855 0.140142 0.209819 0.00596459 -0.0483137 0.242718 0.201894 0.194038 -0.0767964 0.0109031 -0.14768 -0.130368 -0.0978841 -0.0378669 -0.0115633 -0.0395038 -0.013849 0.0772736 0.118205 0.271598 0.0508631 -0.0919389 0.234176 -0.0211063 -0.177925 -0.115637 0.300862 0.249404 -0.219512 -0.130663 -0.239769 -0.146946 -0.0495994 -0.235237 0.213279 -0.180406 0.352633
internal_weight=0 749.253 591.868 389.198 202.67 43.9424 345.256 249.889 61.5206 141.15 70.5336 683.409 577.298 424.655 243.524 217.805 201.612 179.846 83.0019 46.7755 170.433 79.456 96.8439 65.8439 55.0638 181.13 88.2438 148.642 34.8096 152.643 42.8715 106.112 69.0035 48.1923 92.8865 57.1231 46.2905 91.5187
internal_count=1633 997 636 451 185 46 405 279 62 123 62 919 802 499 304 268 250 228 87 45 203 76 141 78 47 195 95 182 44 303 57 117 117 43 100 61 83 121
shrinkage=0.3


Tree=12
num_leaves=46
num_cat=0
split_feature=1551 1266 1572 1578 1578 41 1051 1676 1568 1574 394 1601 1562 1570 1590 1674 1555 1562 1566 1587 1682 1590 1570 1595 1578 1555 1555 1555 1555 1570 1566 1674 1570 1562 1554 1589 1578 1578 1676 1566 1555 1601 1578 1570 1570
split_gain=53.2076 54.1374 36.3797 33.2292 22.109 33.4508 19.9509 23.669 19.8986 14.6478 9.96192 11.6945 17.7596 17.3081 9.94619 9.63891 9.49477 8.63034 7.17782 9.67937 8.31653 12.5339 10.2281 7.84556 7.07388 6.56313 5.19171 4.68753 4.78662 5.53559 3.46642 2.90884 2.81987 2.66678 2.61855 2.54353 2.17288 1.94666 1.62405 1.53414 0.966295 0.809687 1.98505 0.414023 0.107388
threshold=1.0000000180025095e-35 1.0000000180025095e-35 1.0000000180025095e-35 2635199.0000000005 58.500000000000007 1.0000000180025095e-35 1.0000000180025095e-35 1.0000000180025095e-35 23.333333333333339 1.0000000180025095e-35 1.0000000180025095e-35 1.0000000180025095e-35 0.91993951920182593 3.7495206870790168 3.0724214092771764 1.0000000180025095e-35 5.5000000000000009 0.79575757575757589 16.500000000000004 9.5000000000000018 1.0000000180025095e-35 3.6890576115189204 3.0364744698854786 2.0000000000000004 86398.500000000015 12.500000000000002 1.5000000000000002 8.5000000000000018 14.500000000000002 3.3695880458828831 1.0000000180025095e-35 1.0000000180025095e-35 5.2037006345881549 0.982977207977208 1.0000000180025095e-35 8.5000000000000018 86398.500000000015 5399.0000000000009 1.0000000180025095e-35 26.250000000000004 10.500000000000002 -1.0000000180025095e-35 1498.5000000000002 3.7595866238851303 3.2320239964902981
decision_type=2 2 2 2 2 2 2 2 2 2 2 2 2 2 2 2 2 2 2 2 2 2 2 2 2 2 2 2 2 2 2 2 2 2 2 2 2 2 2 2 2 2 2 2 2
left_child=6 2 4 8 5 14 7 10 -4 33 11 17 13 36 16 35 38 -1 19 26 22 -22 -20 27 -10 43 31 32 29 44 -28 41 -24 -9 -11 -5 -13 -15 -2 -30 -31 42 -6 -23 -29
right_child=1 -3 3 15 18 -7 -8 9 24 34 -12 12 -14 37 -16 -17 -18 -19 20 -21 21 25 23 -25 -26 -27 30 28 39 40 -32 -33 -34 -35 -36 -37 -38 -39 -40 -41 -42 -43 -44 -45 -46
leaf_value=0.11972089305624173 -0.12461392381272246 0.27890245681140835 -0.092871518956350263 -0.24015548523281149 -0.040849672466591394 -0.23808870636757912 -0.10547766727996942 -0.20694748967215679 0.33265250374644345 0.11886967190164839 0.31437656595743768 0.079037639214191921 0.35834955858107775 0.17088486173607176 0.2481136264594303 0.024721803139433264 0.21529353834315548 -0.068577776266474738 0.046313297118315541 0.094488683130999535 0.1800848769680698 -0.14423706606186792 -0.2512193177550272 -0.0068876129090821702 0.14718044971341182 0.045081561948585279 -0.039302634476294132 0.025558303772373257 -0.094594909580776473 -0.091575512223992669 -0.24357453577547317 0.082298502327921672 -0.038352596014916328 -0.059927844083356184 0.014368091021095746 -0.026111963601787785 -0.026301681228953447 0.28656051626481854 0.0038746030289283397 -0.25028592341143319 -0.24068845774320921 -0.019272512347003116 -0.22480418954441325 -0.24841093960382526 0.074770290433406911
leaf_weight=52.280588328838348 15.554269790649412 42.783930540084839 20.569086521863937 30.839205995202065 13.039533883333204 32.627478063106537 44.474376231431961 23.048311471939087 35.78210175037384 46.449296116828918 29.849191904067993 30.373936653137207 37.308088660240173 32.451305031776428 30.91638571023941 28.246413826942444 16.295888721942902 36.348961234092712 16.507676959037781 24.932985752820969 14.593193158507345 11.738549113273622 141.24493160843849 18.480226248502731 43.236234098672867 12.359916508197783 10.476822078227995 9.8661693334579486 9.0080614387989026 9.2647595107555407 29.545062735676765 11.469132542610167 6.2410786598920813 22.757479310035706 40.152133464813232 6.2377610504627219 39.397983133792877 34.011154770851135 18.906718194484711 30.839550688862801 9.7013033628463727 11.006734013557436 8.5690824687480909 16.886375844478607 8.2631607651710492
leaf_count=36 20 37 30 122 23 30 31 19 28 30 25 20 27 24 24 18 13 26 28 34 23 16 377 27 31 16 11 22 21 20 77 17 13 21 17 7 28 26 26 72 21 15 25 41 18
internal_value=0 -0.0449041 -0.0649718 0.0580486 -0.102695 0.0143147 0.0839414 0.103991 0.166454 -0.00126614 0.151558 0.131897 0.177 0.125088 0.116807 -0.107237 0.0335787 0.0425919 -0.134195 -0.0669813 -0.157176 -0.0507292 -0.179699 -0.195186 0.234276 -0.135245 -0.115396 -0.210592 -0.147044 -0.0668152 -0.192362 -0.0428061 -0.242531 -0.136745 0.0711354 -0.205777 0.0200247 0.23345 -0.0559985 -0.218267 -0.176083 -0.0879384 -0.120515 -0.212002 0.0507247
internal_weight=0 746.03 703.246 164.911 538.335 114.301 468.903 424.428 99.5874 132.407 292.021 262.172 173.542 136.234 81.6733 65.3234 50.7569 88.6295 424.034 109.039 314.995 55.578 259.417 242.909 79.0183 40.9848 84.1064 224.429 76.943 37.0954 40.0219 44.0845 147.486 45.8058 86.6014 37.077 69.7719 66.4625 34.461 39.8476 18.9661 32.6154 21.6086 28.6249 18.1293
internal_count=1633 1303 1266 236 1030 113 330 299 89 87 212 187 125 98 83 147 59 62 917 202 715 96 619 591 59 73 168 564 174 81 88 80 390 40 47 129 48 50 46 93 41 63 48 57 40
shrinkage=0.3


Tree=13
num_leaves=34
num_cat=0
split_feature=1112 1599 1590 1566 1573 1550 1578 1551 1578 1578 1555 1570 1570 1587 1688 1053 1578 1589 1051 1571 1578 1566 1672 1570 1555 1566 1553 1570 1050 1578 1566 1590 1570
split_gain=62.9848 36.8554 28.7136 27.1566 25.8705 19.8433 24.4602 37.4279 22.0966 20.9776 24.634 22.8058 20.5714 19.261 16.301 19.4792 25.1003 15.7174 17.7186 14.4559 12.6689 27.117 11.5989 10.756 10.7395 8.688 7.6091 6.85444 6.63919 3.57284 2.10095 0.343906 0.222097
threshold=1.0000000180025095e-35 1.0000000180025095e-35 4.7153619579743706 284.28095238095244 1.0000000180025095e-35 1.0000000180025095e-35 31535998.500000004 1.0000000180025095e-35 1498.5000000000002 1209598.5000000002 3.5000000000000004 3.8738062437462948 3.6305888046327235 41.500000000000007 1.0000000180025095e-35 1.0000000180025095e-35 604798.50000000012 29.500000000000004 1.0000000180025095e-35 0.046967772666717193 33695998.500000007 27.500000000000004 1.0000000180025095e-35 3.4655926450380736 1.5000000000000002 9.5000000000000018 1.0000000180025095e-35 4.0533648066316976 1.0000000180025095e-35 90503999.000000015 15.333333333333334 3.7181339414680172 3.374138867995137
decision_type=2 2 2 2 2 2 2 2 2 2 2 2 2 2 2 2 2 2 2 2 2 2 2 2 2 2 2 2 2 2 2 2 2
left_child=1 2 3 5 -3 6 7 12 28 10 30 -12 14 19 15 16 24 18 -4 20 21 23 -11 25 -1 -8 -22 -14 -9 32 -10 -24 -28
right_child=-2 4 17 -5 -6 -7 13 8 9 22 11 -13 27 -15 -16 -17 -18 -19 -20 -21 26 -23 31 -25 -26 -27 29 -29 -30 -31 -32 -33 -34
leaf_value=-0.037695864152396834 0.21281676240112007 -0.24247545715896957 -0.2651139190513348 0.29247383104830965 0.16841680886006025 -0.25987508358447914 0.10239259674502728 -0.25805102638558086 0.13518301591700249 -0.26360275401759742 -0.26933345113788426 0.14952912765893775 -0.25014644730127972 0.21459237669791728 0.27220322032580191 0.18129635070110592 0.21512196834534281 0.12500305821086882 0.056893235453305935 -0.17382303821236966 0.20123213356900074 -0.27063953078675812 -0.042791211922350032 0.22871779763129585 -0.27435391067429532 -0.13852156614380137 -0.0018950801194842235 0.025519489400776908 -0.063105931923482086 0.12992211455757474 0.27120186331646123 0.021582739913542145 -0.056826340668420364
leaf_weight=72.386621177196503 114.0403191447258 94.886597096920013 71.033497825264931 29.761260271072388 15.379777848720549 23.619359537959099 29.945008769631386 77.497192591428757 25.539884209632874 40.655108600854874 27.826182007789612 18.850386023521423 22.94065997004509 72.047527372837067 35.085302710533142 66.789420366287231 30.22677755355835 15.356526792049406 19.155876189470291 24.85598412156105 63.371373802423477 26.045822441577911 15.791702270507814 26.525214195251465 21.836288034915924 22.86004438996315 11.922157406806948 12.022885262966154 20.637716203927994 21.327359080314636 22.269002467393875 12.611650466918944 14.110704660415648
leaf_count=64 42 321 182 10 14 59 20 191 30 96 48 9 38 28 16 28 14 10 32 35 35 54 30 18 29 38 13 14 51 8 14 15 27
internal_value=0 -0.0204208 -0.00210597 0.0155088 -0.184166 0.00559091 0.0133928 -0.0263033 -0.106306 -0.0383026 0.0534395 -0.100587 0.0539184 0.0795881 0.0870935 0.0518934 -0.0184459 -0.149285 -0.196847 0.0385021 0.0636112 -0.0109118 -0.162795 0.0766699 -0.0948469 -0.00253863 0.133993 -0.15728 -0.218104 0.0417211 0.202798 -0.014446 -0.0326704
internal_weight=0 1105.17 994.904 889.359 110.266 859.597 835.978 522.967 261.679 163.544 94.4855 46.6766 261.288 313.011 226.324 191.239 124.45 105.546 90.1894 240.964 216.108 105.376 69.0585 79.3303 94.2229 52.8051 110.732 34.9635 98.1349 47.3602 47.8089 28.4034 26.0329
internal_count=1633 1591 1256 1032 335 1022 963 687 484 242 101 57 203 276 151 135 107 224 214 248 213 130 141 76 93 58 83 52 242 48 44 45 40
shrinkage=0.3


Tree=14
num_leaves=45
num_cat=0
split_feature=1673 1562 1553 1050 1056 1669 1578 1682 1589 1051 1587 1570 1570 1562 1562 1578 1578 1576 1578 1570 1653 1587 1570 1554 1589 1676 1578 1570 1555 1570 1570 1578 1585 1578 1570 1687 1590 1570 1578 1589 1570 1568 1555 1555
split_gain=118.523 49.2799 47.1022 38.9617 22.7022 33.4484 20.5709 17.6613 11.6815 11.47 11.2591 15.6072 11.121 9.03466 8.77467 7.79806 14.896 10.2742 7.68442 7.51476 6.70624 5.71134 8.17033 5.03167 3.85919 3.79255 4.38753 3.37111 4.36884 2.39958 4.49169 1.7485 1.62637 1.76575 1.27088 2.08194 0.658467 0.46321 0.531814 0.354633 0.323216 0.267745 0.0755954 1.87563
threshold=1.0000000180025095e-35 0.70525457643139433 1.0000000180025095e-35 1.0000000180025095e-35 1.0000000180025095e-35 1.0000000180025095e-35 1829.0000000000002 1.0000000180025095e-35 1.0000000180025095e-35 1.0000000180025095e-35 15.500000000000002 3.3275768848056386 5.3417786781271781 0.7407936315021878 0.67299107142857151 389436.50000000006 1798.5000000000002 1.0000000180025095e-35 32659198.500000004 3.1538984978071758 1.0000000180025095e-35 41.500000000000007 4.1945050509334676 1.0000000180025095e-35 2.5000000000000004 1.0000000180025095e-35 439058282.00000006 3.1752537068644364 12.500000000000002 2.2867786311375933 3.9302738091999707 898.50000000000011 1.0000000180025095e-35 31589999.000000004 3.4655926450380736 0.99074074074074081 3.8229115459051179 3.8515906188311493 1049.0000000000002 -6.4999999999999991 3.3835328650686436 12.500000000000002 12.500000000000002 16.500000000000004
decision_type=2 2 2 2 2 2 2 2 2 2 2 2 2 2 2 2 2 2 2 2 2 2 2 2 2 2 2 2 2 2 2 2 2 2 2 2 2 2 2 2 2 2 2 2
left_child=2 18 3 4 5 7 13 8 9 15 32 14 21 -7 -12 16 29 -17 40 -18 -9 22 23 31 -14 26 -19 28 -3 -1 -31 -13 -4 -34 35 -29 -23 38 -33 -11 -2 -27 -37 -44
right_child=1 27 10 -5 -6 6 -8 20 -10 39 11 12 24 -15 -16 17 19 25 -20 -21 -22 36 -24 -25 -26 41 -28 34 -30 30 -32 37 33 -35 -36 42 -38 -39 -40 -41 -42 -43 43 -45
leaf_value=-0.033100914711528678 -0.14481890560913183 0.23176528328261278 -0.25678782225858726 0.26975078801415731 -0.25800525474163249 0.12130186681635034 -0.081924692326145035 0.18026556659615336 0.11219935544884298 -0.26776144814607772 -0.050703097590253002 -0.062024231018412694 0.14344086796797387 0.3204169248897763 0.24867114895696341 0.12597040836171819 0.16772531153488154 -0.079906485142767672 0.068891503967388176 -0.065607570266766974 -0.00066417341437566171 -0.13717608949255028 0.13830844561340069 0.042109094978335822 -0.075597704301521754 -0.1440019747382453 -0.24311195379271294 0.13716552326580334 0.02699798754975067 -0.250735813791994 -0.016426692708260301 -0.15007881836425749 -0.042158953110967748 -0.23102018178916084 0.35390073469351113 0.28105381885584513 -0.24562481594933411 -0.11858831127026823 -0.25498747793558757 -0.1750789369791208 -0.24227186040656262 -0.24577806361762927 0.14668184393431044 0.30155506962789064
leaf_weight=16.470613420009613 12.693716615438463 27.499494045972824 74.806818440556526 42.236285030841827 34.512457966804504 53.663114011287689 30.320776104927063 32.321643233299255 24.927460700273514 28.041926205158234 21.040074482560158 9.6425265669822675 12.952525585889818 34.510390222072601 13.836003154516218 13.453106582164763 38.290986001491547 83.91294227540493 13.294479280710219 17.513501405715942 41.260253965854645 10.162562847137449 9.2249502390623075 9.8354906141757947 14.127293437719343 8.5440439879894239 17.629406481981277 16.045982420444489 14.409210801124571 21.941358670592308 11.061313122510908 12.211906105279921 9.2113863825798052 8.7540046423673612 19.797324866056442 83.517261445522308 68.482788488268852 8.0280927419662458 26.119206324219704 14.929260015487669 14.531541824340819 27.125799968838692 18.414504945278168 16.123444557189941
leaf_count=22 18 38 121 47 31 49 27 31 32 34 27 18 20 35 25 16 40 91 19 19 36 16 19 11 20 9 28 17 17 37 18 55 19 24 26 114 175 18 45 26 23 78 21 21
internal_value=0 0.184234 -0.0540341 -0.00449347 -0.0259881 -0.00999819 0.129236 -0.0517318 -0.0818548 -0.0983577 -0.148905 -0.110432 -0.145765 0.201953 0.0716853 -0.0736883 -0.0108506 -0.117235 -0.114673 0.094631 0.0801626 -0.176824 -0.115144 -0.152196 0.0305477 -0.14182 -0.110336 0.246357 0.163631 -0.129348 -0.174996 -0.186461 -0.236212 -0.141514 0.267683 0.252429 -0.233509 -0.210487 -0.22623 -0.240275 -0.203575 -0.225991 0.266812 0.225433
internal_weight=0 236.327 901.102 592.667 550.43 515.918 118.494 397.424 323.842 298.914 308.436 215.663 180.787 88.1735 34.8761 255.943 105.278 150.665 40.5197 55.8045 73.5819 153.708 75.0622 65.8372 27.0798 137.212 101.542 195.807 41.9087 49.4733 33.0027 56.0017 92.7722 17.9654 153.899 134.101 78.6454 46.3592 38.3311 42.9712 27.2253 35.6698 118.055 34.5379
internal_count=1633 314 1319 706 659 628 111 517 450 418 613 449 397 84 52 358 136 222 60 59 67 357 166 147 40 206 119 254 55 77 55 136 164 43 199 173 191 118 100 60 41 87 156 42
shrinkage=0.3


Tree=15
num_leaves=47
num_cat=0
split_feature=1575 1657 1589 1578 1553 1586 1570 1587 1677 1573 1673 1551 1670 1590 1590 1553 1590 1600 1571 1555 1583 1566 1588 1555 1555 1578 1590 1578 1570 1578 1574 1142 1555 11 1562 1550 1590 1578 1687 1566 1585 1578 1590 1566 1566 1578
split_gain=129.645 59.4792 30.2071 35.773 29.3307 27.956 25.6733 24.6485 17.4121 10.9642 13.7253 11.6094 9.86159 7.97303 12.9663 7.96888 7.74854 14.2783 15.4532 10.1662 6.64713 6.60721 18.2613 5.93062 5.00277 4.68825 4.24902 3.97908 3.2629 3.71153 5.6866 3.14695 2.40781 2.22721 8.16663 1.69893 1.53338 1.85192 1.46509 1.34511 0.877996 0.801082 0.766549 0.330893 0.160295 0.0616619
threshold=1.0000000180025095e-35 1.0000000180025095e-35 31.500000000000004 209.00000000000003 1.0000000180025095e-35 1.0000000180025095e-35 3.8297113149868038 13.500000000000002 1.0000000180025095e-35 1.0000000180025095e-35 1.0000000180025095e-35 1.0000000180025095e-35 1.0000000180025095e-35 1.2500000000000002 3.1194739867463599 1.0000000180025095e-35 2.5124494855594826 4.5000000000000009 0.055517873012916628 8.5000000000000018 1.0000000180025095e-35 36.500000000000007 48.500000000000007 3.5000000000000004 7.5000000000000009 31535999.500000004 5.236601137103599 15551998.500000002 1.5127976565354577 1829.0000000000002 1.0000000180025095e-35 1.0000000180025095e-35 4.5000000000000009 1.0000000180025095e-35 0.75455931473349913 1.0000000180025095e-35 1.8820971370499404 129599.00000000001 0.64968344889960816 1.2500000000000002 1.0000000180025095e-35 2591997.5000000005 5.3591266254469856 16.500000000000004 15.333333333333334 1798.5000000000002
decision_type=2 2 2 2 2 2 2 2 2 2 2 2 2 2 2 2 2 2 2 2 2 2 2 2 2 2 2 2 2 2 2 2 2 2 2 2 2 2 2 2 2 2 2 2 2 2
left_child=1 9 3 7 -5 8 -7 -2 12 10 11 13 21 32 -15 16 20 18 19 23 28 36 -23 41 -19 -11 -24 -10 29 30 45 40 -1 34 -3 44 39 -38 -16 -6 -12 -18 -28 -39 -9 -13
right_child=2 33 -4 4 5 6 -8 35 27 25 31 15 -14 14 38 -17 17 24 -20 -21 -22 22 26 -25 -26 -27 42 -29 -30 -31 -32 -33 -34 -35 -36 -37 37 43 -40 -41 -42 -43 -44 -45 -46 -47
leaf_value=-0.24624203452955121 0.19301374990596737 0.26218052625679089 -0.2454602854111696 -0.15588602061425755 0.28954537292749177 -0.21798089907448345 0.21256366927390202 -0.14882758686502212 0.13529489042055198 -0.25356548794217104 -0.24187954074281803 -0.20544117032018261 0.080127854014113251 0.051214345480355826 -0.22560974750714147 -0.201971577154439 0.181784100676919 -0.23137129863568978 -0.15204082300056956 -0.00044144663528076329 0.10966287953403776 -0.013234288358250678 0.32352970054166585 0.35112620683775697 0.0024358653455818936 -0.061799126800181764 0.12085324850613728 -0.039763143354322766 -0.23809230642304258 0.063130938855203517 0.053348417494853154 -0.057380212197512215 -0.10141898843029946 0.27446134343885631 -0.046661053081596071 -0.077700913111732814 0.21425244504511359 0.24833047651151383 -0.091252974680248095 0.44777239407159014 -0.13628355873766246 0.078406038027427349 0.22219317240940067 0.34018948587783532 -0.21545085856425736 -0.13883589303811103
leaf_weight=56.167323023080826 26.292540103197098 18.697148084640506 20.01207047700882 24.137590646743774 23.264825224876404 27.722704410552979 21.038277685642242 22.44131150841713 19.824411034584045 70.660489469766617 70.393333524465561 21.137917011976242 33.0611971616745 36.954993426799774 29.977873891592026 23.300867915153503 15.744269371032717 20.379580140113831 19.518104761838913 29.419744849205017 12.043453872203825 27.452931821346283 51.300886690616608 18.894458949565887 13.364272862672804 14.579116076231001 16.951135575771332 25.863181710243225 16.677175581455231 11.231968075037001 11.657698184251784 12.015498101711271 15.088098973035811 23.405862748622894 12.223780483007429 23.795647710561752 41.773508965969086 22.371193289756775 12.196471720933912 15.964718163013456 12.943679988384245 15.766819000244139 20.693061590194702 39.764650881290436 18.512074440717697 13.330803275108336
leaf_count=77 30 21 17 23 31 19 30 16 25 104 224 53 33 35 48 15 18 31 25 31 12 25 81 22 20 13 27 22 16 10 22 14 23 42 27 20 69 34 17 21 28 22 27 56 30 27
internal_value=0 -0.0942137 0.107917 0.122458 0.160062 0.180117 -0.0316807 -0.0472766 0.210649 -0.1227 -0.104968 -0.0798151 0.237471 -0.145047 -0.07799 -0.0389269 -0.020754 0.0246055 0.0818281 0.140185 -0.0903616 0.25713 0.200462 0.220675 -0.141367 -0.221863 0.265833 0.0374676 -0.123928 -0.0872229 -0.124397 -0.206696 -0.217404 0.203258 0.142451 -0.146303 0.3015 0.274864 -0.189768 0.363467 -0.227289 0.134061 0.180868 0.311574 -0.183361 -0.184322
internal_weight=0 627.771 522.238 502.226 411.184 387.047 48.761 91.0416 338.286 573.444 488.204 392.852 292.598 150.385 79.1293 242.467 219.166 133.087 99.3434 79.8253 86.079 259.537 116.398 50.4055 33.7439 85.2396 88.9451 45.6876 74.0356 57.3584 46.1264 95.3525 71.2554 54.3268 30.9209 64.749 143.139 103.909 42.1743 39.2295 83.337 31.5111 37.6442 62.1358 40.9534 34.4687
internal_count=1633 997 636 619 523 500 49 96 451 907 790 524 404 200 100 324 309 169 118 93 140 371 160 62 51 117 135 47 128 112 102 266 100 90 48 66 211 159 65 52 252 40 54 90 46 80
shrinkage=0.3


Tree=16
num_leaves=42
num_cat=0
split_feature=1575 1573 1124 1590 1678 1670 1068 1572 1687 1585 1570 1671 1570 1578 1555 1562 1551 1568 1600 1555 1588 1570 1590 1578 1687 1600 1677 1590 1568 1053 1601 1674 387 1588 1578 1551 1587 1578 1554 1590 1590
split_gain=34.1067 34.6246 40.688 23.2994 21.2716 19.4818 18.4615 34.6754 16.4805 22.0587 17.144 13.2879 12.9575 10.5704 9.20784 7.71594 8.95642 9.16845 9.85815 8.20521 7.52758 6.9222 5.66189 5.5575 5.48965 7.8912 6.49829 6.49288 4.8644 4.70295 3.35838 12.7169 2.5406 1.98712 1.38397 1.1234 0.878047 0.733353 0.616532 6.30987 0.292885
threshold=1.0000000180025095e-35 1.0000000180025095e-35 1.0000000180025095e-35 5.4655609304980111 1.0000000180025095e-35 1.0000000180025095e-35 1.0000000180025095e-35 1.0000000180025095e-35 0.10307459677419356 1.0000000180025095e-35 3.2753870306134201 1.0000000180025095e-35 3.8068838141170676 1829.0000000000002 11.500000000000002 0.3884743796508503 1.0000000180025095e-35 77.861904761904768 2.0000000000000004 11.500000000000002 33.500000000000007 3.7435828129813369 1.9609640474436814 898.50000000000011 0.27951388888888895 2.0000000000000004 1.0000000180025095e-35 3.0650528102753829 9.2500000000000018 1.0000000180025095e-35 1.0000000180025095e-35 1.0000000180025095e-35 1.0000000180025095e-35 8.5000000000000018 1798.5000000000002 1.0000000180025095e-35 9.5000000000000018 1498.5000000000002 1.0000000180025095e-35 3.7495206870790168 3.6258175170573961
decision_type=2 2 2 2 2 2 2 2 2 2 2 2 2 2 2 2 2 2 2 2 2 2 2 2 2 2 2 2 2 2 2 2 2 2 2 2 2 2 2 2 2
left_child=1 2 4 5 8 14 7 36 9 10 22 15 -12 -7 24 -10 23 18 19 33 -21 -9 28 -17 25 26 30 -28 29 35 -2 -32 -6 -18 -24 -1 -3 -37 39 -27 -15
right_child=3 6 -4 -5 32 13 -8 21 11 -11 12 -13 -14 40 -16 16 17 -19 -20 20 -22 -23 34 -25 -26 38 27 -29 -30 -31 31 -33 -34 -35 -36 37 -38 -39 -40 -41 -42
leaf_value=-0.097177139950374206 -0.23645873633851694 -0.089938465820385449 0.30493605780737126 0.17758694891889795 0.10682863986188396 0.16617964341914324 0.38369677071454211 0.14578726038567286 -0.33500941984776172 -0.20512871709605904 0.30573495916353766 0.13881556655047297 0.053014359944227256 -0.12994426143456511 0.067230830645922418 -0.078720696543808213 -0.049484505278083658 0.14347776431021977 0.016933856821216935 0.079149674242774234 -0.15997245367312737 0.33698524718405409 -0.1606993087437586 0.072097471082628928 -0.26568230738925236 0.18644476444427246 0.16562829641833501 -0.14966554534583154 0.16635948333209924 0.096139855568758953 -0.24846931079598925 0.16317484957143444 0.26189108928333443 -0.24249196350463265 -0.042006186846827304 0.019767504026730477 -0.016931570411377585 -0.064873679024734773 0.058315469662746262 -0.21073648916689722 -0.057290975520628812
leaf_weight=21.522734761238098 74.121580936014652 29.989055395126343 37.793712347745895 27.436691910028458 20.367108255624771 30.179125130176544 27.394903540611267 33.913388431072235 10.651599228382109 30.956295847892761 35.807155519723892 22.923775255680084 37.244999825954437 11.237616896629335 15.604218944907187 43.658108502626419 5.726409673690795 10.16367334127426 29.427852585911751 17.6821468770504 32.126230895519257 39.51800411939621 16.4965580701828 42.323519006371498 41.595183305442333 5.608823761343956 8.858702629804613 13.591898828744887 19.983185946941376 32.494790554046631 18.553593590855598 9.4761025905609149 21.634959816932678 79.486444026231766 19.858799129724503 23.80991068482399 29.520639926195145 13.704489648342131 12.440710425376892 6.9368150979280472 13.386140465736387
