tree
version=v3
num_class=4
num_tree_per_iteration=4
label_index=0
max_feature_idx=1688
objective=multiclass num_class:4
feature_names=Column_0 Column_1 Column_2 Column_3 Column_4 Column_5 Column_6 Column_7 Column_8 Column_9 Column_10 Column_11 Column_12 Column_13 Column_14 Column_15 Column_16 Column_17 Column_18 Column_19 Column_20 Column_21 Column_22 Column_23 Column_24 Column_25 Column_26 Column_27 Column_28 Column_29 Column_30 Column_31 Column_32 Column_33 Column_34 Column_35 Column_36 Column_37 Column_38 Column_39 Column_40 Column_41 Column_42 Column_43 Column_44 Column_45 Column_46 Column_47 Column_48 Column_49 Column_50 Column_51 Column_52 Column_53 Column_54 Column_55 Column_56 Column_57 Column_58 Column_59 Column_60 Column_61 Column_62 Column_63 Column_64 Column_65 Column_66 Column_67 Column_68 Column_69 Column_70 Column_71 Column_72 Column_73 Column_74 Column_75 Column_76 Column_77 Column_78 Column_79 Column_80 Column_81 Column_82 Column_83 Column_84 Column_85 Column_86 Column_87 Column_88 Column_89 Column_90 Column_91 Column_92 Column_93 Column_94 Column_95 Column_96 Column_97 Column_98 Column_99 Column_100 Column_101 Column_102 Column_103 Column_104 Column_105 Column_106 Column_107 Column_108 Column_109 Column_110 Column_111 Column_112 Column_113 Column_114 Column_115 Column_116 Column_117 Column_118 Column_119 Column_120 Column_121 Column_122 Column_123 Column_124 Column_125 Column_126 Column_127 Column_128 Column_129 Column_130 Column_131 Column_132 Column_133 Column_134 Column_135 Column_136 Column_137 Column_138 Column_139 Column_140 Column_141 Column_142 Column_143 Column_144 Column_145 Column_146 Column_147 Column_148 Column_149 Column_150 Column_151 Column_152 Column_153 Column_154 Column_155 Column_156 Column_157 Column_158 Column_159 Column_160 Column_161 Column_162 Column_163 Column_164 Column_165 Column_166 Column_167 Column_168 Column_169 Column_170 Column_171 Column_172 Column_173 Column_174 Column_175 Column_176 Column_177 Column_178 Column_179 Column_180 Column_181 Column_182 Column_183 Column_184 Column_185 Column_186 Column_187 Column_188 Column_189 Column_190 Column_191 Column_192 Column_193 Column_194 Column_195 Column_196 Column_197 Column_198 Column_199 Column_200 Column_201 Column_202 Column_203 Column_204 Column_205 Column_206 Column_207 Column_208 Column_209 Column_210 Column_211 Column_212 Column_213 Column_214 Column_215 Column_216 Column_217 Column_218 Column_219 Column_220 Column_221 Column_222 Column_223 Column_224 Column_225 Column_226 Column_227 Column_228 Column_229 Column_230 Column_231 Column_232 Column_233 Column_234 Column_235 Column_236 Column_237 Column_238 Column_239 Column_240 Column_241 Column_242 Column_243 Column_244 Column_245 Column_246 Column_247 Column_248 Column_249 Column_250 Column_251 Column_252 Column_253 Column_254 Column_255 Column_256 Column_257 Column_258 Column_259 Column_260 Column_261 Column_262 Column_263 Column_264 Column_265 Column_266 Column_267 Column_268 Column_269 Column_270 Column_271 Column_272 Column_273 Column_274 Column_275 Column_276 Column_277 Column_278 Column_279 Column_280 Column_281 Column_282 Column_283 Column_284 Column_285 Column_286 Column_287 Column_288 Column_289 Column_290 Column_291 Column_292 Column_293 Column_294 Column_295 Column_296 Column_297 Column_298 Column_299 Column_300 Column_301 Column_302 Column_303 Column_304 Column_305 Column_306 Column_307 Column_308 Column_309 Column_310 Column_311 Column_312 Column_313 Column_314 Column_315 Column_316 Column_317 Column_318 Column_319 Column_320 Column_321 Column_322 Column_323 Column_324 Column_325 Column_326 Column_327 Column_328 Column_329 Column_330 Column_331 Column_332 Column_333 Column_334 Column_335 Column_336 Column_337 Column_338 Column_339 Column_340 Column_341 Column_342 Column_343 Column_344 Column_345 Column_346 Column_347 Column_348 Column_349 Column_350 Column_351 Column_352 Column_353 Column_354 Column_355 Column_356 Column_357 Column_358 Column_359 Column_360 Column_361 Column_362 Column_363 Column_364 Column_365 Column_366 Column_367 Column_368 Column_369 Column_370 Column_371 Column_372 Column_373 Column_374 Column_375 Column_376 Column_377 Column_378 Column_379 Column_380 Column_381 Column_382 Column_383 Column_384 Column_385 Column_386 Column_387 Column_388 Column_389 Column_390 Column_391 Column_392 Column_393 Column_394 Column_395 Column_396 Column_397 Column_398 Column_399 Column_400 Column_401 Column_402 Column_403 Column_404 Column_405 Column_406 Column_407 Column_408 Column_409 Column_410 Column_411 Column_412 Column_413 Column_414 Column_415 Column_416 Column_417 Column_418 Column_419 Column_420 Column_421 Column_422 Column_423 Column_424 Column_425 Column_426 Column_427 Column_428 Column_429 Column_430 Column_431 Column_432 Column_433 Column_434 Column_435 Column_436 Column_437 Column_438 Column_439 Column_440 Column_441 Column_442 Column_443 Column_444 Column_445 Column_446 Column_447 Column_448 Column_449 Column_450 Column_451 Column_452 Column_453 Column_454 Column_455 Column_456 Column_457 Column_458 Column_459 Column_460 Column_461 Column_462 Column_463 Column_464 Column_465 Column_466 Column_467 Column_468 Column_469 Column_470 Column_471 Column_472 Column_473 Column_474 Column_475 Column_476 Column_477 Column_478 Column_479 Column_480 Column_481 Column_482 Column_483 Column_484 Column_485 Column_486 Column_487 Column_488 Column_489 Column_490 Column_491 Column_492 Column_493 Column_494 Column_495 Column_496 Column_497 Column_498 Column_499 Column_500 Column_501 Column_502 Column_503 Column_504 Column_505 Column_506 Column_507 Column_508 Column_509 Column_510 Column_511 Column_512 Column_513 Column_514 Column_515 Column_516 Column_517 Column_518 Column_519 Column_520 Column_521 Column_522 Column_523 Column_524 Column_525 Column_526 Column_527 Column_528 Column_529 Column_530 Column_531 Column_532 Column_533 Column_534 Column_535 Column_536 Column_537 Column_538 Column_539 Column_540 Column_541 Column_542 Column_543 Column_544 Column_545 Column_546 Column_547 Column_548 Column_549 Column_550 Column_551 Column_552 Column_553 Column_554 Column_555 Column_556 Column_557 Column_558 Column_559 Column_560 Column_561 Column_562 Column_563 Column_564 Column_565 Column_566 Column_567 Column_568 Column_569 Column_570 Column_571 Column_572 Column_573 Column_574 Column_575 Column_576 Column_577 Column_578 Column_579 Column_580 Column_581 Column_582 Column_583 Column_584 Column_585 Column_586 Column_587 Column_588 Column_589 Column_590 Column_591 Column_592 Column_593 Column_594 Column_595 Column_596 Column_597 Column_598 Column_599 Column_600 Column_601 Column_602 Column_603 Column_604 Column_605 Column_606 Column_607 Column_608 Column_609 Column_610 Column_611 Column_612 Column_613 Column_614 Column_615 Column_616 Column_617 Column_618 Column_619 Column_620 Column_621 Column_622 Column_623 Column_624 Column_625 Column_626 Column_627 Column_628 Column_629 Column_630 Column_631 Column_632 Column_633 Column_634 Column_635 Column_636 Column_637 Column_638 Column_639 Column_640 Column_641 Column_642 Column_643 Column_644 Column_645 Column_646 Column_647 Column_648 Column_649 Column_650 Column_651 Column_652 Column_653 Column_654 Column_655 Column_656 Column_657 Column_658 Column_659 Column_660 Column_661 Column_662 Column_663 Column_664 Column_665 Column_666 Column_667 Column_668 Column_669 Column_670 Column_671 Column_672 Column_673 Column_674 Column_675 Column_676 Column_677 Column_678 Column_679 Column_680 Column_681 Column_682 Column_683 Column_684 Column_685 Column_686 Column_687 Column_688 Column_689 Column_690 Column_691 Column_692 Column_693 Column_694 Column_695 Column_696 Column_697 Column_698 Column_699 Column_700 Column_701 Column_702 Column_703 Column_704 Column_705 Column_706 Column_707 Column_708 Column_709 Column_710 Column_711 Column_712 Column_713 Column_714 Column_715 Column_716 Column_717 Column_718 Column_719 Column_720 Column_721 Column_722 Column_723 Column_724 Column_725 Column_726 Column_727 Column_728 Column_729 Column_730 Column_731 Column_732 Column_733 Column_734 Column_735 Column_736 Column_737 Column_738 Column_739 Column_740 Column_741 Column_742 Column_743 Column_744 Column_745 Column_746 Column_747 Column_748 Column_749 Column_750 Column_751 Column_752 Column_753 Column_754 Column_755 Column_756 Column_757 Column_758 Column_759 Column_760 Column_761 Column_762 Column_763 Column_764 Column_765 Column_766 Column_767 Column_768 Column_769 Column_770 Column_771 Column_772 Column_773 Column_774 Column_775 Column_776 Column_777 Column_778 Column_779 Column_780 Column_781 Column_782 Column_783 Column_784 Column_785 Column_786 Column_787 Column_788 Column_789 Column_790 Column_791 Column_792 Column_793 Column_794 Column_795 Column_796 Column_797 Column_798 Column_799 Column_800 Column_801 Column_802 Column_803 Column_804 Column_805 Column_806 Column_807 Column_808 Column_809 Column_810 Column_811 Column_812 Column_813 Column_814 Column_815 Column_816 Column_817 Column_818 Column_819 Column_820 Column_821 Column_822 Column_823 Column_824 Column_825 Column_826 Column_827 Column_828 Column_829 Column_830 Column_831 Column_832 Column_833 Column_834 Column_835 Column_836 Column_837 Column_838 Column_839 Column_840 Column_841 Column_842 Column_843 Column_844 Column_845 Column_846 Column_847 Column_848 Column_849 Column_850 Column_851 Column_852 Column_853 Column_854 Column_855 Column_856 Column_857 Column_858 Column_859 Column_860 Column_861 Column_862 Column_863 Column_864 Column_865 Column_866 Column_867 Column_868 Column_869 Column_870 Column_871 Column_872 Column_873 Column_874 Column_875 Column_876 Column_877 Column_878 Column_879 Column_880 Column_881 Column_882 Column_883 Column_884 Column_885 Column_886 Column_887 Column_888 Column_889 Column_890 Column_891 Column_892 Column_893 Column_894 Column_895 Column_896 Column_897 Column_898 Column_899 Column_900 Column_901 Column_902 Column_903 Column_904 Column_905 Column_906 Column_907 Column_908 Column_909 Column_910 Column_911 Column_912 Column_913 Column_914 Column_915 Column_916 Column_917 Column_918 Column_919 Column_920 Column_921 Column_922 Column_923 Column_924 Column_925 Column_926 Column_927 Column_928 Column_929 Column_930 Column_931 Column_932 Column_933 Column_934 Column_935 Column_936 Column_937 Column_938 Column_939 Column_940 Column_941 Column_942 Column_943 Column_944 Column_945 Column_946 Column_947 Column_948 Column_949 Column_950 Column_951 Column_952 Column_953 Column_954 Column_955 Column_956 Column_957 Column_958 Column_959 Column_960 Column_961 Column_962 Column_963 Column_964 Column_965 Column_966 Column_967 Column_968 Column_969 Column_970 Column_971 Column_972 Column_973 Column_974 Column_975 Column_976 Column_977 Column_978 Column_979 Column_980 Column_981 Column_982 Column_983 Column_984 Column_985 Column_986 Column_987 Column_988 Column_989 Column_990 Column_991 Column_992 Column_993 Column_994 Column_995 Column_996 Column_997 Column_998 Column_999 Column_1000 Column_1001 Column_1002 Column_1003 Column_1004 Column_1005 Column_1006 Column_1007 Column_1008 Column_1009 Column_1010 Column_1011 Column_1012 Column_1013 Column_1014 Column_1015 Column_1016 Column_1017 Column_1018 Column_1019 Column_1020 Column_1021 Column_1022 Column_1023 Column_1024 Column_1025 Column_1026 Column_1027 Column_1028 Column_1029 Column_1030 Column_1031 Column_1032 Column_1033 Column_1034 Column_1035 Column_1036 Column_1037 Column_1038 Column_1039 Column_1040 Column_1041 Column_1042 Column_1043 Column_1044 Column_1045 Column_1046 Column_1047 Column_1048 Column_1049 Column_1050 Column_1051 Column_1052 Column_1053 Column_1054 Column_1055 Column_1056 Column_1057 Column_1058 Column_1059 Column_1060 Column_1061 Column_1062 Column_1063 Column_1064 Column_1065 Column_1066 Column_1067 Column_1068 Column_1069 Column_1070 Column_1071 Column_1072 Column_1073 Column_1074 Column_1075 Column_1076 Column_1077 Column_1078 Column_1079 Column_1080 Column_1081 Column_1082 Column_1083 Column_1084 Column_1085 Column_1086 Column_1087 Column_1088 Column_1089 Column_1090 Column_1091 Column_1092 Column_1093 Column_1094 Column_1095 Column_1096 Column_1097 Column_1098 Column_1099 Column_1100 Column_1101 Column_1102 Column_1103 Column_1104 Column_1105 Column_1106 Column_1107 Column_1108 Column_1109 Column_1110 Column_1111 Column_1112 Column_1113 Column_1114 Column_1115 Column_1116 Column_1117 Column_1118 Column_1119 Column_1120 Column_1121 Column_1122 Column_1123 Column_1124 Column_1125 Column_1126 Column_1127 Column_1128 Column_1129 Column_1130 Column_1131 Column_1132 Column_1133 Column_1134 Column_1135 Column_1136 Column_1137 Column_1138 Column_1139 Column_1140 Column_1141 Column_1142 Column_1143 Column_1144 Column_1145 Column_1146 Column_1147 Column_1148 Column_1149 Column_1150 Column_1151 Column_1152 Column_1153 Column_1154 Column_1155 Column_1156 Column_1157 Column_1158 Column_1159 Column_1160 Column_1161 Column_1162 Column_1163 Column_1164 Column_1165 Column_1166 Column_1167 Column_1168 Column_1169 Column_1170 Column_1171 Column_1172 Column_1173 Column_1174 Column_1175 Column_1176 Column_1177 Column_1178 Column_1179 Column_1180 Column_1181 Column_1182 Column_1183 Column_1184 Column_1185 Column_1186 Column_1187 Column_1188 Column_1189 Column_1190 Column_1191 Column_1192 Column_1193 Column_1194 Column_1195 Column_1196 Column_1197 Column_1198 Column_1199 Column_1200 Column_1201 Column_1202 Column_1203 Column_1204 Column_1205 Column_1206 Column_1207 Column_1208 Column_1209 Column_1210 Column_1211 Column_1212 Column_1213 Column_1214 Column_1215 Column_1216 Column_1217 Column_1218 Column_1219 Column_1220 Column_1221 Column_1222 Column_1223 Column_1224 Column_1225 Column_1226 Column_1227 Column_1228 Column_1229 Column_1230 Column_1231 Column_1232 Column_1233 Column_1234 Column_1235 Column_1236 Column_1237 Column_1238 Column_1239 Column_1240 Column_1241 Column_1242 Column_1243 Column_1244 Column_1245 Column_1246 Column_1247 Column_1248 Column_1249 Column_1250 Column_1251 Column_1252 Column_1253 Column_1254 Column_1255 Column_1256 Column_1257 Column_1258 Column_1259 Column_1260 Column_1261 Column_1262 Column_1263 Column_1264 Column_1265 Column_1266 Column_1267 Column_1268 Column_1269 Column_1270 Column_1271 Column_1272 Column_1273 Column_1274 Column_1275 Column_1276 Column_1277 Column_1278 Column_1279 Column_1280 Column_1281 Column_1282 Column_1283 Column_1284 Column_1285 Column_1286 Column_1287 Column_1288 Column_1289 Column_1290 Column_1291 Column_1292 Column_1293 Column_1294 Column_1295 Column_1296 Column_1297 Column_1298 Column_1299 Column_1300 Column_1301 Column_1302 Column_1303 Column_1304 Column_1305 Column_1306 Column_1307 Column_1308 Column_1309 Column_1310 Column_1311 Column_1312 Column_1313 Column_1314 Column_1315 Column_1316 Column_1317 Column_1318 Column_1319 Column_1320 Column_1321 Column_1322 Column_1323 Column_1324 Column_1325 Column_1326 Column_1327 Column_1328 Column_1329 Column_1330 Column_1331 Column_1332 Column_1333 Column_1334 Column_1335 Column_1336 Column_1337 Column_1338 Column_1339 Column_1340 Column_1341 Column_1342 Column_1343 Column_1344 Column_1345 Column_1346 Column_1347 Column_1348 Column_1349 Column_1350 Column_1351 Column_1352 Column_1353 Column_1354 Column_1355 Column_1356 Column_1357 Column_1358 Column_1359 Column_1360 Column_1361 Column_1362 Column_1363 Column_1364 Column_1365 Column_1366 Column_1367 Column_1368 Column_1369 Column_1370 Column_1371 Column_1372 Column_1373 Column_1374 Column_1375 Column_1376 Column_1377 Column_1378 Column_1379 Column_1380 Column_1381 Column_1382 Column_1383 Column_1384 Column_1385 Column_1386 Column_1387 Column_1388 Column_1389 Column_1390 Column_1391 Column_1392 Column_1393 Column_1394 Column_1395 Column_1396 Column_1397 Column_1398 Column_1399 Column_1400 Column_1401 Column_1402 Column_1403 Column_1404 Column_1405 Column_1406 Column_1407 Column_1408 Column_1409 Column_1410 Column_1411 Column_1412 Column_1413 Column_1414 Column_1415 Column_1416 Column_1417 Column_1418 Column_1419 Column_1420 Column_1421 Column_1422 Column_1423 Column_1424 Column_1425 Column_1426 Column_1427 Column_1428 Column_1429 Column_1430 Column_1431 Column_1432 Column_1433 Column_1434 Column_1435 Column_1436 Column_1437 Column_1438 Column_1439 Column_1440 Column_1441 Column_1442 Column_1443 Column_1444 Column_1445 Column_1446 Column_1447 Column_1448 Column_1449 Column_1450 Column_1451 Column_1452 Column_1453 Column_1454 Column_1455 Column_1456 Column_1457 Column_1458 Column_1459 Column_1460 Column_1461 Column_1462 Column_1463 Column_1464 Column_1465 Column_1466 Column_1467 Column_1468 Column_1469 Column_1470 Column_1471 Column_1472 Column_1473 Column_1474 Column_1475 Column_1476 Column_1477 Column_1478 Column_1479 Column_1480 Column_1481 Column_1482 Column_1483 Column_1484 Column_1485 Column_1486 Column_1487 Column_1488 Column_1489 Column_1490 Column_1491 Column_1492 Column_1493 Column_1494 Column_1495 Column_1496 Column_1497 Column_1498 Column_1499 Column_1500 Column_1501 Column_1502 Column_1503 Column_1504 Column_1505 Column_1506 Column_1507 Column_1508 Column_1509 Column_1510 Column_1511 Column_1512 Column_1513 Column_1514 Column_1515 Column_1516 Column_1517 Column_1518 Column_1519 Column_1520 Column_1521 Column_1522 Column_1523 Column_1524 Column_1525 Column_1526 Column_1527 Column_1528 Column_1529 Column_1530 Column_1531 Column_1532 Column_1533 Column_1534 Column_1535 Column_1536 Column_1537 Column_1538 Column_1539 Column_1540 Column_1541 Column_1542 Column_1543 Column_1544 Column_1545 Column_1546 Column_1547 Column_1548 Column_1549 Column_1550 Column_1551 Column_1552 Column_1553 Column_1554 Column_1555 Column_1556 Column_1557 Column_1558 Column_1559 Column_1560 Column_1561 Column_1562 Column_1563 Column_1564 Column_1565 Column_1566 Column_1567 Column_1568 Column_1569 Column_1570 Column_1571 Column_1572 Column_1573 Column_1574 Column_1575 Column_1576 Column_1577 Column_1578 Column_1579 Column_1580 Column_1581 Column_1582 Column_1583 Column_1584 Column_1585 Column_1586 Column_1587 Column_1588 Column_1589 Column_1590 Column_1591 Column_1592 Column_1593 Column_1594 Column_1595 Column_1596 Column_1597 Column_1598 Column_1599 Column_1600 Column_1601 Column_1602 Column_1603 Column_1604 Column_1605 Column_1606 Column_1607 Column_1608 Column_1609 Column_1610 Column_1611 Column_1612 Column_1613 Column_1614 Column_1615 Column_1616 Column_1617 Column_1618 Column_1619 Column_1620 Column_1621 Column_1622 Column_1623 Column_1624 Column_1625 Column_1626 Column_1627 Column_1628 Column_1629 Column_1630 Column_1631 Column_1632 Column_1633 Column_1634 Column_1635 Column_1636 Column_1637 Column_1638 Column_1639 Column_1640 Column_1641 Column_1642 Column_1643 Column_1644 Column_1645 Column_1646 Column_1647 Column_1648 Column_1649 Column_1650 Column_1651 Column_1652 Column_1653 Column_1654 Column_1655 Column_1656 Column_1657 Column_1658 Column_1659 Column_1660 Column_1661 Column_1662 Column_1663 Column_1664 Column_1665 Column_1666 Column_1667 Column_1668 Column_1669 Column_1670 Column_1671 Column_1672 Column_1673 Column_1674 Column_1675 Column_1676 Column_1677 Column_1678 Column_1679 Column_1680 Column_1681 Column_1682 Column_1683 Column_1684 Column_1685 Column_1686 Column_1687 Column_1688
feature_infos=[0:1] [0:1] [0:1] [0:1] [0:1] none none none [0:1] none none [0:1] none none none none none none none none none none none none none none none none none none none none none none none none none none none none none [0:1] none none none none none none none none none none none none none none none none none none none none none none none none none none none none none none none none none none none none none none none none none none none none none none none none none none none none none none none none none [0:1] none none none none none none none none none none none none none none none none none none none none none none none none none none none none none none none none none none none none none none none none none none none none none none none none none none none none none none none none none none none none none none none none none none none none none none none none none none none none none none none none none none none none none none none none none none none none none none none none none none none none none none none none none none none none none none none none none none none none none none none none none none none none none none none none none none none none none none none none none none none none none none none none none none none none none none none none none none none none none none none none none none none none none none none none none none none none none none none none none none none none none none none none none none none none none none none none none none none none none none none none none none none none none none none none none none none none none none none none none none none none none none none none none none none none none none none none none none none none none none none none none none none none none none none none none none none none none none none none none none none none none none none none none none none none none none none none none none none none none none none none none none none none none none none [0:1] none none none none none none [0:1] none none none none none none none none none none none none none none none none none none none none none none none none none none none none none none none none none none none none none none none none none none none none none none none none none none none none none none none none none none none none none none none none none none none none none none none none none none none none none none none none none none none none none none none none none none none none none none none none none none none none none none none none none [0:1] none none [0:1] none [0:1] none none none none none [0:1] none none none none none none none none none none none none none none none none none none none none none none none none none none none none none none none none none none none none none none none none none none none none none none none none none none none none none none none none none none none none none none none none none none none none none none none none none none none none none none none none none none none none none none none none none none none none none none none none none none none none none none none none none none none none none none none none none none none none none none none none none none none none none none none none none none none none none none none none none none none none none none none none none none none none none none none none none none none none none none none none none none none none none none none none none none none none none none none none none none none none none none none none none none none none none none none none none none none none none none none none none none none none none none none none none none none none none none none none none none none none none none none none none none none none none none none none none none none none none none none none none none none none none none none none none none none none none none none none none none none none none none none none none none none none none none none none none none none none none none none none none none none none none none none none none none none none none none none none none none none none none none none none none none none none none none none none none none none none none none none none none none none none none none none none none none none none none none none none none none none none none none none none none none none none none none none none none none none none none none none none none none none none none none none none none none none none none none none none none none none none none none none none none none none none none none none none none none none none none none none none none none none none none none none none none none none none none none none none none none none none none none none none none none none none none none none none none none none none none none none none none none none none none none none none none none none none none none none none none none none none none none none none none none none none none none none none none none none none none none none none none none none none none none none none none none none none none none none none none none none none none none none none none none none none none none none none none none none none none none none none none none none none none none none none none none none none none none none none none none [0:1] [0:1] none [0:1] [0:1] none [0:1] none none none none none [0:1] none none none none none [0:1] none none none [0:1] none none none none none none none none none none none none none [0:1] none none none none none none none none none none none none none none none none none none none none none none none none none [0:1] none none none none none none none none none none none [0:1] none none none none none none none none none none none none none none none none none [0:1] [0:1] none none none none none none none none none none none none none none none none none none none none none none none none [0:1] none none none none none none none none none none none none none none none none none none none none none none none none none none none none none none none none none none none none none none none none none none none none none none none none none none none none none none none none none none none none none none none none none none none none none none none none none none none none none none none none none none none none none none none none none none none none none none none none none [0:1] none none none none none none none none none none none none none none none none none none none none none none none none none none none none none none none none none none none none none none none none none none none none none none none none none none none none none none none none none none none none none none none none none none none none none none none none none none none none none none none none none none none none none none none none none none none none none none none none none none none none none none none none none none none none none none none none none none none none none none none none none none none none none none none none none none none none none none none none none none none none none none none none none none none none none none none none none none none none none none none none none none none none none none none none none none none none none none none none none none none none none none none none none none none none none none none none none none none none none none none none none none none none none none none none none none none none none none none none none none none none none none none none none none none none none none none none none none none none none none none none none none none none none none none none none none none [0:1] none none none none none none none none none none none none none none none none none none none none none none none none none none none none none none none [0:1] [0:1] [0:1] [0:1] [0:1] [1:123] none [0:1] none none [0:1] [0:1] [-1:1] [-1:0.69962416974542008] [-1:1036] [-1:205.46337873207477] [0:878] [-1:732.56262530926324] [8:680] [-1:371.93816690412399] [0:5.8781221759355171] [-1:3.0443308980832842] [-1:1] [-1:1] [-1:1] [-1:1] [-1:1] none [0:251789028888] [-1:1] none [-1:1] [-1:1] [-1:1] [-1:1] [-1:1] [-1:1] [0:878] [8:680] [-8:209] [0:5.8781221759355171] [-1:1] none none none [-1:11] none none [-1:48] [-1:6] [-1:7] [-1:1] [-1:1] [0:1] none [0:1] none none [0:1] [0:1] none none [0:1] none none none none none none none none none none none none none none none none none none none none none none none none none none none none none none none none none none none none none none none none [-1:1] [-1:1] [-1:1] [-1:1] [-1:1] [-1:8] none none none none none none none none none none [-1:1] [-1:1] [-1:1] [-1:1] [-1:1] [-1:1] [-1:1] [-1:1] [-1:1] [-1:1] none none none [-1:1] none none none [-1195378024:63242940] [0:1] [0:1036]
tree_sizes=3784 3468 3271 3908 4356 3302 3943 4141 4903 3723 3944 4254 3830 3720 4482 4565 4073 2133 4472 4900 4994 2789 5015 4468 5847 3715 4046 4704

Tree=0
num_leaves=35
num_cat=0
split_feature=1551 1266 8 1568 1562 1578 1587 1560 1575 1587 1587 1566 1142 1601 1574 1669 1572 1578 1570 1578 1590 1570 1682 1555 1555 1565 1569 1566 1587 1578 1555 1555 1590 1570
split_gain=495.412 514.543 364.391 181.457 159.754 105.498 344.175 49.6964 43.5882 32.2905 26.9348 17.8875 16.4927 15.7843 31.053 32.4177 13.5379 100.834 11.6122 10.1113 7.70077 8.59034 7.22619 8.7289 4.50416 3.86021 7.58502 5.57372 12.3898 1.77221 1.52764 3.90489 0.707463 0.0293352
threshold=1.0000000180025095e-35 1.0000000180025095e-35 1.0000000180025095e-35 31.637500000000003 0.53082272057657787 11.500000000000002 14.500000000000002 1.0000000180025095e-35 1.0000000180025095e-35 25.500000000000004 1.5000000000000002 63.833333333333336 1.0000000180025095e-35 1.0000000180025095e-35 1.0000000180025095e-35 1.0000000180025095e-35 1.0000000180025095e-35 86398.500000000015 1.0684028754600869 63113850.500000007 3.931589283466034 3.7347102166497286 1.0000000180025095e-35 2.5000000000000004 2.5000000000000004 0.49779731389167609 1.8485007784429446 17.000000000000004 9.5000000000000018 15551998.500000002 8.5000000000000018 14.500000000000002 5.2914874476509768 3.1172803385285408
decision_type=2 2 2 2 2 2 2 2 2 2 2 2 2 2 2 2 2 2 2 2 2 2 2 2 2 2 2 2 2 2 2 2 2 2
left_child=3 2 5 7 9 6 8 13 10 -5 -2 -11 16 14 15 -1 19 -18 -15 22 21 29 25 -24 -13 27 -27 28 -7 -19 33 -32 -22 -29
right_child=1 -3 -4 4 -6 12 -8 -9 -10 11 -12 24 -14 18 -16 -17 17 20 -20 -21 32 -23 23 -25 -26 26 -28 30 -30 -31 31 -33 -34 -35
leaf_value=-1.2076116876332028 -1.5804538401436408 -0.5220048627117656 -0.60612131576454675 -0.50395216009998045 -1.3415155215890475 -1.6160167890965911 -0.62659804741901703 -1.6165899790502143 -1.6668848225960795 -0.98169717050419769 -1.1102021458484186 -0.83693259281754417 -1.3542915978723458 -0.99986377593230313 -1.155595318563756 -1.5940176124917973 -0.8163005478915506 -1.5121669405291529 -1.2570048161427736 -1.4062480747183426 -1.6655368570172921 -1.3601376644096499 -1.6126240853625164 -1.3678575734126888 -0.5917505471354666 -1.4002401164440565 -1.6556344537648497 -1.6095430920220315 -1.3846806933463292 -1.6552743874890825 -1.5563675388102347 -1.6656525466841763 -1.5602169336697458 -1.668652429364855
leaf_weight=36.222768783569336 18.156521677970886 48.343777239322662 37.68153703212738 43.95560610294342 51.408961892127991 135.72177940607071 45.191113471984863 31.184207081794739 105.2398020029068 46.515750885009766 24.708690166473389 28.109927475452423 26.744346559047699 41.497365891933441 95.457003116607666 40.189812481403351 15.855165898799894 18.792069256305695 27.028784096240997 21.525496125221252 71.056610822677612 22.71938943862915 28.948933720588684 23.32598340511322 25.408193230628967 21.023309350013733 20.421893179416656 27.415740311145782 24.761680006980896 19.88817173242569 63.778900563716888 73.102918982505798 14.616469562053679 280.12238430976868
leaf_count=25 23 41 30 37 39 153 41 22 55 38 25 21 29 33 58 25 16 23 19 30 88 11 36 26 22 22 22 38 26 23 78 87 22 349
internal_value=-1.36785 -1.47068 -1.51159 -1.10635 -0.886604 -1.54318 -1.34201 -1.26563 -1.56381 -0.725488 -1.30969 -0.830419 -1.5859 -1.21927 -1.2688 -1.41114 -1.59292 -1.51325 -1.09823 -1.61072 -1.5916 -1.50691 -1.61696 -1.50546 -0.70843 -1.62575 -1.5299 -1.63204 -1.58065 -1.59114 -1.65008 -1.61647 -1.65 -1.66418
internal_weight=0 1189.14 1140.8 466.978 195.398 1103.12 193.296 271.58 148.105 143.989 42.8652 100.034 909.821 240.396 171.87 76.4126 883.077 162.928 68.5261 720.149 147.073 61.3996 698.624 52.2749 53.5181 646.349 41.4452 604.903 160.483 38.6802 444.42 136.882 85.6731 307.538
internal_count=1633 1294 1253 339 157 1223 144 182 103 118 48 81 1079 160 108 50 1050 183 52 867 167 57 837 62 43 775 44 731 179 46 552 165 110 387
shrinkage=1


Tree=1
num_leaves=32
num_cat=0
split_feature=1112 1554 1551 1578 1568 1591 1570 1590 1590 1575 1578 1587 1588 1566 1601 1555 1578 1555 1578 1570 1674 1578 1585 1600 1562 1570 1578 1573 1575 1587 1589
split_gain=850.165 282.964 195.842 89.5379 79.7632 99.8518 76.1308 111.004 47.0378 46.8908 44.1423 63.1511 51.4989 43.8891 72.412 43.2029 65.6042 34.3719 26.6139 22.1411 15.8573 46.3643 13.5095 33.414 10.1652 9.73721 7.20693 5.80749 5.20302 3.10172 3.07133
threshold=1.0000000180025095e-35 1.0000000180025095e-35 1.0000000180025095e-35 31535998.500000004 30.500000000000004 1.0000000180025095e-35 3.6899748398804153 4.7656750345229115 3.0015562710796035 1.0000000180025095e-35 1498.5000000000002 47.000000000000007 41.500000000000007 9.5000000000000018 1.0000000180025095e-35 5.5000000000000009 604798.50000000012 3.5000000000000004 734399.00000000012 2.1867786311375927 1.0000000180025095e-35 33695998.500000007 1.0000000180025095e-35 4.5000000000000009 0.96044030589599894 3.8245933167863546 31535998.500000004 1.0000000180025095e-35 1.0000000180025095e-35 44.500000000000007 -4.4999999999999991
decision_type=2 2 2 2 2 2 2 2 2 2 2 2 2 2 2 2 2 2 2 2 2 2 2 2 2 2 2 2 2 2 2
left_child=1 2 4 -3 8 9 13 10 15 29 -8 12 25 14 19 16 27 -13 -16 28 -15 26 23 30 -9 -12 -22 -1 -4 -6 -14
right_child=-2 3 6 -5 5 -7 7 24 -10 -11 11 17 22 20 18 -17 -18 -19 -20 -21 21 -23 -24 -25 -26 -27 -28 -29 -30 -31 -32
leaf_value=-1.2385494944769042 -0.61066946156979751 -1.215716218301659 -1.6844108313123387 -0.64141560989210278 -1.683888088033807 -1.0261242993006654 -1.6760687343259357 -1.6850507799780949 -0.83167829144616623 -1.2570342014814349 -1.0153652160616946 -0.77584355031676389 -1.6724059308954602 -1.6868176817225469 -1.4043728564090769 -1.5544705249957449 -0.84387309687971701 -1.2275606850466125 -0.98696356445308786 -1.3169292480160473 -1.6839521466454683 -1.1698524862893107 -1.6774376614340447 -1.1164361828525939 -1.4128416759894931 -1.2964314802084191 -1.4675010491618343 -1.3878794116990123 -1.5172552767987226 -1.5616687700760448 -1.4980067407409379
leaf_weight=59.349121510982513 116.5991063117981 56.429111361503601 92.392248749732971 43.20243775844574 79.315654218196869 39.9693363904953 24.955024719238281 115.6404795050621 30.66226589679718 35.264078795909882 27.92290061712265 28.723356962203979 18.706938982009888 372.02799069881439 27.093169033527374 30.006923854351044 40.19545704126358 32.940842688083649 26.750490963459015 20.466194987297058 80.717681407928467 21.763243317604065 28.443931698799133 19.634462654590607 14.025129199028013 19.341398656368256 17.756104946136475 38.320810377597809 23.233689248561859 31.77898097038269 20.773633599281311
leaf_count=44 46 45 114 17 72 25 23 167 16 26 21 17 28 483 27 31 21 31 20 19 104 19 39 15 14 19 22 32 32 28 16
internal_value=-1.38777 -1.44794 -1.48237 -0.961745 -1.29986 -1.44076 -1.55037 -1.43667 -1.16803 -1.55567 -1.3076 -1.25958 -1.37533 -1.60872 -1.48553 -1.2324 -1.1616 -1.01074 -1.19347 -1.60165 -1.65597 -1.55883 -1.5113 -1.42787 -1.65602 -1.12611 -1.64612 -1.29655 -1.65222 -1.65079 -1.58563
internal_weight=0 1517.8 1418.17 99.6315 384.863 186.328 1033.31 351.108 198.535 146.359 221.442 196.487 134.823 682.201 189.936 167.872 137.865 61.6642 53.8437 136.092 492.265 120.237 87.559 59.115 129.666 47.2643 98.4738 97.6699 115.626 111.095 39.4806
internal_count=1633 1587 1525 62 295 151 1230 390 144 126 209 186 138 840 212 128 97 48 47 165 628 145 98 59 181 40 126 76 146 100 44
shrinkage=1


Tree=2
num_leaves=30
num_cat=0
split_feature=1599 1584 1050 1553 1551 1669 1600 1555 1578 1672 1266 1555 1562 1673 1578 1602 1578 1564 1551 1601 1570 1566 1555 1657 1555 1570 1588 1570 1566
split_gain=1415.92 532.253 376.556 119.202 117.924 225.626 72.723 27.1679 39.2303 26.0247 30.0064 17.1987 17.2152 16.7054 16.5461 16.2577 14.1144 10.8698 4.82219 8.16849 4.35186 21.7746 3.20916 1.84195 1.70301 1.17628 0.963578 0.928574 0.266132
threshold=3.5000000000000004 1.0000000180025095e-35 1.0000000180025095e-35 1.0000000180025095e-35 1.0000000180025095e-35 1.0000000180025095e-35 4.5000000000000009 5.5000000000000009 5399.0000000000009 1.0000000180025095e-35 1.0000000180025095e-35 8.5000000000000018 0.96044030589599894 1.0000000180025095e-35 31492798.000000004 1.0000000180025095e-35 3598.5000000000005 17.900000000000002 1.0000000180025095e-35 1.0000000180025095e-35 3.413096578734955 20.500000000000004 1.5000000000000002 1.0000000180025095e-35 2.5000000000000004 3.1999025224674602 43.500000000000007 5.2796858118671137 10.500000000000002
decision_type=2 2 2 2 2 2 2 2 2 2 2 2 2 2 2 2 2 2 2 2 2 2 2 2 2 2 2 2 2
left_child=2 23 3 4 7 6 9 15 -9 10 11 12 16 18 -8 24 -6 -10 19 -5 21 25 -4 -2 26 -20 28 -22 -1
right_child=1 -3 22 13 5 -7 14 8 17 -11 -12 -13 -14 -15 -16 -17 -18 -19 20 -21 27 -23 -24 -25 -26 -27 -28 -29 -30
leaf_value=-1.6451653707330225 -0.51927044188928406 -1.6909707950392225 -0.8242578266569649 -1.687447494119843 -1.5075161956397076 -0.75857714199474835 -1.319594589123229 -1.0809277483933397 -1.4277861750047689 -1.665612293177672 -1.6660087614173282 -1.1990056521571755 -1.6229629936377175 -1.4150724635586138 -0.97806582439987844 -1.4364727971525972 -1.1779509331579849 -1.6865842038305066 -1.6808052334605801 -1.4686252937688051 -1.6822299983071052 -1.29601871873366 -0.55375785571296854 -0.73967637528371821 -1.5729563146393377 -1.5704045948611476 -1.5940048050516578 -1.5934840933796113 -1.6926340679786018
leaf_weight=134.77106457948685 184.13620883226395 43.139323472976685 19.475936651229858 28.028141856193542 21.115524411201477 51.334339499473572 23.043841421604156 21.660435318946838 32.680122911930084 69.12267279624939 39.206972897052765 36.82056850194931 29.127448678016663 27.708778738975525 29.282466769218445 41.279142916202545 24.010535895824432 25.781597852706909 74.33926922082901 34.419141888618469 396.24977970123291 16.768526375293732 24.029007852077484 19.707844734191895 40.543508112430573 16.692078351974487 39.554391145706177 20.608675003051758 57.520573496818542
leaf_count=80 227 69 21 18 20 66 21 24 31 63 34 37 28 38 33 29 29 17 93 30 389 20 30 24 27 22 31 31 51
internal_value=-1.399 -0.739135 -1.5179 -1.54649 -1.46322 -1.32899 -1.43871 -1.57324 -1.41704 -1.51463 -1.44389 -1.3638 -1.44709 -1.64331 -1.12416 -1.61296 -1.33117 -1.54483 -1.65404 -1.56984 -1.66371 -1.60519 -0.659218 -0.537257 -1.63947 -1.66264 -1.6503 -1.67832 -1.66081
internal_weight=0 246.983 1375.17 1331.67 716.855 323.064 271.73 393.791 80.1222 219.404 150.281 111.074 74.2535 614.814 52.3263 313.669 45.1261 58.4617 587.106 62.4473 524.658 107.8 43.5049 203.844 272.39 91.0313 231.846 416.858 192.292
internal_count=1633 320 1313 1262 621 331 265 290 72 211 148 114 77 641 54 218 49 48 603 48 555 135 51 251 189 115 162 420 131
shrinkage=1


Tree=3
num_leaves=36
num_cat=0
split_feature=1575 1674 1584 1551 1589 1574 1572 1657 1550 1566 1578 1570 1599 1551 1578 1578 1670 1673 1562 1674 1555 1590 1590 1590 4 1570 1669 1566 1562 1578 1568 1555 1570 1563 1578
split_gain=924.778 498.369 453.406 322.217 145.123 142.576 125.007 57.1182 56.2586 29.8772 22.7233 23.5718 16.38 24.5154 22.8948 18.6125 34.0853 14.8395 11.8651 9.37098 10.4548 6.77712 17.3018 5.11742 4.83805 7.32656 4.54652 4.29085 1.98043 1.96908 1.3763 1.3049 0.856607 0.310231 0.0591731
threshold=1.0000000180025095e-35 1.0000000180025095e-35 1.0000000180025095e-35 1.0000000180025095e-35 1.0000000180025095e-35 1.0000000180025095e-35 1.0000000180025095e-35 1.0000000180025095e-35 1.0000000180025095e-35 3.5000000000000004 34032598.500000007 3.74997061907166 3.5000000000000004 1.0000000180025095e-35 32659198.500000004 1997997.5000000002 1.0000000180025095e-35 1.0000000180025095e-35 0.98363245277945832 1.0000000180025095e-35 5.5000000000000009 1.2500000000000002 3.1212020325853387 2.0587462305923778 1.0000000180025095e-35 3.325075672979287 1.0000000180025095e-35 1.9130434782608698 0.96320075757575763 11.500000000000002 39.062500000000007 7.5000000000000009 3.4832318118061818 0.063144035199489565 1209598.5000000002
decision_type=2 2 2 2 2 2 2 2 2 2 2 2 2 2 2 2 2 2 2 2 2 2 2 2 2 2 2 2 2 2 2 2 2 2 2
left_child=2 3 12 -2 9 6 8 -4 10 -5 11 30 13 21 15 16 19 26 33 24 -21 31 23 -23 25 27 -11 29 34 -15 -3 -1 -14 -17 -24
right_child=1 5 7 4 -6 -7 -8 -9 -10 17 -12 -13 32 14 -16 18 -18 -19 -20 20 -22 22 28 -25 -26 -27 -28 -29 -30 -31 -32 -33 -34 -35 -36
leaf_value=-1.6886719265531489 -1.5875191548479899 -0.98063138075967382 -1.2616226742466845 -0.98783937890357976 -1.2370712170722413 -1.6347063144760776 -1.6421195848629486 -0.54276390133812735 -0.53281655090089708 -0.55562882416673443 -1.4039613277101572 -1.3025815887755192 -1.6887697082499686 -1.4418294153585869 -1.2483017797602405 -1.6873302066839271 -1.1194579992079186 -0.89906924037303593 -1.4841655982801374 -1.2978013840817986 -1.5517759175523713 -1.3524122844648336 -1.6867764881471863 -1.5308878086018676 -1.6803086775273313 -1.6791352650211244 -0.76855962343742135 -1.3697453558767398 -1.5659039799441679 -1.5595922044381041 -0.76046459394659727 -1.59647669854181 -1.5888279421076694 -1.6103300785657597 -1.6214224146307454
leaf_weight=175.29178863763809 45.493903279304504 16.263680756092075 13.638268291950224 23.884616136550903 44.158902049064636 125.16967910528183 36.173866868019104 40.272971868515015 18.620452880859375 174.38873851299286 18.304722785949707 17.11087566614151 186.05569183826447 18.240185439586639 23.336847484111786 97.507273614406586 19.15306144952774 20.1488938331604 40.305173933506012 28.308544099330902 28.112953066825867 24.202343285083771 82.333041906356812 33.668593466281891 28.76907479763031 25.660158634185791 26.069487333297729 18.574643075466156 25.415344595909119 52.70291393995285 14.586448073387144 26.059852659702301 16.664364278316498 21.409702003002167 25.014933466911316
leaf_count=115 32 20 14 29 39 64 17 64 30 277 15 14 227 23 24 84 22 30 35 27 26 21 63 25 35 18 39 23 22 59 22 23 21 15 19
internal_value=-1.39082 -1.08719 -1.55867 -0.849104 -0.732446 -1.41116 -1.17991 -0.718953 -0.982312 -0.6423 -1.1195 -1.01288 -1.60472 -1.58476 -1.53209 -1.5499 -1.49252 -0.606877 -1.62789 -1.52935 -1.42495 -1.63828 -1.59525 -1.45686 -1.56976 -1.53989 -0.580094 -1.49724 -1.65462 -1.53044 -0.86001 -1.67781 -1.68157 -1.67541 -1.67382
internal_weight=0 580.374 1050.7 334.145 288.651 246.23 121.06 53.9112 84.8862 244.492 66.2657 47.961 996.786 794.066 402.081 378.744 219.522 220.607 159.222 200.368 56.4215 391.986 190.634 57.8709 143.947 115.178 200.458 89.5177 132.763 70.9431 30.8501 201.352 202.72 118.917 107.348
internal_count=1633 628 1005 446 414 182 118 78 101 375 71 56 927 679 391 367 233 346 134 211 53 288 150 46 158 123 316 105 104 82 42 138 248 99 82
shrinkage=1


Tree=4
num_leaves=40
num_cat=0
split_feature=1551 1266 1670 1572 1564 1578 1578 1589 1575 1573 1578 1555 1568 1555 1682 1565 1568 1595 1589 1587 1578 1601 1578 1570 1578 1600 1562 1571 1568 1677 1570 1601 1674 1555 1555 1565 1570 1554 1578
split_gain=218.123 191.252 149.383 72.1743 80.1443 67.1257 25.6709 23.4187 22.8231 72.9194 47.5794 24.2638 17.687 16.5187 16.1014 14.5969 12.6172 13.259 9.80069 6.96709 6.88956 6.26292 12.3032 10.6727 5.70454 4.97093 3.91729 5.02829 8.11904 2.56043 7.85654 1.74067 1.1927 1.13769 2.80854 0.719352 0.336032 0.321956 0.242286
threshold=1.0000000180025095e-35 1.0000000180025095e-35 1.0000000180025095e-35 1.0000000180025095e-35 76.785714285714292 4535998.5000000009 31492798.000000004 -6.4999999999999991 1.0000000180025095e-35 1.0000000180025095e-35 11.500000000000002 1.5000000000000002 42.333333333333336 3.5000000000000004 1.0000000180025095e-35 0.6794549180379027 8.5000000000000018 2.0000000000000004 -7.4999999999999991 31.500000000000004 898.50000000000011 1.0000000180025095e-35 1.0000000180025095e-35 1.9119674481420279 11231999.000000002 2.0000000000000004 0.97942307692307706 0.016430640364289848 32.782142857142865 1.0000000180025095e-35 4.4430789449901624 1.0000000180025095e-35 1.0000000180025095e-35 8.5000000000000018 14.500000000000002 1.4595481019989223 3.7736208192686038 1.0000000180025095e-35 34148348.000000007
decision_type=2 2 2 2 2 2 2 2 2 2 2 2 2 2 2 2 2 2 2 2 2 2 2 2 2 2 2 2 2 2 2 2 2 2 2 2 2 2 2
left_child=3 2 8 4 6 7 13 -4 9 10 11 -2 -8 21 16 25 -12 26 19 -5 -15 22 37 -23 -16 29 27 28 -18 32 -31 -27 -10 -28 -35 -6 -9 -1 -7
right_child=1 -3 5 18 35 38 12 36 15 -11 14 -13 -14 20 24 -17 17 -19 -20 -21 -22 23 -24 -25 -26 31 33 -29 -30 30 -32 -33 -34 34 -36 -37 -38 -39 -40
leaf_value=0.15111595702715533 -0.043268697196021021 0.4221169336426957 0.079888561495365648 0.34895758710565833 0.34208686985019821 -0.18936168264391387 0.0006207383032831252 0.44949914116966466 -0.27386285416961759 0.37536252665937175 0.058234900104360283 0.36777970231708479 -0.30898069358596547 -0.15780449174843544 -0.13394315869511356 0.033288887162846122 -0.18226667692656845 0.052201656407670535 0.21140041341976318 0.55232305665638348 0.040554105592635642 0.08278206253058025 -0.077353894279423671 0.30256080557855086 0.079771548608830428 -0.2013543847020802 -0.27059078892934124 -0.27597661491364767 0.061793712436759407 0.027255430736636315 -0.27106184174052983 -0.08386408903868954 -0.22151243198189199 -0.16073572950736612 -0.26887863531532397 0.4582318518978018 0.34386012564081064 0.10662311934154239 -0.12013312016117743
leaf_weight=58.440857768058777 31.21940690279007 63.627513527870178 28.185209035873413 55.153099119663239 33.845826029777527 18.42916464805603 42.510059684514999 37.523450374603271 160.65472775697708 24.96239185333252 15.82604271173477 20.836626946926117 26.249821901321411 28.481265753507614 18.080030143260956 19.940533638000488 44.652017921209335 15.831641852855681 29.525548279285431 28.793791711330414 33.172958940267563 42.552882313728333 32.152141451835632 38.150627911090851 26.367202281951904 21.184444516897202 126.07345727086067 26.617562979459763 16.20337125658989 12.762266993522642 19.338991612195969 28.592990279197693 101.46981328725815 50.357906311750412 50.008011639118195 31.092821598052979 30.69050920009613 38.453809261322021 18.314017295837402
leaf_count=35 36 41 28 35 21 27 30 24 304 16 14 18 16 22 17 30 59 20 19 21 23 30 23 26 33 29 196 30 24 19 27 37 82 75 77 20 18 18 13
internal_value=0 -0.0776667 -0.111053 0.160798 0.101065 0.182981 0.0422566 0.313606 -0.158328 -0.114022 -0.14244 0.125094 -0.120308 0.0837325 -0.178377 -0.214716 -0.200179 -0.21272 0.371303 0.424393 -0.0521341 0.123727 0.0816991 0.189109 -0.00819666 -0.229147 -0.226204 -0.168182 -0.117335 -0.244246 -0.155222 -0.136847 -0.254517 -0.24778 -0.21674 0.403803 0.407625 0.134728 -0.158953
internal_weight=0 1027.75 964.122 518.576 405.103 133.142 340.164 96.3992 830.979 467.036 442.073 52.056 68.7599 271.405 390.017 363.944 345.57 329.744 113.472 83.9469 61.6542 209.75 129.047 80.7035 44.4472 344.003 313.912 87.473 60.8554 294.226 32.1013 49.7774 262.125 226.439 100.366 64.9386 68.214 96.8947 36.7432
internal_count=1633 1294 1253 339 264 110 223 70 1143 615 599 54 46 177 545 528 495 481 75 56 45 132 76 56 50 498 461 113 83 432 46 66 386 348 152 41 42 53 40
shrinkage=0.3


Tree=5
num_leaves=30
num_cat=0
split_feature=1112 1673 1589 1587 1551 1578 1550 1587 1670 1124 1570 1566 1573 1578 1568 1570 1590 1053 1555 1573 1566 1590 1566 1590 1568 1566 1570 1578 1555
split_gain=276.577 132.683 102.563 85.0074 75.2505 133.559 62.7351 39.0967 32.2211 37.0211 29.668 28.9319 38.573 35.5772 23.0532 28.9414 24.1808 24.2785 34.404 22.9656 21.1003 26.6385 20.9924 12.9926 34.2702 11.5684 8.02606 0.938256 1.52247
threshold=1.0000000180025095e-35 1.0000000180025095e-35 29.500000000000004 55.000000000000007 1.0000000180025095e-35 31535998.500000004 1.0000000180025095e-35 41.500000000000007 1.0000000180025095e-35 1.0000000180025095e-35 3.7486774753111902 34.250000000000007 1.0000000180025095e-35 63071998.500000007 45.500000000000007 3.6657447496054134 3.1212020325853387 1.0000000180025095e-35 1.5000000000000002 1.0000000180025095e-35 6.166666666666667 1.9609640474436814 21.500000000000004 4.7656750345229115 72.500000000000014 1.0000000180025095e-35 5.5914179551025747 449.00000000000006 1.5000000000000002
decision_type=2 2 2 2 2 2 2 2 2 2 2 2 2 2 2 2 2 2 2 2 2 2 2 2 2 2 2 2 2
left_child=1 2 3 4 8 10 7 11 9 14 20 12 -7 -13 15 16 17 18 -1 -12 21 25 -14 24 -5 -6 -25 28 -27
right_child=-2 -3 -4 23 5 6 -8 -9 -10 -11 19 13 22 -15 -16 -17 -18 -19 -20 -21 -22 -23 -24 26 -26 27 -28 -29 -30
leaf_value=0.18549326610953321 0.38101310387447634 -0.26909040251568583 0.37553673190348141 -0.28670757684466053 0.012048687932031692 0.49328966934636154 -0.27397035491316524 0.46074193532330193 -0.17705059427453559 -0.16672581079538676 0.16241311296629646 -0.27358463098792768 -0.13295135565633645 0.20843327713451046 0.42046584726020886 -0.094655130986463873 0.41954221821503868 0.31872685097795761 -0.10934499966840966 -0.1745728798890033 -0.27475111242256883 0.17190185076785311 0.28370367877792702 -0.27828383434302967 0.22204255068728021 -0.13834963509655993 -0.053238813208181385 -0.27190667033909438 -0.25592661475859763
leaf_weight=103.86154872179031 155.05693483352661 194.83756545186043 60.253158450126648 26.55504959821701 23.09922182559967 31.567237377166748 26.888255029916763 41.856661260128021 29.723388731479645 30.555402636528015 39.563720941543579 27.457438677549362 23.110767424106598 25.748480439186096 30.376028597354889 37.846950531005859 33.405326128005981 53.664097249507904 53.134674549102783 32.018605530261993 165.26169103384018 23.491432249546051 18.897265493869781 124.14731797575951 20.050905466079712 28.975410252809525 16.703550308942795 34.209712415933609 20.447309136390686
leaf_count=65 46 316 23 29 21 14 51 19 29 29 31 45 30 14 15 38 11 27 48 36 296 17 16 199 14 42 21 56 35
internal_value=0 -0.0403658 -0.00249581 -0.0231017 0.0139266 -0.0552995 0.144508 0.212453 0.118329 0.144378 -0.161834 0.127516 0.248131 -0.040775 0.175253 0.147438 0.185212 0.146247 0.0856461 0.0113516 -0.203686 -0.112094 0.0567189 -0.206918 -0.0677656 -0.175616 -0.252159 -0.226979 -0.191105
internal_weight=0 1377.71 1182.87 1122.62 935.161 562.593 195.526 168.638 372.567 342.844 367.067 126.781 73.5753 53.2059 312.289 281.913 244.066 210.66 156.996 71.5823 295.485 130.223 42.008 187.457 46.606 106.732 140.851 83.6324 49.4227
internal_count=1633 1587 1271 1248 985 723 189 138 262 233 534 119 60 59 204 189 151 140 113 67 467 171 46 263 43 154 220 133 77
shrinkage=0.3


Tree=6
num_leaves=36
num_cat=0
split_feature=1599 1584 1050 1553 1551 1669 1600 1555 1578 1672 1568 1566 1578 1673 1602 1578 1601 1555 1587 1570 1551 1570 1555 1056 1587 1570 1587 1587 1555 1578 1555 1555 1578 1570 1555
split_gain=508.239 154.411 145.733 75.1577 61.5652 79.4692 38.2368 18.7335 22.4611 16.2298 16.3245 33.3438 18.5536 15.0884 13.7 7.3013 6.21077 5.11913 4.54681 14.9407 5.53416 5.33623 3.61569 2.38611 5.99584 1.74225 2.10502 3.07569 1.60221 1.17271 8.30131 1.13366 0.949795 0.889356 0.361362
threshold=1.0000000180025095e-35 1.0000000180025095e-35 1.0000000180025095e-35 1.0000000180025095e-35 1.0000000180025095e-35 1.0000000180025095e-35 4.5000000000000009 5.5000000000000009 1798.5000000000002 1.0000000180025095e-35 107.52857142857145 34.250000000000007 31535998.500000004 1.0000000180025095e-35 1.0000000180025095e-35 15596998.500000002 1.0000000180025095e-35 12.500000000000002 15.500000000000002 3.413096578734955 1.0000000180025095e-35 3.1090097408633226 12.500000000000002 1.0000000180025095e-35 1.5000000000000002 5.3523054334022628 37.500000000000007 28.500000000000004 14.500000000000002 129599.00000000001 1.5000000000000002 1.5000000000000002 4535998.5000000009 3.2763596750991399 1.5000000000000002
decision_type=2 2 2 2 2 2 2 2 2 2 2 2 2 2 2 2 2 2 2 2 2 2 2 2 2 2 2 2 2 2 2 2 2 2 2
left_child=2 22 3 4 7 6 9 14 -9 10 11 12 16 18 23 -10 -6 -8 -5 21 -21 -20 -2 24 -1 26 27 -22 -24 -26 -31 -4 -11 -30 -7
right_child=1 -3 31 13 5 34 17 8 15 32 -12 -13 -14 -15 -16 -17 -18 -19 19 20 25 -23 28 -25 29 -27 -28 -29 33 30 -32 -33 -34 -35 -36
leaf_value=-0.082559674640074257 0.43368566898803151 -0.26225770727310155 0.29122411922191771 -0.26492162754018306 0.12919207479289385 0.36749365045649884 0.10677624022574962 0.24383013413795229 -0.21270015743400919 -0.26569153455426991 -0.27220972798510112 0.32006561251370352 -0.25452884856578678 0.016643493800911069 -0.012683985342824482 0.0041820253323259409 -0.067239007158697045 0.29527564392013361 -0.14324358868820522 -0.10335975246210229 -0.24775462176808039 0.084594455878103963 0.25657764667027477 -0.27375566842275084 -0.24714281040238611 -0.11234521183340869 -0.2686360922913319 -0.12419693697080794 0.43587848498635923 -0.047029136290386138 -0.26631257392090013 0.41753400941501828 -0.15956401922580804 0.31927899977052138 0.27684511068657164
leaf_weight=39.46797239780426 193.1941973567009 34.176562964916229 25.430232167243958 147.77097854018211 26.524355173110962 36.930429458618164 39.570512712001801 21.562964200973511 28.684992253780365 37.762088596820831 22.18794322013855 22.804370939731598 32.885340452194214 25.494829207658768 38.708613008260727 26.317126393318176 29.660881042480469 19.918347656726837 15.329009771347044 33.719718724489212 50.309350401163101 20.367163181304932 25.324539959430695 43.217895865440369 74.224646776914597 12.016343504190443 139.93645855784416 33.771950036287308 27.046780347824097 25.995326340198517 39.582970529794693 32.282497823238373 17.31565535068512 36.593907296657562 30.225594520568848
leaf_count=26 181 74 21 154 27 36 32 20 27 50 22 26 31 38 29 25 32 22 25 29 88 23 23 30 71 20 207 50 25 23 39 30 13 34 30
internal_value=0 0.333956 -0.0933019 -0.117108 -0.0508269 0.0443446 -0.0341952 -0.139674 -0.00900187 -0.100162 -0.0431169 0.00432767 -0.0791654 -0.207301 -0.177798 -0.110706 0.0261312 0.173729 -0.219907 -0.197336 -0.22139 -0.0144833 0.406843 -0.206339 -0.188658 -0.237745 -0.243942 -0.20017 0.34438 -0.217812 -0.1814 0.367786 -0.235767 0.374809 0.331355
internal_weight=0 316.336 1189.98 1132.26 653.548 315.786 248.629 337.763 76.5651 189.141 134.063 111.875 89.0706 478.716 261.197 55.0021 56.1852 59.4889 453.221 305.45 269.754 35.6962 282.159 222.489 179.271 236.034 224.018 84.0813 88.9652 139.803 65.5783 57.7127 55.0777 63.6407 67.156
internal_count=1633 337 1296 1245 611 321 255 290 72 201 138 116 90 634 218 52 59 54 596 442 394 48 263 189 159 365 345 138 82 133 62 51 63 59 66
shrinkage=0.3


Tree=7
num_leaves=38
num_cat=0
split_feature=1575 1584 1674 1551 1574 1578 1591 1687 1550 1589 1566 1578 1570 1587 1599 1551 1553 1578 1578 1672 1578 1562 1555 1590 1590 1562 1578 1142 1555 1562 1555 1570 1578 1578 1566 1555 1578
split_gain=431.108 192.648 147.82 90.5615 73.6145 52.9301 36.5489 18.6504 17.2922 18.3595 17.588 15.1619 35.086 21.2506 12.4437 20.5922 19.5813 13.9073 17.2331 52.2619 41.4633 9.72282 8.32531 6.94547 14.9075 6.48753 4.8912 4.54468 2.31319 2.19154 1.53613 1.37279 0.913518 0.742789 2.03549 0.668873 0.299074
threshold=1.0000000180025095e-35 1.0000000180025095e-35 1.0000000180025095e-35 1.0000000180025095e-35 1.0000000180025095e-35 63179325.000000007 1.0000000180025095e-35 0.9742913645352671 1.0000000180025095e-35 -7.4999999999999991 31.500000000000004 31535998.500000004 4.6578327982497987 38.500000000000007 3.5000000000000004 1.0000000180025095e-35 1.0000000180025095e-35 32659198.500000004 1997997.5000000002 1.0000000180025095e-35 1829.0000000000002 0.98363245277945832 2.5000000000000004 1.2500000000000002 3.1212020325853387 0.65522780373831779 31589999.000000004 1.0000000180025095e-35 6.5000000000000009 0.97061965811965822 7.5000000000000009 3.4832318118061818 11.500000000000002 209.00000000000003 10.500000000000002 10.500000000000002 2591998.5000000005
decision_type=2 2 2 2 2 2 2 2 2 2 2 2 2 2 2 2 2 2 2 2 2 2 2 2 2 2 2 2 2 2 2 2 2 2 2 2 2
left_child=1 14 3 -2 5 8 11 -3 9 10 -4 22 13 26 15 23 17 18 19 20 27 35 33 30 25 -25 -13 28 32 36 -1 -16 -17 -5 -35 -20 -26
right_child=2 7 4 6 -6 -7 -8 -9 -10 -11 -12 12 -14 -15 31 16 -18 -19 21 -21 -22 -23 -24 24 29 -27 -28 -29 -30 -31 -32 -33 -34 34 -36 -37 -38
leaf_value=-0.27233331582470227 -0.15022814918293301 0.14292784985815984 0.10610457184539364 0.34643796538491978 -0.20211361630498756 -0.2156842949813414 -0.011600907157847893 0.46899496136137031 0.45046847912363308 -0.081464105694610073 0.45334167723109953 0.13272856787279283 0.43303954733022798 -0.10328191761168522 -0.26603708222266276 -0.15462485336905171 -0.27347296772656626 0.14196654462691066 -0.26794216867674853 0.47030655624230744 0.2409784991145478 -0.056454396430491299 0.25799389773539988 -0.12110009951330351 -0.26935998976915909 0.0887472229107127 0.32579895056931479 -0.015528782610721562 -0.097696358906718808 -0.1343199400640995 -0.1701202605307349 -0.14277740060259747 -0.23487840150552131 0.59765173188564658 0.44068683797139668 -0.17224089108341226 -0.19336595635498721
leaf_weight=137.19418227672577 36.570360749959946 27.065083026885986 32.00984913110733 21.527738094329834 97.281722992658615 28.119122922420502 24.580832004547119 41.383976519107819 26.239900350570679 19.398063123226166 22.288481056690216 23.196557581424713 76.076251149177551 21.946181297302246 134.01737236976624 28.849689483642578 53.942995101213455 22.974311769008636 58.13922256231308 15.58193117380142 26.935421764850616 35.049789905548096 28.434275269508362 32.088973224163055 65.935116976499557 21.21221125125885 28.914215981960297 16.44548088312149 24.118593811988831 20.766312658786774 21.886352837085724 12.691024482250212 55.238306045532227 17.465167105197906 125.31317138671875 16.144998908042908 19.577910006046295
leaf_count=115 32 27 29 24 64 16 20 51 32 13 28 23 92 14 227 33 34 23 69 21 31 34 33 24 66 22 34 19 32 20 23 21 77 23 151 18 18
internal_value=0 -0.136176 0.18822 0.296581 -0.00651891 0.142486 0.341336 0.343981 0.244403 0.165984 0.25426 0.366598 0.290901 0.141062 -0.176687 -0.158928 -0.108558 -0.0780415 -0.0967674 -0.0357921 -0.0905561 -0.188828 0.423756 -0.214278 -0.167942 -0.037491 0.243973 -0.163543 -0.185691 -0.232406 -0.259421 -0.256413 -0.209485 0.450708 0.463911 -0.249707 -0.254398
internal_weight=0 887.239 629.362 404.025 225.337 128.055 367.454 68.4491 99.9363 73.6964 54.2983 342.874 150.133 74.057 818.79 672.082 353.421 299.478 276.503 167.169 151.587 109.334 192.74 318.661 159.581 53.3012 52.1108 124.652 108.207 106.279 159.081 146.708 84.088 164.306 142.778 74.2842 85.513
internal_count=1633 1005 628 446 182 118 414 78 102 70 57 394 163 71 927 679 391 357 334 213 192 121 231 288 150 46 57 161 142 104 138 248 110 198 174 87 84
shrinkage=0.3


Tree=8
num_leaves=45
num_cat=0
split_feature=1551 1678 1670 1572 1564 1578 1051 1569 1569 1568 1575 1573 1671 1682 1566 1564 1578 1600 1570 1574 1601 1570 1554 1589 1562 1587 1677 1566 1590 1570 1578 1566 1570 1601 1570 1555 1555 1563 1578 1570 1570 1578 1570 1590
split_gain=110.046 99.4859 81.5926 33.8381 40.4623 29.3149 18.7269 15.9893 21.0441 15.4288 15.3241 36.0082 24.077 16.8547 10.5844 9.28053 7.2454 5.60729 5.00562 14.0949 14.1079 13.6326 5.10616 4.0454 3.44123 2.82981 2.75915 6.55191 2.64948 2.55471 4.95089 2.79855 2.23585 2.14474 5.96992 1.62119 3.13591 1.39836 1.2786 0.880759 0.517961 0.366204 0.0117386 0.797249
threshold=1.0000000180025095e-35 1.0000000180025095e-35 1.0000000180025095e-35 1.0000000180025095e-35 76.785714285714292 4535998.5000000009 1.0000000180025095e-35 0.48147158292503789 1.8485007784429446 46.100000000000009 1.0000000180025095e-35 1.0000000180025095e-35 1.0000000180025095e-35 1.0000000180025095e-35 1.0000000180025095e-35 0.92261904761904778 31535998.500000004 2.0000000000000004 1.5696628794434755 1.0000000180025095e-35 1.0000000180025095e-35 3.8297113149868038 1.0000000180025095e-35 -7.4999999999999991 0.97942307692307706 31.500000000000004 1.0000000180025095e-35 72.459016393442639 3.3361784603762286 2.997801461864507 7775998.5000000009 1.9130434782608698 5.1152499161242337 1.0000000180025095e-35 3.7675882924894428 8.5000000000000018 14.500000000000002 0.026394917979736966 11231999.000000002 3.77715111817886 3.4943310973931569 34148348.000000007 4.3439566745574245 5.0975870054437991
decision_type=2 2 2 2 2 2 2 2 2 2 2 2 2 2 2 2 2 2 2 2 2 2 2 2 2 2 2 2 2 2 2 2 2 2 2 2 2 2 2 2 2 2 2 2
left_child=3 2 7 4 6 9 15 10 -9 40 11 12 13 14 -2 16 18 26 19 20 -1 -20 -21 25 29 -5 33 -28 -3 31 -31 -16 39 42 -35 -26 -37 -6 -15 -19 -4 -7 -12 -44
right_child=1 28 5 23 37 41 -8 8 -10 -11 17 -13 -14 38 24 -17 -18 32 21 22 -22 -23 -24 -25 35 -27 27 -29 -30 30 -32 -33 -34 34 -36 36 -38 -39 -40 -41 -42 -43 43 -45
leaf_value=-0.1880866737460902 0.05071903751560846 0.17423114694270281 0.14252085407176965 0.23904153526832431 0.34667784018558251 -0.15556479788968361 -0.15094730185172361 0.23072438594194586 -0.14785609442994335 0.34953636543314986 -0.25633233559960916 0.23017098255730487 0.15887106774344509 -0.045040706216916616 -0.12239787118344224 -0.098359321234968711 -0.051600645542853381 -0.070134144351990529 0.27154535802966712 0.18629493158198873 0.10372124514003106 0.0018437187753659798 0.050810405638350618 0.15261468033669878 -0.25300435899300106 0.36697274796331963 0.044326719327817864 -0.24782909658127078 0.31994733959937244 0.055326648083976936 -0.17848403571872026 -0.27734350861194862 0.0317009914534509 -0.017874153248656675 -0.25037584037403821 -0.12354060030134312 -0.25057124884266074 0.2299925986050696 0.057003704552304746 -0.17785311447442376 0.073957879052221051 -0.078984516106741676 -0.10645118588531099 -0.24266339640529108
leaf_weight=30.920942425727844 16.067757487297058 20.140098452568054 18.134478509426117 56.679826378822327 31.769349694252014 14.719800233840942 43.253865867853165 23.691070109605789 27.456767916679382 42.060862302780151 130.16467696428299 25.918697595596313 23.127740174531937 17.300996452569962 29.85715851187706 29.716781347990036 34.189575791358948 14.398536354303362 40.716875672340393 61.181216895580292 27.094295382499695 28.340539395809174 43.56887549161911 30.803056836128235 90.086948424577713 30.967853546142578 11.812945246696474 14.796640574932097 49.384964525699615 14.344317257404329 16.815558850765228 18.373066455125809 9.3253077268600446 16.081103146076202 25.736091643571854 41.240927875041962 35.493248552083969 28.678646206855774 27.071291625499725 16.957818388938904 31.592246770858765 15.333733081817627 8.3057151436805743 15.692948490381239
leaf_count=22 14 19 16 35 22 27 27 28 39 29 232 15 18 18 52 25 25 21 29 39 20 16 20 19 194 21 18 28 37 19 28 24 21 30 56 76 77 19 32 21 25 13 21 46
internal_value=0 -0.0607867 -0.091091 0.114058 0.0719475 0.13394 0.0312478 -0.132145 0.0285597 0.217581 -0.145449 -0.104341 -0.131248 -0.153574 -0.182404 0.0583148 0.0761201 -0.200384 0.0950972 0.0656957 -0.0523581 0.162468 0.130956 0.254271 -0.197761 0.287872 -0.219193 -0.121223 0.280805 -0.142812 -0.0724767 -0.185858 -0.0946818 -0.231812 -0.163471 -0.222904 -0.184766 0.295962 0.0171003 -0.132086 0.101278 -0.120294 -0.249177 -0.201666
internal_weight=0 861.484 791.958 517.882 399.431 121.841 338.983 670.117 51.1478 91.7876 618.969 355.698 329.779 306.651 262.279 295.729 266.012 263.272 231.823 162.765 58.0152 69.0574 104.75 118.451 246.211 87.6477 222.59 26.6096 69.5251 79.3901 31.1599 48.2302 40.6817 195.981 41.8172 166.821 76.7342 60.448 44.3723 31.3564 49.7267 30.0535 154.163 23.9987
internal_count=1633 1294 1238 339 264 110 223 1128 67 70 1061 567 552 534 484 196 171 494 146 101 42 45 59 75 470 56 431 46 56 123 47 76 63 385 86 347 153 41 50 42 41 40 299 67
shrinkage=0.3


Tree=9
num_leaves=34
num_cat=0
split_feature=41 1599 1590 1566 1551 1590 1670 1051 1555 1676 1578 1590 1068 1555 1555 1566 1601 1578 1578 1573 1570 1590 1562 1572 1578 1578 1566 1553 1601 1562 1562 1590 1570
split_gain=132.389 93.1173 48.2958 49.611 36.1807 60.9504 28.6652 23.967 21.1561 22.9239 32.7088 19.6407 48.7021 18.4352 16.9903 21.2055 34.37 14.9924 14.6186 39.613 12.8385 10.6171 7.04398 7.03028 21.8085 13.8421 6.40845 6.92056 5.77869 4.64107 2.98701 6.68124 0.231356
threshold=1.0000000180025095e-35 1.0000000180025095e-35 4.8678272606810991 293.7380952380953 1.0000000180025095e-35 3.714260807102987 1.0000000180025095e-35 1.0000000180025095e-35 9.5000000000000018 1.0000000180025095e-35 209.00000000000003 2.0587462305923778 1.0000000180025095e-35 8.5000000000000018 19.500000000000004 6.166666666666667 1.0000000180025095e-35 63071998.500000007 31535998.500000004 1.0000000180025095e-35 3.8744392172129838 5.5451459306833879 0.98363245277945832 1.0000000180025095e-35 31589999.000000004 33955198.500000007 5.0909090909090917 1.0000000180025095e-35 1.0000000180025095e-35 0.98363245277945832 0.98363245277945832 3.5523086777644601 0.90563906222956658
decision_type=2 2 2 2 2 2 2 2 2 2 2 2 2 2 2 2 2 2 2 2 2 2 2 2 2 2 2 2 2 2 2 2 2
left_child=1 2 3 4 6 14 7 8 9 11 29 12 -1 18 15 16 26 30 19 -7 -15 22 -4 24 -20 -26 27 -6 -13 -11 -17 -32 -18
right_child=-2 -3 21 -5 5 13 -8 -9 -10 10 -12 28 -14 20 -16 17 32 -19 23 -21 -22 -23 -24 -25 25 -27 -28 -29 -30 -31 31 -33 -34
leaf_value=-0.30828090057405083 0.31652790246196449 -0.25458561057902279 -0.26249117829913621 0.39056454050514455 -0.25553074454894409 0.21128444228355758 -0.18238034040413911 0.3095593918174081 -0.13962773895677524 0.031955799999351608 0.38650032635298315 0.18019913954575512 0.15826719866156633 -0.29656665982903224 0.12142467018800474 -0.26197650696297031 0.10373248464339628 0.039115771750879699 0.24163088388606577 -0.26232910379702423 0.050044199615272011 -0.019658242270472765 -0.014271511517642079 0.2795007646751223 0.15055340150593238 -0.25976560985104086 0.038359799143230781 -0.028353934763135462 0.020970893482424098 0.16706164287839123 -0.25738990037580062 0.028451737237054374 0.15537672972495406
leaf_weight=40.78228086233139 110.10381919145584 140.27514651417732 75.990451395511627 31.351274132728577 54.469042092561722 35.311055898666382 33.883488357067108 43.406123757362366 36.132002890110016 59.671728849411011 48.19443154335022 54.587303578853607 37.991073369979858 16.481215566396713 23.704980462789536 121.09622451663017 27.184123933315277 19.197374820709229 51.20657005906105 27.26700821518898 20.843505650758743 29.089123725891113 12.013792365789412 43.013503134250641 12.209714204072954 16.030080586671829 10.881765455007551 15.769497424364088 32.971911609172821 36.751559972763062 17.845342278480533 11.775735378265379 27.778381705284119
leaf_count=46 32 337 170 10 113 26 37 21 35 34 18 29 17 21 24 264 23 14 32 43 21 34 11 18 8 36 9 29 27 21 37 18 18
internal_value=0 -0.0250164 0.00381202 0.0250582 0.012935 -0.0376724 0.078704 0.101767 0.0749656 0.100269 0.187198 0.0240212 -0.0841092 0.0834829 -0.119389 -0.138379 -0.0495952 -0.208779 0.122223 0.00403759 -0.106751 -0.177711 -0.229147 0.182095 0.12654 -0.083279 -0.172841 -0.20564 0.121153 0.0846374 -0.240404 -0.146537 0.132144
internal_weight=0 1265.16 1124.88 1007.79 976.437 552.065 424.372 390.488 347.082 310.95 144.618 166.333 78.7734 222.363 329.702 305.997 136.083 169.915 185.038 62.5781 37.3247 117.093 88.0042 122.46 79.4464 28.2398 81.1203 70.2385 87.5592 96.4233 150.717 29.6211 54.9625
internal_count=1633 1601 1264 1049 1039 754 285 248 227 192 73 119 63 205 549 525 192 333 163 69 42 215 181 94 76 44 151 142 56 55 319 55 41
shrinkage=0.3


Tree=10
num_leaves=36
num_cat=0
split_feature=1599 1553 1584 1050 1551 1672 1578 1678 1555 1555 1602 1673 1590 1570 1676 1562 1068 1578 1587 1570 1551 1555 1555 1056 1587 1578 1555 1570 1587 1570 1566 1568 1578 1555 1570
split_gain=254.3 77.3273 74.0051 64.9028 37.6649 35.5129 27.436 27.1275 14.9795 18.2087 12.8912 12.5982 10.9405 10.601 14.2381 11.9286 9.5624 9.45454 6.06655 11.5403 8.72535 4.66752 4.40872 2.82088 3.31924 2.50649 2.20035 2.0032 2.5879 5.34831 1.27338 3.17369 1.2591 0.978445 0.851226
threshold=3.5000000000000004 1.0000000180025095e-35 1.0000000180025095e-35 1.0000000180025095e-35 1.0000000180025095e-35 1.0000000180025095e-35 32659198.500000004 1.0000000180025095e-35 9.5000000000000018 13.500000000000002 1.0000000180025095e-35 1.0000000180025095e-35 3.8245933167863546 3.74997061907166 1.0000000180025095e-35 0.98363245277945832 1.0000000180025095e-35 86398.500000000015 15.500000000000002 3.413096578734955 1.0000000180025095e-35 1.5000000000000002 10.500000000000002 1.0000000180025095e-35 1.5000000000000002 1798.5000000000002 12.500000000000002 5.3523054334022628 37.500000000000007 3.8589211316140219 55.000000000000007 39.062500000000007 31535998.500000004 15.500000000000002 2.8114077310623835
decision_type=2 2 2 2 2 2 2 2 2 2 2 2 2 2 2 2 2 2 2 2 2 2 2 2 2 2 2 2 2 2 2 2 2 2 2
left_child=1 3 26 4 8 6 7 12 10 -10 16 18 13 14 15 -6 23 -17 -3 21 -21 -20 -9 24 -1 -16 -2 28 29 -22 31 34 -7 -28 -26
right_child=2 11 -4 -5 5 32 -8 22 9 -11 -12 -13 -14 -15 25 17 -18 -19 19 20 27 -23 -24 -25 30 -27 33 -29 -30 -31 -32 -33 -34 -35 -36
leaf_value=-0.089929709973046001 0.32647908781375196 -0.24858179322833071 -0.2445481608692987 0.32021959145065254 0.17795451373035501 -0.24784244651204135 -0.22558752843711172 -0.24676094607224067 0.27222723763351114 -0.095248368428807226 0.013578809801379601 0.029037047015764515 -0.014458910418897635 0.38066705287894304 0.17883932396096985 0.10511897393167743 0.023713557637308171 -0.16710508405230898 -0.09062038611445572 -0.036662180199160815 -0.21662698924995902 0.12876016446364733 -0.021833338508920927 -0.26969753499478599 -0.16284332600445525 0.3059432854098364 0.19449651827043177 -0.077075146355506316 -0.25283464261641048 -0.016654636624239924 -0.25538192286243716 -0.064640152938945178 -0.12118766813294465 0.28409843579784366 -0.25372548070434925
leaf_weight=35.323433101177216 167.06800335645676 117.90833866596222 23.562410145998001 48.949746668338776 43.38244616985321 29.545279830694199 23.232448548078537 16.914081990718845 17.675118684768677 33.724967300891876 39.075780242681503 24.617823928594589 31.232909619808197 19.902889221906662 32.305939018726349 20.505568981170654 19.603483974933624 23.740568369626999 20.487904936075211 29.519685685634613 51.288604557514191 13.699231892824171 14.326539576053618 39.359634160995483 29.698515772819519 37.16109573841095 29.571777045726776 10.512650966644285 104.38075867295265 15.864925295114515 31.791760981082916 19.449171930551529 13.432449787855147 48.046701490879059 26.443259328603745
leaf_count=23 175 157 69 48 39 51 23 26 19 36 32 38 29 18 32 22 19 23 25 30 113 23 19 32 32 37 28 21 212 25 42 23 12 48 32
internal_value=0 -0.0719335 0.255318 -0.00833611 -0.0357279 0.0378432 0.0793513 0.10975 -0.112575 0.0339003 -0.143858 -0.177577 0.148864 0.177603 0.149631 0.0679738 -0.17428 -0.0414098 -0.191605 -0.163372 -0.189391 -0.00155076 -0.147489 -0.195612 -0.173444 0.25021 0.304253 -0.213821 -0.221706 -0.170321 -0.199832 -0.17344 -0.211913 0.252869 -0.209341
internal_weight=0 1035.06 268.249 646.777 597.827 305.682 262.704 239.472 292.145 51.4001 240.745 388.28 208.231 176.999 157.096 87.6286 201.669 44.2461 363.662 245.754 211.567 34.1871 31.2406 182.066 142.706 69.467 244.686 182.047 171.534 67.1535 107.383 75.5909 42.9777 77.6185 56.1418
internal_count=1633 1313 320 669 621 331 268 245 290 55 235 644 200 171 153 84 203 45 606 449 401 48 45 184 152 69 251 371 350 138 129 87 63 76 64
shrinkage=0.3


Tree=11
num_leaves=39
num_cat=0
split_feature=1575 1584 41 1589 1553 1674 1550 1585 1551 1555 1687 1653 1551 1553 1578 1568 1566 1674 1570 1566 1566 1585 1590 1590 1566 1566 1570 1578 1570 1590 1570 1562 1555 1590 1578 1589 1570 1555
split_gain=225.281 100.595 67.6445 62.2661 39.5095 23.7806 16.8357 22.3784 15.1781 13.5903 11.1776 10.2389 18.5213 14.1271 13.395 15.0727 46.8944 11.612 9.70904 9.22532 24.9046 5.83425 5.69667 10.5152 5.54333 7.25289 4.90445 4.77119 3.76484 3.64296 2.96647 2.61558 2.42898 2.10219 2.0212 1.64555 3.81736 0.260999
threshold=1.0000000180025095e-35 1.0000000180025095e-35 1.0000000180025095e-35 31.500000000000004 1.0000000180025095e-35 1.0000000180025095e-35 1.0000000180025095e-35 1.0000000180025095e-35 1.0000000180025095e-35 61.000000000000007 0.9742913645352671 1.0000000180025095e-35 1.0000000180025095e-35 1.0000000180025095e-35 32659198.500000004 40.31818181818182 31.500000000000004 1.0000000180025095e-35 3.413096578734955 63.833333333333336 41.500000000000007 1.0000000180025095e-35 1.2500000000000002 3.1212020325853387 3.5000000000000004 25.678571428571434 3.6857084697131177 11.500000000000002 3.6748036057236386 2.0587462305923778 3.3058326342811282 0.98363245277945832 7.5000000000000009 4.6230931522957235 31535998.500000004 1.5000000000000002 5.2756596861192415 4.5000000000000009
decision_type=2 2 2 2 2 2 2 2 2 2 2 2 2 2 2 2 2 2 2 2 2 2 2 2 2 2 2 2 2 2 2 2 2 2 2 2 2 2
left_child=1 9 3 4 -2 8 7 18 -6 11 -3 12 22 14 15 16 17 27 -7 20 24 -13 32 29 -10 34 -9 -14 -27 -24 -29 -25 -1 37 -26 36 -21 -17
right_child=2 10 -4 -5 5 6 -8 26 19 -11 -12 21 13 -15 -16 33 -18 -19 -20 35 -22 -23 23 31 25 28 -28 30 -30 -31 -32 -33 -34 -35 -36 -37 -38 -39
leaf_value=-0.25718638416044015 -0.16333523975113118 0.090210852504047548 -0.18398934453900206 -0.26345248340920918 -0.01556572765687134 0.068716329890172567 0.31650903441478173 0.29662220429075309 0.13575404294966323 0.1345862782703578 0.34705682773487084 -0.25366984829248512 0.038182360271297441 -0.24736771040764 0.1979829601564119 -0.25342559436417134 0.48879645051784743 0.084615436020764836 -0.17424358108615051 0.34375698665205584 -0.06855030218665456 -0.068708625258052131 0.045802204456628789 -0.24447746099338996 0.34130250125318529 0.058474350190050921 0.088546405885666105 -0.11663027167429318 0.25277824376413072 -0.11260865889652648 -0.25665245751903887 -0.10522634973827387 -0.12092959137635476 -0.098904788283118217 0.22104414074308562 0.44926743600656516 0.17053471719551991 -0.17051589700701264
leaf_weight=106.09802356362343 25.782341301441193 26.801204085350037 53.011028647422791 27.526226222515106 17.726478487253189 24.642023295164108 25.095096290111542 23.872272729873657 28.77965772151947 14.308517098426817 37.422004759311676 114.82645359635353 14.51873943209648 37.993689179420471 16.909849047660828 29.596362411975861 13.707910895347593 31.524033069610596 34.529087513685226 81.946783423423767 22.239826023578644 18.735675662755966 23.616572618484497 61.431319028139114 101.77320140600204 17.938707530498505 19.276045799255371 78.272952228784561 18.671601116657257 27.121455013751984 16.992467939853668 17.869544923305511 16.251001596450806 17.866834282875061 23.280433177947998 16.322847187519073 16.935284614562988 15.863262772560118
leaf_count=115 26 27 32 17 20 29 32 25 27 18 51 251 25 32 18 41 18 34 32 111 16 31 21 79 135 20 17 121 22 24 19 19 21 23 26 20 21 17
internal_value=0 -0.113273 0.136492 0.169058 0.193404 0.213152 0.101263 0.0459192 0.25399 -0.147546 0.242898 -0.153865 -0.134521 -0.0799464 -0.051975 -0.0721477 -0.0213419 -0.0739161 -0.0736016 0.268566 0.229187 -0.228427 -0.193056 -0.147192 0.264133 0.286012 0.207778 -0.119791 0.161657 -0.0394145 -0.144013 -0.2148 -0.240215 -0.194249 0.320846 0.338667 0.316094 -0.228787
internal_weight=0 737.728 579.349 526.338 498.812 473.029 127.415 102.319 345.615 673.505 64.2232 659.196 525.634 273.246 235.252 218.343 155.016 141.308 59.1711 327.888 212.683 133.562 252.388 130.039 190.444 161.664 43.1483 109.784 36.6103 50.738 95.2654 79.3009 122.349 63.3265 125.054 115.205 98.8821 45.4596
internal_count=1633 1005 628 596 579 553 135 103 418 927 78 909 627 348 316 298 217 199 61 398 246 282 279 143 230 203 42 165 42 45 140 98 136 81 161 152 132 58
shrinkage=0.3


Tree=12
num_leaves=35
num_cat=0
split_feature=1575 1572 1124 1599 1590 1670 1671 387 1068 1570 1587 1574 1578 1653 1555 1590 1563 1589 1564 1562 1590 1056 1677 1568 1600 1555 1590 1566 1578 1587 1566 1578 1555 1555
split_gain=60.2245 70.3021 55.8153 33.943 31.3856 38.2778 23.3253 27.3683 24.0917 23.1116 21.459 25.5312 18.9685 18.4509 14.0865 11.0838 7.86454 7.13027 7.05179 6.34367 5.18998 8.5724 4.78567 7.80794 4.6462 7.82565 4.56104 3.82004 3.01975 2.52418 1.09468 1.99495 1.0696 4.08691
threshold=1.0000000180025095e-35 1.0000000180025095e-35 1.0000000180025095e-35 1.0000000180025095e-35 5.472129128638616 1.0000000180025095e-35 1.0000000180025095e-35 1.0000000180025095e-35 1.0000000180025095e-35 1.5696628794434755 55.000000000000007 1.0000000180025095e-35 86398.500000000015 1.0000000180025095e-35 13.500000000000002 2.9849334208637672 0.017609099585024868 -3.4999999999999996 1.1564171122994655 0.87119047619047629 2.8112136660867746 1.0000000180025095e-35 1.0000000180025095e-35 53.500000000000007 2.0000000000000004 1.5000000000000002 3.7513576394898522 25.050000000000004 86398.500000000015 3.5000000000000004 4.5000000000000009 2591997.5000000005 12.500000000000002 14.500000000000002
decision_type=2 2 2 2 2 2 2 2 2 2 2 2 2 2 2 2 2 2 2 2 2 2 2 2 2 2 2 2 2 2 2 2 2 2
left_child=1 2 3 6 5 14 7 8 10 -8 11 13 -7 18 22 -3 27 28 26 -12 21 -13 24 -24 30 -26 -1 -5 -17 -4 31 -2 -29 -34
right_child=4 15 29 16 -6 12 9 -9 -10 -11 19 20 -14 -15 -16 17 -18 -19 -20 -21 -22 -23 23 -25 25 -27 -28 32 -30 -31 -32 -33 33 -35
leaf_value=-0.16880730103570293 -0.062403525374758281 0.068542940213806011 0.34326116943768986 -0.03429076888612579 0.16666904984607389 0.25878682501830713 -0.029619695898720565 0.2867164656328311 0.21307603004894904 0.31692551126077412 0.23978727011199419 -0.10178764954615051 -0.092969271588726254 0.10341971203678045 0.11774093224797121 0.3422171461837652 0.12578508372955904 0.13635565260200352 -0.026063804463754132 0.026693821975356861 0.12638235371799572 0.065354910121466769 0.059951004447501198 -0.23678376875639706 0.01589111402373674 -0.26613582687106851 -0.30196760701730158 -0.24097353144522499 0.22285892278564587 0.19759957923533633 -0.24254439345773141 -0.23861307835755158 -0.013215332603552316 -0.2347914716914303
leaf_weight=136.12734919786453 11.80132105946541 36.803954303264618 33.261492729187012 12.612765684723852 34.786564126610756 28.980174541473389 29.579359114170074 24.918161630630493 32.798558831214905 40.258351683616638 24.038494646549225 48.619386464357376 24.82212820649147 24.05980509519577 12.990444496273993 61.124259114265442 6.8477174937725058 36.459933757781982 26.215633869171143 25.823460727930069 32.241755366325378 61.293560266494751 16.276490360498432 14.082910582423208 20.110355377197266 14.674562871456144 29.980625957250595 57.328153491020203 41.384049117565155 24.163545310497284 151.20291922986507 12.470660626888273 11.493288636207579 21.212125942111015
leaf_count=183 21 27 28 31 34 22 23 22 24 28 22 48 38 28 23 45 12 23 24 26 21 29 22 31 37 22 27 188 30 20 352 26 24 72
internal_value=0 0.0481396 0.00559911 -0.0197879 -0.100033 -0.130656 0.0114044 -0.0129441 -0.0304786 0.171802 -0.0505111 -0.0762066 0.0977661 -0.140861 -0.179308 0.217255 -0.17119 0.255869 -0.171798 0.132121 0.0225052 -0.00883081 -0.195766 -0.0808576 -0.211896 -0.107199 -0.194504 -0.192025 0.296649 0.2864 -0.231926 -0.158797 -0.213502 -0.159628
internal_weight=0 878.646 702.874 645.449 342.199 307.412 535.955 466.117 441.199 69.8377 408.4 358.538 53.8023 216.383 253.61 175.772 109.494 138.968 192.324 49.862 142.155 109.913 240.619 30.3594 210.26 34.7849 166.108 102.646 102.508 57.425 175.475 24.272 90.0336 32.7054
internal_count=1633 1005 880 832 628 594 505 454 432 51 408 360 60 262 534 125 327 98 234 48 98 77 511 53 458 59 210 315 75 48 399 47 284 96
shrinkage=0.3


Tree=13
num_leaves=34
num_cat=0
split_feature=1673 41 1590 1566 1578 1551 1568 1555 1578 1570 1562 1566 1555 1671 1590 1570 1601 1555 1590 1566 1551 1555 1566 1589 1566 1572 1570 1554 1578 1590 1587 1578 1555
split_gain=76.6432 57.1238 27.8682 30.7521 24.4464 34.0857 23.5387 22.2441 17.5896 17.047 21.2323 18.6753 16.3421 15.9363 16.2335 14.2004 11.7027 11.1918 10.4501 12.5527 9.34386 7.69294 7.77942 7.66564 9.7992 22.8584 11.2419 7.60821 14.826 5.89024 4.09848 3.59301 0.478817
threshold=1.0000000180025095e-35 1.0000000180025095e-35 4.8678272606810991 138.65714285714287 31535998.500000004 1.0000000180025095e-35 30.500000000000004 5.5000000000000009 111671999.00000001 3.7486774753111902 0.98363245277945832 6.166666666666667 19.500000000000004 1.0000000180025095e-35 2.0587462305923778 2.1867786311375927 1.0000000180025095e-35 8.5000000000000018 5.5451459306833879 57.571428571428577 1.0000000180025095e-35 2.5000000000000004 1.0000000180025095e-35 -4.4999999999999991 27.500000000000004 1.0000000180025095e-35 3.1849992483119371 1.0000000180025095e-35 209.00000000000003 3.8160253013363428 41.500000000000007 11.500000000000002 1.5000000000000002
decision_type=2 2 2 2 2 2 2 2 2 2 2 2 2 2 2 2 2 2 2 2 2 2 2 2 2 2 2 2 2 2 2 2 2
left_child=1 2 3 4 5 6 13 8 20 11 29 15 17 14 27 21 -8 -9 19 -4 -6 22 -7 24 26 30 -22 28 32 -11 -26 -24 -1
right_child=-2 -3 18 -5 7 9 16 12 -10 10 -12 -13 -14 -15 -16 -17 -18 -19 -20 -21 23 -23 31 -25 25 -27 -28 -29 -30 -31 -32 -33 -34
leaf_value=-0.048740846733968418 -0.24447430066540035 0.25458574239427928 0.16437266958428781 0.27054743346077553 0.25488322058606921 0.11401435984315478 0.024960717839601219 -0.0050658079729594538 -0.098542251914812029 -0.011378492826779645 0.14592869948537862 -0.2483625782601763 0.13907816315948041 -0.10747755538042554 0.26008687264995944 0.21554231918887129 -0.25680174745237622 -0.30184084728134508 0.0092754840072007388 -0.25399516683728923 0.024879054816196219 -0.26333531172536967 -0.25085748207484193 0.19993879323290048 -0.26775469336409669 0.21399006007054336 0.3111943831707803 0.16558521927384287 0.12458313893119316 -0.26020775416985803 -0.033158319507627688 -0.065140729915066448 -0.10547584437690571
leaf_weight=27.128775000572205 102.5594811886549 88.93157285451889 6.5225531160831443 41.42017012834549 55.954924076795578 17.252444922924042 22.620152115821838 20.116705328226089 28.394453018903732 14.342134445905684 45.41090527176857 92.891027420759201 21.186133742332458 34.740547955036163 48.702472567558289 13.429154038429258 30.532893180847168 25.610204070806503 26.708698779344559 60.847942173480988 27.696849048137665 20.293340921401978 12.146174788475035 55.001502096652985 20.33714717626572 19.529928207397461 21.543187528848648 47.500221729278564 64.19307616353035 20.599523693323135 10.228318616747854 36.795973747968674 33.024398624897003
leaf_count=18 316 32 5 16 23 15 19 20 31 17 34 296 16 24 21 8 44 37 36 176 38 46 24 30 42 10 14 19 37 41 22 78 28
internal_value=0 0.0253547 0.00519213 0.0210093 0.00906785 -0.0270281 0.0412698 0.0776282 0.120383 -0.104017 0.0120187 -0.152187 -0.0744101 0.0791244 0.10887 -0.061199 -0.138646 -0.174183 -0.149513 -0.211679 0.15027 -0.106142 -0.0547489 0.110945 0.0601685 -0.0331191 0.153847 0.0647575 0.0252276 -0.161232 -0.192788 -0.115331 -0.0811041
internal_weight=0 1111.63 1022.7 928.623 887.203 581.603 308.443 305.599 238.686 273.161 80.3526 192.808 66.913 255.289 220.549 99.9171 53.153 45.7269 94.0792 67.3705 210.292 86.4879 66.1946 154.337 99.3354 50.0954 49.24 171.846 124.346 34.9417 30.5655 48.9421 60.1532
internal_count=1633 1317 1285 1068 1052 769 210 283 210 559 92 467 73 147 123 171 63 57 217 181 179 163 117 156 126 74 52 102 83 58 64 102 46
shrinkage=0.3


Tree=14
num_leaves=41
num_cat=0
split_feature=1673 1553 1050 1566 1670 1056 1669 1578 1682 1585 1589 1570 1677 1568 1562 1687 1587 1587 1566 1566 1555 1687 1551 1578 1570 1551 1562 1566 1578 1578 1568 1555 1570 1555 1555 1677 1570 1566 1581 1566
split_gain=140.003 52.8727 35.5572 32.6403 21.2334 22.5498 23.3673 30.5444 21.5792 19.0903 13.6383 22.1675 14.7152 10.6282 9.25575 7.28667 6.26764 10.6173 18.9088 5.94412 5.45192 5.40515 4.76508 5.74248 4.64935 4.40183 8.23301 6.3757 2.52135 2.47077 1.85921 1.21213 0.79942 0.795589 3.03317 0.482165 0.360372 0.252777 0.145558 0.00175861
threshold=1.0000000180025095e-35 1.0000000180025095e-35 1.0000000180025095e-35 24.500000000000004 1.0000000180025095e-35 1.0000000180025095e-35 1.0000000180025095e-35 1829.0000000000002 1.0000000180025095e-35 1.0000000180025095e-35 -7.4999999999999991 4.6729165750515627 1.0000000180025095e-35 10.500000000000002 0.71534702250073112 0.96249413970932973 15.500000000000002 41.500000000000007 36.500000000000007 1.9130434782608698 2.5000000000000004 0.61620294599018022 1.0000000180025095e-35 63071998.500000007 5.3523054334022628 1.0000000180025095e-35 0.97942307692307706 24.500000000000004 748.50000000000011 4535998.5000000009 34.978260869565226 2.5000000000000004 3.7736208192686038 12.500000000000002 15.500000000000002 1.0000000180025095e-35 3.8589211316140219 1.9130434782608698 1.0000000180025095e-35 18.500000000000004
decision_type=2 2 2 2 2 2 2 2 2 2 2 2 2 2 2 2 2 2 2 2 2 2 2 2 2 2 2 2 2 2 2 2 2 2 2 2 2 2 2 2
left_child=1 2 4 20 5 6 8 14 10 -10 13 12 -12 19 -8 30 37 18 22 -1 -2 -13 -18 28 32 31 27 -27 -24 -28 -5 -15 -19 -17 -35 -6 39 -3 -21 -30
right_child=3 16 -4 15 35 -7 7 -9 9 -11 11 21 -14 25 -16 33 17 24 -20 38 -22 -23 23 -25 -26 26 29 -29 36 -31 -32 -33 -34 34 -36 -37 -38 -39 -40 -41
leaf_value=-0.132451099032391 -0.1952943466770361 -0.17018299950064067 0.25618617966133161 0.04895452381006124 -0.26329915343770877 -0.24213269569962856 0.12965969903437399 -0.1441826829131371 -0.021100063839247164 0.28314507281357626 0.40528253924267033 -0.21886762995446354 0.035646071045038551 -0.24522047225639385 0.33782262629603982 0.28589300064795198 0.061005859461168883 -0.11804521704811802 0.28078098059638817 0.062579605406166916 0.068284485151482763 0.0068627982120399167 -0.028872635847699734 0.012834440760222035 -0.064212102431453741 -0.11210717188362586 -0.083994419973145079 0.14877574060836229 -0.18211060443379215 -0.251927780948485 0.18885828280729478 -0.14681399994774505 -0.24393298861738349 0.12623984696831606 0.28433540228326937 -0.16249075048750553 -0.12241801502602626 -0.2446671483307192 0.028053012268925873 -0.25031477074043068
leaf_weight=25.172731816768646 17.79344275593758 16.003627896308899 41.248210191726685 19.808235883712769 27.418452560901642 34.759724885225296 49.09894198179245 27.529323935508728 42.418396979570389 31.826810240745544 16.156266450881958 21.4129978120327 22.776304230093956 43.085551708936691 33.110751330852509 118.25942343473434 11.682639211416243 7.8718829751014701 11.615933001041411 21.300974726676941 10.659080088138579 16.528357207775116 8.323706388473509 16.827132135629654 18.852698087692261 17.058433920145038 13.499048471450804 14.819281220436094 18.419967919588089 24.224054619669914 15.469035327434538 23.812575548887253 74.424375206232071 20.983811318874359 30.0711829662323 13.429111838340758 7.8052558898925772 72.069916218519211 27.854861080646515 22.50699870288372
leaf_count=24 35 31 48 23 42 35 48 24 36 31 18 25 33 73 35 161 16 9 23 22 14 24 11 16 33 30 14 21 75 51 21 24 203 23 39 29 13 126 23 51
internal_value=0 -0.0605473 -0.00902563 0.200647 -0.0294448 -0.0124491 0.00495331 0.125572 -0.0318625 0.111351 -0.0690784 0.0387226 0.195346 -0.108383 0.216552 0.242394 -0.166021 -0.13517 -0.0633828 -0.0167474 -0.0975848 -0.122882 -0.112808 -0.14074 -0.202847 -0.157797 -0.102597 0.0100082 -0.185474 -0.195555 0.113817 -0.212871 -0.233453 0.268358 0.223031 -0.234832 -0.211104 -0.233195 0.043964 -0.224694
internal_weight=0 874.945 588.541 233.044 547.293 506.445 471.686 109.739 361.947 74.2452 287.701 76.8739 38.9326 210.828 82.2097 204.592 286.404 198.331 97.1816 74.3286 28.4525 37.9414 85.5657 73.8831 101.149 136.499 69.6008 31.8777 57.0559 37.7231 35.2773 66.8981 82.2963 169.314 51.055 40.8476 48.7322 88.0735 49.1558 40.927
internal_count=1633 1317 710 316 662 591 556 107 449 67 382 100 51 282 83 267 607 450 205 69 49 49 182 166 245 213 116 51 150 65 44 97 212 223 62 71 139 157 45 126
shrinkage=0.3


Tree=15
num_leaves=42
num_cat=0
split_feature=1575 1584 1578 1566 1587 1578 1566 503 1657 1588 1589 1587 1570 1555 1573 1654 1551 1555 1578 1674 1562 1590 1568 1562 1578 1555 1570 1570 1674 1050 1555 1566 1570 1555 1587 1589 1570 1555 1570 1601 1590
split_gain=124.46 53.0048 35.0087 42.647 16.392 16.2109 17.9842 19.092 11.0742 10.484 10.218 15.1627 11.3698 9.17307 8.95418 17.4255 14.829 14.488 12.2083 11.8578 9.56584 7.57567 13.3778 10.799 5.48411 5.21569 4.77887 4.57143 4.38473 4.30823 5.36302 3.86302 12.7175 2.23928 2.19858 2.28935 2.09501 1.63736 1.13712 0.52108 0.0111968
threshold=1.0000000180025095e-35 1.0000000180025095e-35 209.00000000000003 117.50000000000001 13.500000000000002 31535998.500000004 63.833333333333336 1.0000000180025095e-35 1.0000000180025095e-35 139.50000000000003 -4.4999999999999991 27.500000000000004 3.1486047690606065 61.000000000000007 1.0000000180025095e-35 1.0000000180025095e-35 1.0000000180025095e-35 15.500000000000002 32659198.500000004 1.0000000180025095e-35 0.88746346771914963 1.2500000000000002 13.500000000000002 0.94501827812934736 1798.5000000000002 1.5000000000000002 3.4022650295823875 3.6362776753736372 1.0000000180025095e-35 1.0000000180025095e-35 1.5000000000000002 25.678571428571434 3.9039696994335902 3.5000000000000004 35.000000000000007 -4.4999999999999991 3.6657447496054134 6.5000000000000009 5.172544463868598 1.0000000180025095e-35 3.4575375117503717
decision_type=2 2 2 2 2 2 2 2 2 2 2 2 2 2 2 2 2 2 2 2 2 2 2 2 2 2 2 2 2 2 2 2 2 2 2 2 2 2 2 2 2
left_child=1 13 4 5 -2 31 7 10 -3 -5 11 12 -7 14 15 16 21 18 19 26 24 33 -23 -24 -21 28 29 -6 -13 30 -18 40 -33 -1 -16 -36 -17 -38 -34 -8 -4
right_child=2 8 3 9 27 6 39 -9 -10 -11 -12 25 -14 -15 34 36 17 -19 -20 20 -22 22 23 -25 -26 -27 -28 -29 -30 -31 -32 32 38 -35 35 -37 37 -39 -40 -41 -42
leaf_value=-0.24572417583050027 0.14317800674878625 -0.03064289927070064 0.31830163205060735 -0.26357558594349417 -0.17675866024828318 0.09131594327080253 0.29743256143355984 0.34558406738351105 0.2664630768280471 0.024895247783873111 -0.14697834176012931 0.0040113085518690174 -0.17469915726738255 0.10163878280488087 -0.25577052010884505 -0.24284079797929742 -0.076620493402074996 -0.23471748380509133 0.26393431432230074 0.10924281377897579 0.23120709244589827 0.15097620391274225 -0.23588936050506615 0.040213987912688633 -0.13015805626014904 0.31220671717034032 -0.17950596895497456 0.0032641638769023043 0.19087869053078449 -0.16099286915140773 0.097982210024471536 -0.0090129764125596295 0.32498472079047941 -0.10705091057308484 -0.053952325416360795 -0.23194592209436901 -0.20605758031515076 -0.062548892096056324 0.18267616374837273 0.19419904262876955 0.25808337906721057
leaf_weight=58.835153967142105 25.625891000032425 15.382465064525602 48.746257960796356 23.635038763284683 52.152452945709229 27.612886905670166 38.645234048366547 19.167052030563354 39.554143607616425 20.714216858148575 22.724147200584412 19.343461871147156 28.34636777639389 15.306004047393797 55.114626973867416 79.486420661211014 35.009821951389313 25.343892574310303 13.869859278202055 15.590176343917845 23.864912867546082 16.401770979166031 39.429152607917786 18.24168062210083 16.925289809703827 16.278444319963455 28.937185406684875 16.631814926862717 26.329583764076233 18.641806662082672 27.255856931209564 19.856695234775543 26.063683688640594 15.498899191617964 14.488715082406999 12.125865519046782 15.690591126680376 14.695813745260237 12.399710118770598 14.743383347988127 44.126304984092712
leaf_count=81 33 14 64 27 47 28 66 25 64 20 13 22 22 18 72 254 57 31 16 15 30 17 54 20 26 19 36 23 36 49 41 22 40 20 23 23 20 24 19 23 79
internal_value=0 -0.0946984 0.106256 0.144225 -0.0579117 0.178022 0.12377 0.072519 0.184212 -0.131262 0.0331259 0.0687803 -0.0441363 -0.122302 -0.128761 -0.112172 -0.0793643 -0.0269191 0.00345804 -0.0197245 0.0911144 -0.151298 -0.0817311 -0.149359 -0.015538 0.169856 -0.076924 -0.133807 0.113518 -0.0384911 0.00014986 0.253204 0.186364 -0.218615 -0.220389 -0.140511 -0.216161 -0.140856 0.284899 0.273019 0.292744
internal_weight=0 615.69 503.143 408.732 94.4102 364.383 213.191 159.802 54.9366 44.3493 140.635 117.911 55.9593 560.753 545.447 463.718 353.845 205.439 180.095 166.225 56.3804 148.407 74.0726 57.6708 32.5155 61.9515 109.845 68.7843 45.673 80.9075 62.2657 151.193 58.3201 74.3341 81.7292 26.6146 109.873 30.3864 38.4634 53.3886 92.8726
internal_count=1633 1005 628 525 103 478 254 165 78 47 140 127 50 927 909 791 493 301 270 254 71 192 91 74 41 77 183 70 58 147 98 224 81 101 118 46 298 44 59 89 143
shrinkage=0.3


Tree=16
num_leaves=37
num_cat=0
split_feature=1553 1572 1124 1578 1572 1599 1567 1565 1671 1570 1566 1068 1673 1570 1578 1595 1564 1056 1601 1591 1570 1562 1563 1670 1587 1555 1669 1566 1566 1588 1578 1601 1555 1570 1578 1687
split_gain=37.7113 38.2311 29.443 22.1972 21.2397 20.3243 17.1156 23.8877 15.9801 19.9037 15.4407 13.7319 13.0472 12.1898 11.7747 13.5548 11.7273 10.8464 18.6517 10.6672 9.17943 10.1004 7.56234 6.22894 4.26721 5.20296 4.39943 4.06625 3.28016 3.22629 3.17204 1.91888 1.22858 4.0902 0.937801 0.641694
threshold=1.0000000180025095e-35 1.0000000180025095e-35 1.0000000180025095e-35 2591998.5000000005 1.0000000180025095e-35 1.0000000180025095e-35 0.79554662508460483 0.72137687767241465 1.0000000180025095e-35 1.5696628794434755 42.384615384615394 1.0000000180025095e-35 1.0000000180025095e-35 3.2438589555751638 90503999.000000015 2.0000000000000004 29.100000000000005 1.0000000180025095e-35 1.0000000180025095e-35 1.0000000180025095e-35 3.4895634289242361 0.15909665991902835 0.018519709496626131 1.0000000180025095e-35 25.500000000000004 9.5000000000000018 1.0000000180025095e-35 25.050000000000004 25.678571428571434 120.00000000000001 31535998.500000004 1.0000000180025095e-35 12.500000000000002 3.2847719534445416 2635199.0000000005 0.80209790209790222
decision_type=2 2 2 2 2 2 2 2 2 2 2 2 2 2 2 2 2 2 2 2 2 2 2 2 2 2 2 2 2 2 2 2 2 2 2 2
left_child=1 2 5 4 13 6 7 8 11 -10 28 12 17 -2 15 24 23 18 30 -20 -3 -22 27 31 25 26 -5 -7 -6 34 -1 -15 -29 -34 -26 -4
right_child=3 20 35 14 10 22 -8 -9 9 -11 -12 -13 -14 16 -16 -17 -18 -19 19 -21 21 -23 -24 -25 29 -27 -28 32 -30 -31 -32 -33 33 -35 -36 -37
leaf_value=-0.18077009561404186 0.089478262644900566 0.055222917664240055 0.19607891156146171 -0.24463508340019993 0.11264248253422814 0.00076411326513619118 -0.2251423139737678 0.27893043967687142 -0.027344217084487095 0.31312654039980437 0.34865244582626276 0.1668781640241436 0.15893099904950822 -0.24112744363752395 0.041279112240642263 0.1864603735542516 0.15878234849352016 0.061598067481044932 0.048436663244154465 -0.19027143110930728 0.29374820722425926 0.07080363600198733 0.15913869434945471 0.018265190389743651 -0.39722984014697754 0.077644400663323024 -0.022774765092193897 -0.23246781760521301 -0.076360109119925607 -0.04517007663978153 -0.060724365035485214 -0.11849725543844178 0.0037033479543825618 -0.23131552960668531 -0.25310377868710698 0.29625238576518464
leaf_weight=99.730044513940811 30.619892835617065 34.332821547985077 26.320947468280792 27.17406177520752 15.708100438117981 11.001363560557364 23.728462398052216 31.537225395441055 28.839601278305054 31.927178621292114 21.013770937919617 34.384041965007782 29.184166729450226 44.756000220775604 22.70432835817337 7.3683434277772895 10.498524785041807 63.939032196998596 100.09846347570419 19.219776928424835 72.475322008132935 25.37795227766037 6.1483202278614035 13.246606230735777 7.5361456722021094 7.929909110069274 11.567333683371542 38.599251702427864 15.393593579530716 6.538101688027381 26.324215143918991 19.723627120256424 11.090204954147341 15.585151076316832 67.730013310909271 18.98213791847229
leaf_count=160 38 25 26 68 32 31 25 27 22 23 18 24 33 111 18 11 10 30 116 16 67 15 10 11 20 14 33 185 9 15 31 30 37 60 213 19
internal_value=0 0.0449633 0.0134586 -0.0766745 -0.00155889 -0.00517923 0.0181383 0.0310041 0.0123732 0.153714 0.156365 -0.0110101 -0.0295181 -0.071538 -0.157153 -0.190377 -0.127798 -0.0477536 -0.0763827 0.00872375 0.190726 0.237229 -0.14205 -0.168032 -0.213263 -0.13604 -0.180632 -0.168073 0.0196322 -0.255145 -0.156376 -0.205999 -0.196111 -0.137004 -0.272554 0.243544
internal_weight=0 748.826 616.64 329.508 170.96 571.337 488.912 465.184 433.647 60.7668 52.1155 372.88 338.496 118.845 158.548 135.844 88.2248 309.312 245.373 119.318 132.186 97.8533 82.4243 77.7262 128.476 46.6713 38.7414 76.276 31.1017 81.8043 126.054 64.4796 65.2746 26.6754 75.2662 45.3031
internal_count=1633 982 875 651 259 830 507 482 455 45 59 410 386 200 392 374 162 353 323 132 107 82 323 152 363 115 101 313 41 248 191 141 282 97 233 45
shrinkage=0.3


Tree=17
num_leaves=19
num_cat=0
split_feature=1673 41 1550 1599 1589 1590 1570 1590 1590 1578 1566 1563 1578 1570 1562 1570 1570 1566
split_gain=50.1227 30.6437 19.5431 18.9798 15.5092 22.8444 17.8555 14.4582 19.4193 15.7331 21.3375 13.0139 11.2459 10.829 10.6332 8.00309 7.91458 7.80417
threshold=1.0000000180025095e-35 1.0000000180025095e-35 1.0000000180025095e-35 1.0000000180025095e-35 29.500000000000004 4.7656750345229115 4.6729165750515627 4.1798500429319914 3.8723206823253853 86398.500000000015 6.166666666666667 0.063144035199489565 89.000000000000014 1.0000000180025095e-35 0.92705099778270517 3.9069124959959383 5.5914179551025747 55.000000000000007
decision_type=2 2 2 2 2 2 2 2 2 2 2 2 2 2 2 2 2 2
left_child=1 2 3 4 5 6 7 8 9 10 12 13 -1 -11 -12 -10 17 -7
right_child=-2 -3 -4 -5 -6 16 -8 -9 15 11 14 -13 -14 -15 -16 -17 -18 -19
leaf_value=0.048039773481758946 -0.23743318136910829 0.21286293197796727 -0.2463395291563194 -0.24408488894731423 0.187475675016789 0.081379960542839594 0.27733738209696113 -0.1960716607788133 0.28890438425768333 0.14950939354913365 -0.23689368277963702 0.22092308705431468 -0.12752944233841382 0.005959411033141346 -0.022205767669414431 0.08066658989742527 0.067092386693280617 -0.24659660425933874
leaf_weight=158.85835938155651 72.565345034003258 67.462241739034653 26.059496507048607 24.247870609164238 45.967726767063141 7.0460731685161582 23.42598831653595 26.707907795906067 30.245780169963837 56.502521216869354 59.127958387136459 35.345837876200676 40.330576926469803 266.98998031020164 32.055727809667587 37.835148096084595 11.233392179012297 47.888732954859734
leaf_count=154 316 32 101 99 20 6 11 35 16 39 160 25 71 310 31 30 17 160
internal_value=0 0.0191575 0.00489055 0.0123985 0.0197384 0.0102752 0.0249287 0.0166196 0.024801 0.00869656 -0.0431381 0.0506446 0.0120321 0.0314159 -0.16248 0.176022 -0.157519 -0.203827
internal_weight=0 997.331 929.869 903.81 879.562 833.594 767.426 744 717.292 649.211 290.373 358.838 199.189 323.493 91.1837 68.0809 66.1682 54.9348
internal_count=1633 1317 1285 1184 1085 1065 882 871 836 790 416 374 225 349 191 46 183 166
shrinkage=0.3


Tree=18
num_leaves=41
num_cat=0
split_feature=1673 1553 1050 1566 1670 1072 1056 1570 1584 1555 1562 1587 1570 1578 1687 1570 1587 1590 1587 1589 1682 1578 1551 1555 1578 1588 1578 1578 1570 1572 1570 1590 1590 1568 1555 1566 1677 1566 1555 1570
split_gain=73.9428 31.5216 20.3404 19.2012 15.411 17.2866 18.579 13.9673 13.0989 13.0007 11.8278 15.0324 13.025 13.0215 9.24388 8.13912 8.42158 7.11684 6.44519 10.2187 7.71933 13.1812 8.44013 5.74134 4.96029 4.63042 3.3341 5.26952 4.68541 6.06591 2.01448 1.8627 1.66708 0.728613 2.3587 0.645879 0.571281 0.547869 0.343944 0.283093
threshold=1.0000000180025095e-35 1.0000000180025095e-35 1.0000000180025095e-35 25.678571428571434 1.0000000180025095e-35 1.0000000180025095e-35 1.0000000180025095e-35 4.7027956801936854 1.0000000180025095e-35 6.5000000000000009 0.7980303030303032 30.500000000000004 2.7299996050155806 1829.0000000000002 0.96249413970932973 4.1338792600966219 2.5000000000000004 5.1452011012316357 15.500000000000002 1.0000000180025095e-35 1.0000000180025095e-35 63071998.500000007 1.0000000180025095e-35 4.5000000000000009 31492798.000000004 29.500000000000004 15551998.500000002 31535998.500000004 4.6002202885487931 1.0000000180025095e-35 3.4943310973931569 5.2487802526483573 3.4308823128329955 34.978260869565226 12.500000000000002 1.9130434782608698 1.0000000180025095e-35 24.500000000000004 1.5000000000000002 3.6181487703870601
decision_type=2 2 2 2 2 2 2 2 2 2 2 2 2 2 2 2 2 2 2 2 2 2 2 2 2 2 2 2 2 2 2 2 2 2 2 2 2 2 2 2
left_child=1 2 4 23 5 6 7 8 9 10 11 12 -1 -12 32 16 -11 -9 35 20 21 22 -20 -2 -15 -18 30 -28 -29 -30 -24 -31 -5 -16 -35 -3 -6 -10 -4 -32
right_child=3 18 38 14 36 -7 -8 17 37 15 13 -13 -14 24 33 -17 25 -19 19 -21 -22 -23 26 -25 -26 -27 27 28 29 31 39 -33 -34 34 -36 -37 -38 -39 -40 -41
